{"learner":{"attributes":{"scikit_learn":"{\"_estimator_type\": \"classifier\"}"},"feature_names":[],"feature_types":[],"gradient_booster":{"model":{"gbtree_model_param":{"num_parallel_tree":"1","num_trees":"100"},"iteration_indptr":[0,1,2,3,4,5,6,7,8,9,10,11,12,13,14,15,16,17,18,19,20,21,22,23,24,25,26,27,28,29,30,31,32,33,34,35,36,37,38,39,40,41,42,43,44,45,46,47,48,49,50,51,52,53,54,55,56,57,58,59,60,61,62,63,64,65,66,67,68,69,70,71,72,73,74,75,76,77,78,79,80,81,82,83,84,85,86,87,88,89,90,91,92,93,94,95,96,97,98,99,100],"tree_info":[0,0,0,0,0,0,0,0,0,0,0,0,0,0,0,0,0,0,0,0,0,0,0,0,0,0,0,0,0,0,0,0,0,0,0,0,0,0,0,0,0,0,0,0,0,0,0,0,0,0,0,0,0,0,0,0,0,0,0,0,0,0,0,0,0,0,0,0,0,0,0,0,0,0,0,0,0,0,0,0,0,0,0,0,0,0,0,0,0,0,0,0,0,0,0,0,0,0,0,0],"trees":[{"base_weights":[1.7281113E-7,-2.4214028E-1,2.9131567E-1,-2.8715912E-1,1.4380678E0,2.1704681E-1,1.3024175E0,-4.084466E-1,2.1287021E-1,-1.0761882E-1,1.6518222E0,3.2503965E-1,-7.666258E-1,1.843406E-1,6.5532334E-2,-3.124173E-2,-1.2789492E-1,1.4156705E-1,-2.8140398E-3,1.755411E-1,5.007965E-2,2.4276683E-2,1.5428938E-1,-1.3001561E-1,1.8833528E-1,-2.7747301E-2,1.5563819E-1],"categories":[],"categories_nodes":[],"categories_segments":[],"categories_sizes":[],"default_left":[0,0,0,0,0,0,0,0,0,0,0,0,0,0,0,0,0,0,0,0,0,0,0,0,0,0,0],"id":0,"left_children":[1,3,5,7,9,11,13,15,17,-1,19,21,23,-1,25,-1,-1,-1,-1,-1,-1,-1,-1,-1,-1,-1,-1],"loss_changes":[1.6624338E2,9.776291E1,8.004843E1,7.61538E1,1.9916046E1,1.0623973E2,4.8726463E1,8.400922E1,7.120723E1,0E0,2.8767471E0,8.977703E1,1.4241914E2,0E0,1.2321188E1,0E0,0E0,0E0,0E0,0E0,0E0,0E0,0E0,0E0,0E0,0E0,0E0],"parents":[2147483647,0,0,1,1,2,2,3,3,4,4,5,5,6,6,7,7,8,8,10,10,11,11,12,12,14,14],"right_children":[2,4,6,8,10,12,14,16,18,-1,20,22,24,-1,26,-1,-1,-1,-1,-1,-1,-1,-1,-1,-1,-1,-1],"split_conditions":[-5.2831095E-2,5.440511E-2,-2.2934256E-2,-5.424661E-2,-5.7401627E-2,-3.2915495E-2,-6.3964683E-3,-5.3318914E-2,-5.4056104E-2,-1.0761882E-1,-4.846603E-2,-3.7131492E-2,2.7919312E0,1.843406E-1,2.2161232E1,-3.124173E-2,-1.2789492E-1,1.4156705E-1,-2.8140398E-3,1.755411E-1,5.007965E-2,2.4276683E-2,1.5428938E-1,-1.3001561E-1,1.8833528E-1,-2.7747301E-2,1.5563819E-1],"split_indices":[2,5,2,0,1,2,0,2,0,0,1,2,5,0,0,0,0,0,0,0,0,0,0,0,0,0,0],"split_type":[0,0,0,0,0,0,0,0,0,0,0,0,0,0,0,0,0,0,0,0,0,0,0,0,0,0,0],"sum_hessian":[2.3547495E3,1.2859996E3,1.0687498E3,1.2532498E3,3.2749992E1,9.9674976E2,7.1999985E1,1.00874976E3,2.4449994E2,2.2499995E0,3.0499992E1,8.9874976E2,9.799998E1,4.974999E1,2.2249994E1,9.0974976E2,9.899998E1,3.9999992E1,2.0449995E2,2.7499994E1,2.9999993E0,8.429998E2,5.574999E1,8.199998E1,1.5999996E1,1.8749996E1,3.499999E0],"tree_param":{"num_deleted":"0","num_feature":"6","num_nodes":"27","size_leaf_vector":"1"}},{"base_weights":[2.912001E-4,-2.0251255E-1,3.006208E-1,-2.6676038E-1,7.920222E-1,-8.494837E-1,3.4780902E-1,-2.1657638E-1,-1.8089699E0,1.85365E-1,-1.7880188E-1,1.2479551E0,-1.7603956E0,2.733178E-1,1.0961492E0,-2.8478948E-2,5.0290465E-2,-1.9001807E-1,1.6706005E-2,-8.086952E-2,1.6175698E-1,1.442288E-1,-2.3513641E-2,-1.8303946E-1,-1.8401904E-2,3.5687502E-2,-1.2458495E-1,1.4651626E-1,7.985942E-3],"categories":[],"categories_nodes":[],"categories_segments":[],"categories_sizes":[],"default_left":[0,0,0,0,0,0,0,0,0,0,0,0,0,0,0,0,0,0,0,0,0,0,0,0,0,0,0,0,0],"id":1,"left_children":[1,3,5,7,9,11,13,15,17,-1,19,21,23,25,27,-1,-1,-1,-1,-1,-1,-1,-1,-1,-1,-1,-1,-1,-1],"loss_changes":[1.4339668E2,9.0007645E1,5.1797966E1,1.01831116E2,8.848221E1,7.421083E1,5.0555717E1,6.297872E1,7.795227E0,0E0,5.289095E1,3.797161E0,2.6087189E0,1.0593356E2,3.0731651E1,0E0,0E0,0E0,0E0,0E0,0E0,0E0,0E0,0E0,0E0,0E0,0E0,0E0,0E0],"parents":[2147483647,0,0,1,1,2,2,3,3,4,4,5,5,6,6,7,7,8,8,10,10,11,11,12,12,13,13,14,14],"right_children":[2,4,6,8,10,12,14,16,18,-1,20,22,24,26,28,-1,-1,-1,-1,-1,-1,-1,-1,-1,-1,-1,-1,-1,-1],"split_conditions":[-1.5934639E-1,-4.655032E-2,-2.8438067E-1,-4.8074897E-2,-4.351836E-2,-2.8555754E-1,-2.6367972E-2,-5.1924475E-2,-1.8815234E-2,1.85365E-1,-2.9871471E-2,-5.5024344E-2,5.332128E-1,-3.1646438E-2,-7.251595E-3,-2.8478948E-2,5.0290465E-2,-1.9001807E-1,1.6706005E-2,-8.086952E-2,1.6175698E-1,1.442288E-1,-2.3513641E-2,-1.8303946E-1,-1.8401904E-2,3.5687502E-2,-1.2458495E-1,1.4651626E-1,7.985942E-3],"split_indices":[5,1,3,2,1,3,2,2,3,0,0,5,5,2,2,0,0,0,0,0,0,0,0,0,0,0,0,0,0],"split_type":[0,0,0,0,0,0,0,0,0,0,0,0,0,0,0,0,0,0,0,0,0,0,0,0,0,0,0,0,0],"sum_hessian":[2.3523176E3,1.4043363E3,9.479813E2,1.3198074E3,8.452897E1,3.669215E1,9.112892E2,1.2793184E3,4.048901E1,3.994187E1,4.4587097E1,1.0998143E1,2.5694006E1,8.300315E2,8.125767E1,1.1690833E3,1.10235146E2,3.8739243E1,1.7497642E0,3.341872E1,1.1168376E1,9.748312E0,1.2498317E0,2.4447287E1,1.2467203E0,7.8748346E2,4.2548054E1,5.9288433E1,2.196923E1],"tree_param":{"num_deleted":"0","num_feature":"6","num_nodes":"29","size_leaf_vector":"1"}},{"base_weights":[3.2827517E-4,-1.8239935E-1,2.7120632E-1,-1.300904E-1,-1.3195847E0,1.7262559E-1,7.9488313E-1,-1.9018927E-1,7.881886E-1,-1.7345129E0,6.4031094E-1,2.685239E-1,-1.486246E0,1.6951561E0,5.133967E-1,-1.529024E-2,-1.6153675E-1,-1.4517465E-1,1.23205006E-1,-1.7825921E-1,-6.510847E-2,-1.217091E-1,1.4387257E-1,1.6009122E-2,1.21968105E-1,-1.6937982E-1,1.3873695E-1,-3.7052907E-2,1.830548E-1,-1.2295123E-1,7.226466E-2],"categories":[],"categories_nodes":[],"categories_segments":[],"categories_sizes":[],"default_left":[0,0,0,0,0,0,0,0,0,0,0,0,0,0,0,0,0,0,0,0,0,0,0,0,0,0,0,0,0,0,0],"id":2,"left_children":[1,3,5,7,9,11,13,15,17,19,21,23,25,27,29,-1,-1,-1,-1,-1,-1,-1,-1,-1,-1,-1,-1,-1,-1,-1,-1],"loss_changes":[1.1632766E2,8.331322E1,4.873768E1,7.425865E1,5.1212013E1,1.2735215E2,3.7068214E1,6.67722E1,8.399272E1,1.5019531E0,1.8797386E1,7.770013E1,2.845272E1,1.0529938E1,4.3005882E1,0E0,0E0,0E0,0E0,0E0,0E0,0E0,0E0,0E0,0E0,0E0,0E0,0E0,0E0,0E0,0E0],"parents":[2147483647,0,0,1,1,2,2,3,3,4,4,5,5,6,6,7,7,8,8,9,9,10,10,11,11,12,12,13,13,14,14],"right_children":[2,4,6,8,10,12,14,16,18,20,22,24,26,28,30,-1,-1,-1,-1,-1,-1,-1,-1,-1,-1,-1,-1,-1,-1,-1,-1],"split_conditions":[-1.5934639E-1,-1.7924462E-1,1.2677772E-1,-4.655032E-2,-4.4157017E-2,4.9256843E-2,1.8969E-1,-4.8074897E-2,-4.254784E-1,-4.76089E-2,-1.7044991E-1,-9.022106E-2,2.7064794E-1,1.5036567E-1,-5.4157905E-2,-1.529024E-2,-1.6153675E-1,-1.4517465E-1,1.23205006E-1,-1.7825921E-1,-6.510847E-2,-1.217091E-1,1.4387257E-1,1.6009122E-2,1.21968105E-1,-1.6937982E-1,1.3873695E-1,-3.7052907E-2,1.830548E-1,-1.2295123E-1,7.226466E-2],"split_indices":[5,5,3,1,3,3,4,2,5,0,5,3,4,3,2,0,0,0,0,0,0,0,0,0,0,0,0,0,0,0,0],"split_type":[0,0,0,0,0,0,0,0,0,0,0,0,0,0,0,0,0,0,0,0,0,0,0,0,0,0,0,0,0,0,0],"sum_hessian":[2.3482014E3,1.4024619E3,9.457395E2,1.341853E3,6.060897E1,7.9703033E2,1.4870912E2,1.260171E3,8.168191E1,5.0114304E1,1.0494667E1,7.542649E2,4.2765446E1,3.4225185E1,1.1448394E2,1.229121E3,3.1050154E1,1.3133473E1,6.854843E1,4.7366974E1,2.7473269E0,2.9973533E0,7.497314E0,6.781263E2,7.613863E1,4.0267612E1,2.4978328E0,1.9984198E0,3.222677E1,1.1748778E1,1.0273516E2],"tree_param":{"num_deleted":"0","num_feature":"6","num_nodes":"31","size_leaf_vector":"1"}},{"base_weights":[1.9942959E-4,-2.0513505E-1,2.150384E-1,-3.2179186E-1,3.4789118E-1,-1.6570951E0,2.4200061E-1,-1.933713E-1,-9.56496E-1,8.929676E-2,1.7210099E0,-2.1806179E-2,-1.7613538E-1,1.4099996E0,2.0195177E-1,-3.1026576E-2,6.596829E-2,1.7587969E-1,-1.0600572E-1,1.5302426E-1,-1.9085301E-2,1.9078688E-1,3.5844117E-2,6.632621E-2,1.7480955E-1,-1.3672109E-1,2.2942761E-2],"categories":[],"categories_nodes":[],"categories_segments":[],"categories_sizes":[],"default_left":[0,0,0,0,0,0,0,0,0,0,0,0,0,0,0,0,0,0,0,0,0,0,0,0,0,0,0],"id":3,"left_children":[1,3,5,7,9,11,13,15,17,19,21,-1,-1,23,25,-1,-1,-1,-1,-1,-1,-1,-1,-1,-1,-1,-1],"loss_changes":[1.0345471E2,7.747183E1,5.8250656E1,8.057015E1,7.41869E1,2.0762215E0,5.2604347E1,8.2499146E1,4.8676315E1,7.183932E1,7.7500687E0,0E0,0E0,8.261757E0,4.749546E1,0E0,0E0,0E0,0E0,0E0,0E0,0E0,0E0,0E0,0E0,0E0,0E0],"parents":[2147483647,0,0,1,1,2,2,3,3,4,4,5,5,6,6,7,7,8,8,9,9,10,10,13,13,14,14],"right_children":[2,4,6,8,10,12,14,16,18,20,22,-1,-1,24,26,-1,-1,-1,-1,-1,-1,-1,-1,-1,-1,-1,-1],"split_conditions":[-5.450197E-2,-5.2883677E-2,-5.632636E-2,-5.5631813E-2,1.758249E-3,-5.6702223E-2,-5.5349678E-2,-5.6229237E-2,-2.277455E0,-5.6412727E-2,-5.1375538E-2,-2.1806179E-2,-1.7613538E-1,-5.407492E-2,-5.5010207E-2,-3.1026576E-2,6.596829E-2,1.7587969E-1,-1.0600572E-1,1.5302426E-1,-1.9085301E-2,1.9078688E-1,3.5844117E-2,6.632621E-2,1.7480955E-1,-1.3672109E-1,2.2942761E-2],"split_indices":[0,2,1,0,3,1,1,0,4,1,2,0,0,2,1,0,0,0,0,0,0,0,0,0,0,0,0],"split_type":[0,0,0,0,0,0,0,0,0,0,0,0,0,0,0,0,0,0,0,0,0,0,0,0,0,0,0],"sum_hessian":[2.3431755E3,1.1981127E3,1.1450629E3,9.8975024E2,2.0836238E2,1.5398532E1,1.1296643E3,8.242777E2,1.6547255E2,1.7623729E2,3.2125095E1,1.2491158E0,1.4149416E1,3.631628E1,1.093348E3,7.2549854E2,9.8779144E1,5.4920506E0,1.599805E2,2.796053E1,1.4827676E2,2.7898912E1,4.2261815E0,1.2241268E1,2.407501E1,1.7975842E1,1.0753722E3],"tree_param":{"num_deleted":"0","num_feature":"6","num_nodes":"27","size_leaf_vector":"1"}},{"base_weights":[3.48432E-4,-1.5059295E-1,2.4334744E-1,-2.9120946E-1,1.441053E-1,1.4277469E0,1.949337E-1,-2.3210905E-1,-1.320463E0,1.0555559E0,-2.8834004E-2,-7.1058564E-2,1.5273447E0,-5.549682E-1,2.6970834E-1,-2.711955E-2,1.0856692E-1,-1.6506897E-1,4.412417E-2,-1.6531211E-1,1.21182464E-1,-2.195973E-2,6.380435E-2,1.6313876E-1,-4.341298E-2,5.3844362E-2,-1.8309289E-1,1.6099186E-1,1.9681085E-2],"categories":[],"categories_nodes":[],"categories_segments":[],"categories_sizes":[],"default_left":[0,0,0,0,0,0,0,0,0,0,0,0,0,0,0,0,0,0,0,0,0,0,0,0,0,0,0,0,0],"id":4,"left_children":[1,3,5,7,9,11,13,15,17,19,21,-1,23,25,27,-1,-1,-1,-1,-1,-1,-1,-1,-1,-1,-1,-1,-1,-1],"loss_changes":[8.585642E1,5.9875996E1,5.1150265E1,5.9173157E1,7.365397E1,8.552887E0,4.85313E1,4.7986443E1,3.149453E1,3.3544785E1,5.0207375E1,0E0,7.610237E0,1.10589584E2,7.640172E1,0E0,0E0,0E0,0E0,0E0,0E0,0E0,0E0,0E0,0E0,0E0,0E0,0E0,0E0],"parents":[2147483647,0,0,1,1,2,2,3,3,4,4,5,5,6,6,7,7,8,8,9,9,10,10,12,12,13,13,14,14],"right_children":[2,4,6,8,10,12,14,16,18,20,22,-1,24,26,28,-1,-1,-1,-1,-1,-1,-1,-1,-1,-1,-1,-1,-1,-1],"split_conditions":[-1.4383759E-1,-5.450197E-2,-1.3200636E-1,-1.7991272E-1,-5.4056104E-2,-2.8405106E-1,-1.8084203E-1,-1.9635357E-1,-3.99399E-2,-2.9104528E-1,-4.655032E-2,-7.1058564E-2,5.0152387E-2,-1.8205948E-1,-1.7933692E-1,-2.711955E-2,1.0856692E-1,-1.6506897E-1,4.412417E-2,-1.6531211E-1,1.21182464E-1,-2.195973E-2,6.380435E-2,1.6313876E-1,-4.341298E-2,5.3844362E-2,-1.8309289E-1,1.6099186E-1,1.9681085E-2],"split_indices":[5,0,5,5,0,3,4,5,3,3,1,0,4,4,4,0,0,0,0,0,0,0,0,0,0,0,0,0,0],"split_type":[0,0,0,0,0,0,0,0,0,0,0,0,0,0,0,0,0,0,0,0,0,0,0,0,0,0,0,0,0],"sum_hessian":[2.3387773E3,1.4428909E3,8.9588654E2,9.768125E2,4.6607837E2,3.4063465E1,8.6182306E2,9.2492804E2,5.188446E1,7.351659E1,3.9256177E2,1.24296E0,3.2820507E1,7.7560486E1,7.842626E2,8.990555E2,2.5872557E1,4.3747185E1,8.137273E0,3.4874973E0,7.002909E1,3.057666E2,8.679519E1,3.13271E1,1.4934053E0,4.207935E1,3.5481136E1,3.936978E1,7.4489276E2],"tree_param":{"num_deleted":"0","num_feature":"6","num_nodes":"29","size_leaf_vector":"1"}},{"base_weights":[3.4862768E-4,-3.0264162E-2,9.891575E-1,-1.4674768E-1,1.6926257E-1,1.4702559E0,-5.1236056E-2,2.2529131E-1,-2.4474569E-1,2.5958923E-1,-6.604909E-1,1.4870831E-1,4.3864142E-2,-3.6655393E-1,1.361251E-1,-1.4716675E-2,1.00625075E-1,1.141729E-1,-2.734366E-2,1.5434161E-2,1.061247E-1,-1.20230995E-1,1.5896694E-1,6.7096896E-4,-1.6314664E-1],"categories":[],"categories_nodes":[],"categories_segments":[],"categories_sizes":[],"default_left":[0,0,0,0,0,0,0,0,0,0,0,0,0,0,0,0,0,0,0,0,0,0,0,0,0],"id":5,"left_children":[1,3,5,7,9,11,13,15,17,19,21,-1,-1,23,-1,-1,-1,-1,-1,-1,-1,-1,-1,-1,-1],"loss_changes":[7.065882E1,5.2648052E1,3.5161148E1,5.219622E1,6.275808E1,1.8035126E-1,1.0801181E1,8.702878E1,4.535974E1,6.3435913E1,1.0220338E2,0E0,0E0,9.311112E0,0E0,0E0,0E0,0E0,0E0,0E0,0E0,0E0,0E0,0E0,0E0],"parents":[2147483647,0,0,1,1,2,2,3,3,4,4,5,5,6,6,7,7,8,8,9,9,10,10,13,13],"right_children":[2,4,6,8,10,12,14,16,18,20,22,-1,-1,24,-1,-1,-1,-1,-1,-1,-1,-1,-1,-1,-1],"split_conditions":[-2.2934256E-2,-1.4383759E-1,-6.3964683E-3,-2.1246292E-1,-3.2915495E-2,2.6554153E0,2.2161232E1,-5.4851428E-2,-5.8142174E-2,-3.996444E-2,2.7919312E0,1.4870831E-1,4.3864142E-2,3.2044804E0,1.361251E-1,-1.4716675E-2,1.00625075E-1,1.141729E-1,-2.734366E-2,1.5434161E-2,1.061247E-1,-1.20230995E-1,1.5896694E-1,6.7096896E-4,-1.6314664E-1],"split_indices":[2,5,0,4,2,5,0,2,2,2,5,0,0,3,0,0,0,0,0,0,0,0,0,0,0],"split_type":[0,0,0,0,0,0,0,0,0,0,0,0,0,0,0,0,0,0,0,0,0,0,0,0,0],"sum_hessian":[2.3322815E3,2.2631843E3,6.9097115E1,1.4291262E3,8.34058E2,4.696596E1,2.2131155E1,2.976877E2,1.1314386E3,7.527961E2,8.126194E1,4.577775E1,1.1882141E0,1.8697657E1,3.4334984E0,2.021088E2,9.557891E1,2.2152166E1,1.1092864E3,6.664872E2,8.630888E1,6.586733E1,1.5394607E1,1.5205387E1,3.492269E0],"tree_param":{"num_deleted":"0","num_feature":"6","num_nodes":"25","size_leaf_vector":"1"}},{"base_weights":[6.069688E-4,-1.4590123E-1,1.7881213E-1,-1.8149221E-1,1.2017967E0,1.272319E-1,9.188304E-1,-1.1649876E-1,-9.83208E-1,-1.0011083E-1,1.395034E0,2.0648278E-1,-6.1383736E-1,1.3811324E0,-4.7148053E-2,-2.1718116E-2,2.5954476E-2,-1.5420705E-1,1.4620976E-1,1.4941095E-1,3.497932E-2,1.4289214E-2,1.1847633E-1,-1.02195755E-1,1.4914279E-1,1.3970616E-1,4.1716523E-2,-7.2961286E-2,6.0430624E-2],"categories":[],"categories_nodes":[],"categories_segments":[],"categories_sizes":[],"default_left":[0,0,0,0,0,0,0,0,0,0,0,0,0,0,0,0,0,0,0,0,0,0,0,0,0,0,0,0,0],"id":6,"left_children":[1,3,5,7,9,11,13,15,17,-1,19,21,23,25,27,-1,-1,-1,-1,-1,-1,-1,-1,-1,-1,-1,-1,-1,-1],"loss_changes":[6.074544E1,6.1465103E1,3.9953003E1,6.475267E1,1.5437542E1,5.7830807E1,3.0540024E1,4.369805E1,1.296471E2,0E0,2.6609764E0,5.5094604E1,8.329704E1,1.2640381E-1,1.0691149E1,0E0,0E0,0E0,0E0,0E0,0E0,0E0,0E0,0E0,0E0,0E0,0E0,0E0,0E0],"parents":[2147483647,0,0,1,1,2,2,3,3,4,4,5,5,6,6,7,7,8,8,10,10,11,11,12,12,13,13,14,14],"right_children":[2,4,6,8,10,12,14,16,18,-1,20,22,24,26,28,-1,-1,-1,-1,-1,-1,-1,-1,-1,-1,-1,-1,-1,-1],"split_conditions":[-5.2831095E-2,5.440511E-2,-2.2934256E-2,-5.3200103E-2,-5.7401627E-2,-3.2915495E-2,-6.3964683E-3,-5.448311E-2,-1.8815234E-2,-1.0011083E-1,-4.846603E-2,-3.7131492E-2,2.7919312E0,2.6554153E0,1.3477214E-1,-2.1718116E-2,2.5954476E-2,-1.5420705E-1,1.4620976E-1,1.4941095E-1,3.497932E-2,1.4289214E-2,1.1847633E-1,-1.02195755E-1,1.4914279E-1,1.3970616E-1,4.1716523E-2,-7.2961286E-2,6.0430624E-2],"split_indices":[2,5,2,2,1,2,0,0,3,0,1,2,5,5,1,0,0,0,0,0,0,0,0,0,0,0,0,0,0],"split_type":[0,0,0,0,0,0,0,0,0,0,0,0,0,0,0,0,0,0,0,0,0,0,0,0,0,0,0,0,0],"sum_hessian":[2.3246528E3,1.2758866E3,1.0487662E3,1.2439021E3,3.1984526E1,9.8152466E2,6.7241615E1,1.1516829E3,9.2219246E1,2.2422423E0,2.9742285E1,8.873515E2,9.4173134E1,4.5186363E1,2.205525E1,9.0878577E2,2.4289706E2,7.536445E1,1.68548E1,2.6774921E1,2.967362E0,8.3426807E2,5.308342E1,7.931244E1,1.486069E1,4.4009827E1,1.1765338E0,1.0712665E1,1.1342585E1],"tree_param":{"num_deleted":"0","num_feature":"6","num_nodes":"29","size_leaf_vector":"1"}},{"base_weights":[7.928589E-4,-2.4396319E-2,8.568814E-1,-1.2242982E-1,1.4448585E-1,1.3062986E0,-4.2922083E-2,5.1106083E-1,-1.7069493E-1,4.6415576E-1,-7.5099446E-2,1.3216871E-1,3.9691247E-2,-6.6145325E-1,5.5133855E-1,-1.1004221E-2,1.1133875E-1,-3.730794E-2,-1.3215834E-3,-3.0966026E-3,7.9680465E-2,-7.534145E-2,1.8505352E-2,-1.6261713E-1,1.0327493E-2,1.5286599E-1,-2.0464392E-2],"categories":[],"categories_nodes":[],"categories_segments":[],"categories_sizes":[],"default_left":[0,0,0,0,0,0,0,0,0,0,0,0,0,0,0,0,0,0,0,0,0,0,0,0,0,0,0],"id":7,"left_children":[1,3,5,7,9,11,13,15,17,19,21,-1,-1,23,25,-1,-1,-1,-1,-1,-1,-1,-1,-1,-1,-1,-1],"loss_changes":[4.995674E1,3.7276714E1,2.6832943E1,4.3640587E1,5.808719E1,9.3826294E-2,8.827702E0,3.794284E1,4.2204105E1,5.551294E1,8.680448E1,0E0,0E0,8.826419E0,9.391623E0,0E0,0E0,0E0,0E0,0E0,0E0,0E0,0E0,0E0,0E0,0E0,0E0],"parents":[2147483647,0,0,1,1,2,2,3,3,4,4,5,5,6,6,7,7,8,8,9,9,10,10,13,13,14,14],"right_children":[2,4,6,8,10,12,14,16,18,20,22,-1,-1,24,26,-1,-1,-1,-1,-1,-1,-1,-1,-1,-1,-1,-1],"split_conditions":[-2.2934256E-2,-1.4383759E-1,-6.3964683E-3,-5.7762925E-2,2.4438335E-2,2.6554153E0,1.3477214E-1,-5.8354884E-2,-5.6341432E-2,-5.2455615E-2,-2.6933682E-1,1.3216871E-1,3.9691247E-2,3.8820654E-1,2.0895677E0,-1.1004221E-2,1.1133875E-1,-3.730794E-2,-1.3215834E-3,-3.0966026E-3,7.9680465E-2,-7.534145E-2,1.8505352E-2,-1.6261713E-1,1.0327493E-2,1.5286599E-1,-2.0464392E-2],"split_indices":[2,5,0,2,5,5,1,1,0,2,3,0,0,5,3,0,0,0,0,0,0,0,0,0,0,0,0],"split_type":[0,0,0,0,0,0,0,0,0,0,0,0,0,0,0,0,0,0,0,0,0,0,0,0,0,0,0],"sum_hessian":[2.314686E3,2.24947E3,6.521593E1,1.4234528E3,8.2601733E2,4.3191616E1,2.2024311E1,1.00094955E2,1.3233578E3,3.3590158E2,4.9011575E2,4.2027058E1,1.164558E0,1.0736376E1,1.1287935E1,4.9681763E1,5.0413197E1,5.785125E2,7.448452E2,1.3535025E2,2.0055135E2,1.3533952E2,3.5477625E2,4.2493176E0,6.487058E0,4.4774632E0,6.810472E0],"tree_param":{"num_deleted":"0","num_feature":"6","num_nodes":"27","size_leaf_vector":"1"}},{"base_weights":[8.9417037E-4,-2.1947173E-2,8.022842E-1,-1.1034542E-1,1.305198E-1,1.2421496E0,-3.9472673E-2,-6.1629113E-2,-6.474115E-1,4.2054668E-1,-6.773248E-2,1.257259E-1,3.777879E-2,-3.234848E-1,1.2573408E-1,-1.050521E-2,8.781507E-2,-1.15737036E-1,3.9858565E-2,-2.7891316E-3,7.247053E-2,-6.779196E-2,1.668487E-2,3.433828E-3,-1.5331648E-1],"categories":[],"categories_nodes":[],"categories_segments":[],"categories_sizes":[],"default_left":[0,0,0,0,0,0,0,0,0,0,0,0,0,0,0,0,0,0,0,0,0,0,0,0,0],"id":8,"left_children":[1,3,5,7,9,11,13,15,17,19,21,-1,-1,23,-1,-1,-1,-1,-1,-1,-1,-1,-1,-1,-1],"loss_changes":[4.228391E1,3.0285707E1,2.375121E1,3.717193E1,4.7450386E1,7.4523926E-2,8.8557005E0,5.3350136E1,6.3498383E1,4.5713768E1,7.0357506E1,0E0,0E0,8.5425E0,0E0,0E0,0E0,0E0,0E0,0E0,0E0,0E0,0E0,0E0,0E0],"parents":[2147483647,0,0,1,1,2,2,3,3,4,4,5,5,6,6,7,7,8,8,9,9,10,10,13,13],"right_children":[2,4,6,8,10,12,14,16,18,20,22,-1,-1,24,-1,-1,-1,-1,-1,-1,-1,-1,-1,-1,-1],"split_conditions":[-2.2934256E-2,-1.4383759E-1,-6.3964683E-3,-1.8102188E-1,2.4438335E-2,2.6554153E0,2.2161232E1,-1.9867253E-1,-9.022106E-2,-5.2455615E-2,-2.6933682E-1,1.257259E-1,3.777879E-2,3.2044804E0,1.2573408E-1,-1.050521E-2,8.781507E-2,-1.15737036E-1,3.9858565E-2,-2.7891316E-3,7.247053E-2,-6.779196E-2,1.668487E-2,3.433828E-3,-1.5331648E-1],"split_indices":[2,5,0,5,5,5,0,5,3,2,3,0,0,3,0,0,0,0,0,0,0,0,0,0,0],"split_type":[0,0,0,0,0,0,0,0,0,0,0,0,0,0,0,0,0,0,0,0,0,0,0,0,0],"sum_hessian":[2.3080251E3,2.24501E3,6.301502E1,1.4212596E3,8.237504E2,4.1075233E1,2.1939787E1,1.3040834E3,1.17176315E2,3.340059E2,4.8974454E2,3.9922817E1,1.1524136E0,1.861378E1,3.3260076E0,1.2473376E3,5.674563E1,7.870064E1,3.8475677E1,1.353541E2,1.9865178E2,1.3547089E2,3.5427365E2,1.5114522E1,3.499258E0],"tree_param":{"num_deleted":"0","num_feature":"6","num_nodes":"25","size_leaf_vector":"1"}},{"base_weights":[9.4757584E-4,-1.2158136E-1,1.3043348E-1,-8.131597E-2,-1.6013125E0,-1.4973704E0,1.537932E-1,-1.8236154E-1,4.2357787E-1,6.260612E-2,-1.7534111E-1,-2.2583531E-2,-1.5900204E-1,5.445217E-1,4.8714712E-2,-1.2714694E-2,-1.443801E-1,1.6502935E-2,1.5850857E-1,-1.5451151E-1,6.252413E-2,-1.8244039E-1,7.974111E-3],"categories":[],"categories_nodes":[],"categories_segments":[],"categories_sizes":[],"default_left":[0,0,0,0,0,0,0,0,0,0,0,0,0,0,0,0,0,0,0,0,0,0,0],"id":9,"left_children":[1,3,5,7,9,11,13,15,17,-1,-1,-1,-1,19,21,-1,-1,-1,-1,-1,-1,-1,-1],"loss_changes":[3.652446E1,7.034481E1,4.279046E1,5.8876953E1,1.1694801E1,1.5173454E0,4.5314514E1,6.6753235E1,5.754665E1,0E0,0E0,0E0,0E0,4.042736E1,5.0787296E1,0E0,0E0,0E0,0E0,0E0,0E0,0E0,0E0],"parents":[2147483647,0,0,1,1,2,2,3,3,4,4,5,5,6,6,7,7,8,8,13,13,14,14],"right_children":[2,4,6,8,10,12,14,16,18,-1,-1,-1,-1,20,22,-1,-1,-1,-1,-1,-1,-1,-1],"split_conditions":[-5.450197E-2,-5.4614455E-2,-5.632636E-2,-5.2883677E-2,-5.5239715E-2,-5.6702223E-2,-5.3150147E-2,-5.3046685E-2,-4.475922E-3,6.260612E-2,-1.7534111E-1,-2.2583531E-2,-1.5900204E-1,-2.9076052E-1,-5.3107914E-2,-1.2714694E-2,-1.443801E-1,1.6502935E-2,1.5850857E-1,-1.5451151E-1,6.252413E-2,-1.8244039E-1,7.974111E-3],"split_indices":[0,0,1,2,1,1,0,2,3,0,0,0,0,3,0,0,0,0,0,0,0,0,0],"split_type":[0,0,0,0,0,0,0,0,0,0,0,0,0,0,0,0,0,0,0,0,0,0,0],"sum_hessian":[2.3000923E3,1.181825E3,1.1182672E3,1.1515449E3,3.0280066E1,1.4927896E1,1.1033394E3,9.6004724E2,1.9149765E2,1.7363484E0,2.8543718E1,1.2473049E0,1.3680591E1,2.329491E2,8.7039026E2,9.208418E2,3.920546E1,1.5756596E2,3.3931683E1,7.989088E0,2.2496E2,1.3240431E1,8.5714984E2],"tree_param":{"num_deleted":"0","num_feature":"6","num_nodes":"23","size_leaf_vector":"1"}},{"base_weights":[5.8227393E-4,-1.998412E-2,7.471487E-1,3.8143538E-3,-5.7130766E-1,1.1821225E0,-4.4227947E-2,-2.3685059E-2,1.0972186E0,-9.3949896E-1,1.3898061E-1,1.1972426E0,3.559055E-2,-3.069094E-1,1.1867111E-1,-4.4183029E-4,-1.5091562E-1,-1.5255533E-1,1.2813066E-1,-8.26343E-3,-1.2909715E-1,8.4694445E-2,1.2830943E-1,2.3648608E-3,-1.4286213E-1],"categories":[],"categories_nodes":[],"categories_segments":[],"categories_sizes":[],"default_left":[0,0,0,0,0,0,0,0,0,0,0,0,0,0,0,0,0,0,0,0,0,0,0,0,0],"id":10,"left_children":[1,3,5,7,9,11,13,15,17,19,-1,21,-1,23,-1,-1,-1,-1,-1,-1,-1,-1,-1,-1,-1],"loss_changes":[3.5253883E1,2.9320513E1,2.1241459E1,6.446304E1,6.807555E1,7.058334E-2,7.735532E0,5.9851044E1,2.7349628E1,2.3519829E1,0E0,7.476425E-2,0E0,7.2947235E0,0E0,0E0,0E0,0E0,0E0,0E0,0E0,0E0,0E0,0E0,0E0],"parents":[2147483647,0,0,1,1,2,2,3,3,4,4,5,5,6,6,7,7,8,8,9,9,11,11,13,13],"right_children":[2,4,6,8,10,12,14,16,18,20,-1,22,-1,24,-1,-1,-1,-1,-1,-1,-1,-1,-1,-1,-1],"split_conditions":[-2.2934256E-2,-3.2915495E-2,-6.3964683E-3,-3.7131492E-2,2.7919312E0,2.6554153E0,2.2161232E1,1.1018828E0,-3.3005455E-1,-3.6336217E-2,1.3898061E-1,3.3980283E-1,3.559055E-2,3.2044804E0,1.1867111E-1,-4.4183029E-4,-1.5091562E-1,-1.5255533E-1,1.2813066E-1,-8.26343E-3,-1.2909715E-1,8.4694445E-2,1.2830943E-1,2.3648608E-3,-1.4286213E-1],"split_indices":[2,2,0,2,5,5,0,5,5,0,0,5,0,3,0,0,0,0,0,0,0,0,0,0,0],"split_type":[0,0,0,0,0,0,0,0,0,0,0,0,0,0,0,0,0,0,0,0,0,0,0,0,0],"sum_hessian":[2.2940723E3,2.2335166E3,6.0555634E1,2.1420461E3,9.147064E1,3.8758556E1,2.179708E1,2.090449E3,5.159702E1,7.745055E1,1.4020096E1,3.7621006E1,1.1375517E0,1.85823E1,3.2147782E0,2.0646729E3,2.5776106E1,2.9060667E0,4.8690952E1,2.2887526E1,5.4563023E1,9.544011E0,2.8076994E1,1.5108797E1,3.4735036E0],"tree_param":{"num_deleted":"0","num_feature":"6","num_nodes":"25","size_leaf_vector":"1"}},{"base_weights":[6.281774E-4,-8.169937E-2,1.7130013E-1,4.7912362E-1,-1.2082438E-1,6.268384E-1,1.6213462E-2,2.0959158E-1,1.7577797E0,1.8328877E-1,-1.8858343E-1,-9.140489E-1,8.9876956E-1,-1.4011475E0,7.971554E-2,5.859111E-2,-1.6322896E-1,1.9208948E-1,-1.9958915E-2,-2.0572245E-2,8.795352E-2,1.8326265E-1,-2.0979142E-2,1.1791918E-2,-1.6472302E-1,4.010667E-2,1.16367556E-1,-1.5147294E-1,2.344393E-2,-5.2139938E-2,1.8435894E-2],"categories":[],"categories_nodes":[],"categories_segments":[],"categories_sizes":[],"default_left":[0,0,0,0,0,0,0,0,0,0,0,0,0,0,0,0,0,0,0,0,0,0,0,0,0,0,0,0,0,0,0],"id":11,"left_children":[1,3,5,7,9,11,13,15,17,19,21,23,25,27,29,-1,-1,-1,-1,-1,-1,-1,-1,-1,-1,-1,-1,-1,-1,-1,-1],"loss_changes":[3.2167736E1,3.394523E1,5.262033E1,3.441159E1,2.9799978E1,8.009114E1,5.02256E1,5.9514877E1,5.9495964E0,7.160494E1,5.1041924E1,2.2040707E1,2.080072E1,4.8006477E0,3.3677235E1,0E0,0E0,0E0,0E0,0E0,0E0,0E0,0E0,0E0,0E0,0E0,0E0,0E0,0E0,0E0,0E0],"parents":[2147483647,0,0,1,1,2,2,3,3,4,4,5,5,6,6,7,7,8,8,9,9,10,10,11,11,12,12,13,13,14,14],"right_children":[2,4,6,8,10,12,14,16,18,20,22,24,26,28,30,-1,-1,-1,-1,-1,-1,-1,-1,-1,-1,-1,-1,-1,-1,-1,-1],"split_conditions":[-9.8831855E-2,-5.7762925E-2,1.4700266E-2,-3.523899E-1,-2.1246292E-1,-5.407492E-2,-2.8438067E-1,-3.786428E-1,-2.6607582E-1,-5.4851428E-2,-5.7351166E-1,-5.545641E-2,-5.416295E-2,5.6151956E-1,-5.5010207E-2,5.859111E-2,-1.6322896E-1,1.9208948E-1,-1.9958915E-2,-2.0572245E-2,8.795352E-2,1.8326265E-1,-2.0979142E-2,1.1791918E-2,-1.6472302E-1,4.010667E-2,1.16367556E-1,-1.5147294E-1,2.344393E-2,-5.2139938E-2,1.8435894E-2],"split_indices":[5,2,5,5,4,2,3,5,3,2,5,1,1,5,1,0,0,0,0,0,0,0,0,0,0,0,0,0,0,0,0],"split_type":[0,0,0,0,0,0,0,0,0,0,0,0,0,0,0,0,0,0,0,0,0,0,0,0,0,0,0,0,0,0,0],"sum_hessian":[2.2873594E3,1.5433906E3,7.4396875E2,9.9917274E1,1.4434733E3,1.8818079E2,5.5578796E2,8.3483444E1,1.643383E1,2.627054E2,1.180768E3,2.7873775E1,1.60307E2,2.2929903E1,5.3285803E2,6.988663E1,1.3596822E1,1.5186883E1,1.2469468E0,1.6899051E2,9.371492E1,1.1373923E1,1.1693939E3,1.1926352E1,1.5947424E1,5.655883E1,1.0374818E2,2.1510048E1,1.4198549E0,7.84168E1,4.5444125E2],"tree_param":{"num_deleted":"0","num_feature":"6","num_nodes":"31","size_leaf_vector":"1"}},{"base_weights":[6.628482E-4,-1.788656E-2,6.96933E-1,3.417429E-3,-5.2667177E-1,1.132352E0,-5.8624264E-2,-2.077706E-2,1.0069586E0,-8.641302E-1,1.3183568E-1,1.147894E0,3.302719E-2,-6.390603E-1,5.183903E-1,-3.1285657E-4,-1.381496E-1,-1.3739206E-1,1.1853135E-1,-7.500939E-3,-1.2003362E-1,8.096605E-2,1.2326219E-1,-1.525274E-1,6.6507324E-3,1.4029987E-1,-1.8550903E-2],"categories":[],"categories_nodes":[],"categories_segments":[],"categories_sizes":[],"default_left":[0,0,0,0,0,0,0,0,0,0,0,0,0,0,0,0,0,0,0,0,0,0,0,0,0,0,0],"id":12,"left_children":[1,3,5,7,9,11,13,15,17,19,-1,21,-1,23,25,-1,-1,-1,-1,-1,-1,-1,-1,-1,-1,-1,-1],"loss_changes":[2.9468285E1,2.4091455E1,1.9544876E1,5.1838192E1,5.67555E1,8.974075E-2,7.8995147E0,5.0063297E1,2.2971512E1,2.0104748E1,0E0,4.777527E-2,0E0,7.4254155E0,7.660199E0,0E0,0E0,0E0,0E0,0E0,0E0,0E0,0E0,0E0,0E0,0E0,0E0],"parents":[2147483647,0,0,1,1,2,2,3,3,4,4,5,5,6,6,7,7,8,8,9,9,11,11,13,13,14,14],"right_children":[2,4,6,8,10,12,14,16,18,20,-1,22,-1,24,26,-1,-1,-1,-1,-1,-1,-1,-1,-1,-1,-1,-1],"split_conditions":[-2.2934256E-2,-3.2915495E-2,-6.3964683E-3,-3.7131492E-2,2.7919312E0,2.6554153E0,1.3477214E-1,1.1018828E0,-3.3005455E-1,-3.6336217E-2,1.3183568E-1,3.3980283E-1,3.302719E-2,3.8820654E-1,2.0895677E0,-3.1285657E-4,-1.381496E-1,-1.3739206E-1,1.1853135E-1,-7.500939E-3,-1.2003362E-1,8.096605E-2,1.2326219E-1,-1.525274E-1,6.6507324E-3,1.4029987E-1,-1.8550903E-2],"split_indices":[2,2,0,2,5,5,1,5,5,0,0,5,0,5,3,0,0,0,0,0,0,0,0,0,0,0,0],"split_type":[0,0,0,0,0,0,0,0,0,0,0,0,0,0,0,0,0,0,0,0,0,0,0,0,0,0,0],"sum_hessian":[2.2796743E3,2.2214663E3,5.820802E1,2.1331401E3,8.832613E1,3.6610886E1,2.1597132E1,2.083879E3,4.9261185E1,7.511849E1,1.3207637E1,3.5492004E1,1.1188833E0,1.0713039E1,1.0884092E1,2.0581868E3,2.5692337E1,2.9658897E0,4.629529E1,2.2808046E1,5.2310448E1,9.224362E0,2.6267641E1,4.2336636E0,6.4793754E0,4.382859E0,6.501233E0],"tree_param":{"num_deleted":"0","num_feature":"6","num_nodes":"27","size_leaf_vector":"1"}},{"base_weights":[6.933539E-4,-7.31318E-2,1.5547349E-1,-4.9686093E-2,-8.878721E-1,5.7176274E-1,1.4037205E-2,-8.348464E-2,5.146915E-1,-1.231795E0,1.4815569E-1,-8.309165E-1,8.2278806E-1,-1.3088909E0,7.0299596E-2,-3.6145523E-3,-1.2858269E-1,1.4621915E-1,-4.123447E-2,-7.6577075E-2,-1.9307733E-1,1.07255755E-2,-1.5024489E-1,5.5852618E-2,1.3163425E-1,-1.4246514E-1,2.368143E-2,1.19863056E-1,2.1505537E-3],"categories":[],"categories_nodes":[],"categories_segments":[],"categories_sizes":[],"default_left":[0,0,0,0,0,0,0,0,0,0,0,0,0,0,0,0,0,0,0,0,0,0,0,0,0,0,0,0,0],"id":13,"left_children":[1,3,5,7,9,11,13,15,17,19,-1,21,23,25,27,-1,-1,-1,-1,-1,-1,-1,-1,-1,-1,-1,-1,-1,-1],"loss_changes":[2.598903E1,2.9371895E1,4.3237762E1,2.861592E1,3.687845E1,6.6259735E1,4.097365E1,8.044326E1,7.506716E1,1.0935234E1,0E0,1.8285204E1,1.9933754E1,4.3556747E0,2.9032572E1,0E0,0E0,0E0,0E0,0E0,0E0,0E0,0E0,0E0,0E0,0E0,0E0,0E0,0E0],"parents":[2147483647,0,0,1,1,2,2,3,3,4,4,5,5,6,6,7,7,8,8,9,9,11,11,12,12,13,13,14,14],"right_children":[2,4,6,8,10,12,14,16,18,20,-1,22,24,26,28,-1,-1,-1,-1,-1,-1,-1,-1,-1,-1,-1,-1,-1,-1],"split_conditions":[-9.8831855E-2,-1.1955192E-1,1.4700266E-2,-4.63145E-2,2.7064794E-1,-5.407492E-2,-2.8438067E-1,-4.846603E-2,-4.351836E-2,-5.208603E-2,1.4815569E-1,-5.545641E-2,-8.696261E-2,5.6151956E-1,-2.826734E-1,-3.6145523E-3,-1.2858269E-1,1.4621915E-1,-4.123447E-2,-7.6577075E-2,-1.9307733E-1,1.07255755E-2,-1.5024489E-1,5.5852618E-2,1.3163425E-1,-1.4246514E-1,2.368143E-2,1.19863056E-1,2.1505537E-3],"split_indices":[5,5,5,1,4,2,3,1,1,0,0,1,3,5,3,0,0,0,0,0,0,0,0,0,0,0,0,0,0],"split_type":[0,0,0,0,0,0,0,0,0,0,0,0,0,0,0,0,0,0,0,0,0,0,0,0,0,0,0,0,0],"sum_hessian":[2.2724243E3,1.538931E3,7.334933E2,1.4969155E3,4.201562E1,1.8523848E2,5.4825476E2,1.4131396E3,8.377578E1,3.7109325E1,4.9062934E0,2.776775E1,1.5747072E2,2.145715E1,5.267976E2,1.3605996E3,5.254003E1,4.1145126E1,4.2630657E1,2.3522148E1,1.3587179E1,1.1934624E1,1.5833125E1,1.03946625E2,5.3524097E1,2.003501E1,1.4221388E0,2.085994E1,5.0593768E2],"tree_param":{"num_deleted":"0","num_feature":"6","num_nodes":"29","size_leaf_vector":"1"}},{"base_weights":[6.765523E-4,-1.5959365E-2,6.505894E-1,4.3690285E-1,-3.7540153E-2,1.0829324E0,-5.6140024E-2,1.9150105E-1,1.6029987E0,-1.0607102E-1,1.4040503E-1,1.0999314E0,2.8248603E-2,-3.042276E-1,1.1282011E-1,5.314231E-2,-1.5102845E-1,1.7529945E-1,-1.8640298E-2,-4.3956963E-3,-8.6263664E-2,-4.1461967E-2,2.504986E-2,7.13575E-2,1.1750207E-1,1.6409454E-4,-1.3377808E-1],"categories":[],"categories_nodes":[],"categories_segments":[],"categories_sizes":[],"default_left":[0,0,0,0,0,0,0,0,0,0,0,0,0,0,0,0,0,0,0,0,0,0,0,0,0,0,0],"id":14,"left_children":[1,3,5,7,9,11,13,15,17,19,21,23,-1,25,-1,-1,-1,-1,-1,-1,-1,-1,-1,-1,-1,-1,-1],"loss_changes":[2.4505144E1,2.1614712E1,1.7345087E1,2.8481802E1,2.5750265E1,1.6751862E-1,6.931109E0,4.953791E1,4.9849205E0,7.158768E1,3.598466E1,1.4994812E-1,0E0,6.1116943E0,0E0,0E0,0E0,0E0,0E0,0E0,0E0,0E0,0E0,0E0,0E0,0E0,0E0],"parents":[2147483647,0,0,1,1,2,2,3,3,4,4,5,5,6,6,7,7,8,8,9,9,10,10,11,11,13,13],"right_children":[2,4,6,8,10,12,14,16,18,20,22,24,-1,26,-1,-1,-1,-1,-1,-1,-1,-1,-1,-1,-1,-1,-1],"split_conditions":[-2.2934256E-2,-5.7762925E-2,-6.3964683E-3,-3.523899E-1,-9.6507646E-2,2.6554153E0,2.2161232E1,-3.786428E-1,-2.6607582E-1,-1.4748298E-1,-3.6559737E-1,-1.6294464E-1,2.8248603E-2,3.2044804E0,1.1282011E-1,5.314231E-2,-1.5102845E-1,1.7529945E-1,-1.8640298E-2,-4.3956963E-3,-8.6263664E-2,-4.1461967E-2,2.504986E-2,7.13575E-2,1.1750207E-1,1.6409454E-4,-1.3377808E-1],"split_indices":[2,2,0,5,3,5,0,5,3,3,5,4,0,3,0,0,0,0,0,0,0,0,0,0,0,0,0],"split_type":[0,0,0,0,0,0,0,0,0,0,0,0,0,0,0,0,0,0,0,0,0,0,0,0,0,0,0],"sum_hessian":[2.2645378E3,2.20897E3,5.5567898E1,9.960308E1,2.109367E3,3.414644E1,2.1421457E1,8.3247986E1,1.6355095E1,1.5231644E3,5.8620245E2,3.306999E1,1.0764508E0,1.8325817E1,3.09564E0,6.9961334E1,1.32866535E1,1.510894E1,1.2461548E0,1.4085782E3,1.1458621E2,9.657319E1,4.8962927E2,7.0904746E0,2.5979515E1,1.4911374E1,3.4144423E0],"tree_param":{"num_deleted":"0","num_feature":"6","num_nodes":"27","size_leaf_vector":"1"}},{"base_weights":[7.103465E-4,-9.6476234E-2,1.0527764E-1,-6.05624E-2,-1.4487761E0,6.334254E-1,4.0848494E-2,-9.143667E-2,1.3919997E0,6.1219167E-2,-1.5954858E-1,-3.9360184E-2,1.017034E0,1.430882E0,1.6878713E-2,1.5199656E-3,-5.910725E-2,-1.19711E-1,1.7104492E-1,1.1170592E-1,-1.3535874E-1,1.2640402E-1,-9.206736E-2,1.8734951E-1,3.2877275E-3,-7.62451E-2,8.712227E-3],"categories":[],"categories_nodes":[],"categories_segments":[],"categories_sizes":[],"default_left":[0,0,0,0,0,0,0,0,0,0,0,0,0,0,0,0,0,0,0,0,0,0,0,0,0,0,0],"id":15,"left_children":[1,3,5,7,9,11,13,15,17,-1,-1,19,21,23,25,-1,-1,-1,-1,-1,-1,-1,-1,-1,-1,-1,-1],"loss_changes":[2.2983929E1,5.684108E1,3.7045876E1,5.138299E1,1.0132782E1,3.0593117E1,3.2363773E1,5.9684944E1,2.1710762E1,0E0,0E0,6.830906E1,3.7267418E1,1.0127258E1,5.2433228E1,0E0,0E0,0E0,0E0,0E0,0E0,0E0,0E0,0E0,0E0,0E0,0E0],"parents":[2147483647,0,0,1,1,2,2,3,3,4,4,5,5,6,6,7,7,8,8,11,11,12,12,13,13,14,14],"right_children":[2,4,6,8,10,12,14,16,18,-1,-1,20,22,24,26,-1,-1,-1,-1,-1,-1,-1,-1,-1,-1,-1,-1],"split_conditions":[-5.450197E-2,-5.4614455E-2,-5.4056104E-2,-5.469892E-2,-5.5239715E-2,-2.5867763E-1,-5.647178E-2,-5.5631813E-2,-5.598454E-2,6.1219167E-2,-1.5954858E-1,-2.8577903E-1,-5.021392E-2,-5.280468E-2,-5.495603E-2,1.5199656E-3,-5.910725E-2,-1.19711E-1,1.7104492E-1,1.1170592E-1,-1.3535874E-1,1.2640402E-1,-9.206736E-2,1.8734951E-1,3.2877275E-3,-7.62451E-2,8.712227E-3],"split_indices":[0,0,0,0,1,3,2,0,1,0,0,3,2,0,2,0,0,0,0,0,0,0,0,0,0,0,0],"split_type":[0,0,0,0,0,0,0,0,0,0,0,0,0,0,0,0,0,0,0,0,0,0,0,0,0,0,0],"sum_hessian":[2.2596333E3,1.1711886E3,1.0884447E3,1.1419071E3,2.9281523E1,1.1738319E2,9.710616E2,1.1190585E3,2.2848583E1,1.7350365E0,2.7546486E1,4.2951252E1,7.443194E1,1.5466173E1,9.555954E2,9.2302795E2,1.9603052E2,2.2002847E0,2.0648298E1,2.2927145E1,2.0024107E1,6.6324936E1,8.106998E0,1.1488693E1,3.9774804E0,7.819481E1,8.774006E2],"tree_param":{"num_deleted":"0","num_feature":"6","num_nodes":"27","size_leaf_vector":"1"}},{"base_weights":[6.47607E-4,-7.6163866E-2,1.2144388E-1,-2.9502818E-2,-7.824328E-1,6.9001323E-1,4.489651E-2,-1.00913085E-1,4.029716E-1,-1.3710307E0,4.8852882E-1,-5.671106E-1,1.2416527E0,-6.731521E-1,1.4448844E-1,-6.7089684E-3,-1.2269799E-1,1.255949E-1,-1.2374594E-2,-2.442236E-2,-1.4321986E-1,1.3962053E-1,-1.09050356E-1,7.756011E-2,-1.2818643E-1,1.415095E-1,-8.818589E-2,-1.3721716E-1,3.2724792E-3,6.372377E-2,3.172806E-3],"categories":[],"categories_nodes":[],"categories_segments":[],"categories_sizes":[],"default_left":[0,0,0,0,0,0,0,0,0,0,0,0,0,0,0,0,0,0,0,0,0,0,0,0,0,0,0,0,0,0,0],"id":16,"left_children":[1,3,5,7,9,11,13,15,17,19,21,23,25,27,29,-1,-1,-1,-1,-1,-1,-1,-1,-1,-1,-1,-1,-1,-1,-1,-1],"loss_changes":[2.093552E1,4.543174E1,3.8140503E1,4.0029667E1,6.4585434E1,7.2824875E1,5.545125E1,4.2276386E1,8.2690384E1,3.6931915E0,4.1339554E1,3.2092663E1,2.7984894E1,4.6653313E1,3.779534E1,0E0,0E0,0E0,0E0,0E0,0E0,0E0,0E0,0E0,0E0,0E0,0E0,0E0,0E0,0E0,0E0],"parents":[2147483647,0,0,1,1,2,2,3,3,4,4,5,5,6,6,7,7,8,8,9,9,10,10,11,11,12,12,13,13,14,14],"right_children":[2,4,6,8,10,12,14,16,18,20,22,24,26,28,30,-1,-1,-1,-1,-1,-1,-1,-1,-1,-1,-1,-1,-1,-1,-1,-1],"split_conditions":[-1.5636374E-1,-1.8102188E-1,-5.6341432E-2,-5.2041247E-2,-9.6507646E-2,-5.7371356E-2,-5.503083E-2,-5.2354664E-2,-5.0808456E-2,-2.86081E-1,1.2696026E-1,-5.7780787E-2,-5.4955505E-2,-1.167067E-1,-5.316542E-2,-6.7089684E-3,-1.2269799E-1,1.255949E-1,-1.2374594E-2,-2.442236E-2,-1.4321986E-1,1.3962053E-1,-1.09050356E-1,7.756011E-2,-1.2818643E-1,1.415095E-1,-8.818589E-2,-1.3721716E-1,3.2724792E-3,6.372377E-2,3.172806E-3],"split_indices":[5,5,0,2,3,1,1,2,2,3,4,1,1,4,1,0,0,0,0,0,0,0,0,0,0,0,0,0,0,0,0],"split_type":[0,0,0,0,0,0,0,0,0,0,0,0,0,0,0,0,0,0,0,0,0,0,0,0,0,0,0,0,0,0,0],"sum_hessian":[2.254341E3,1.3782892E3,8.7605176E2,1.2938502E3,8.443899E1,1.02998405E2,7.7305334E2,1.1111445E3,1.8270575E2,5.765809E1,2.67809E1,3.1404062E1,7.1594345E1,9.345956E1,6.795938E2,1.0797712E3,3.1373255E1,6.922189E1,1.1348386E2,3.2258396E0,5.443225E1,1.7079094E1,9.701804E0,1.088005E1,2.0524014E1,6.64967E1,5.097651E0,4.6483597E1,4.697596E1,1.2569045E2,5.539034E2],"tree_param":{"num_deleted":"0","num_feature":"6","num_nodes":"31","size_leaf_vector":"1"}},{"base_weights":[4.7641588E-4,-1.4497816E-2,6.06871E-1,4.8952918E-3,-4.90673E-1,1.0394323E0,-6.325653E-2,-3.1194074E-2,5.8906466E-1,-7.970227E-1,1.2506643E-1,1.0569339E0,2.638465E-2,-6.040375E-1,4.8796597E-1,-6.263245E-4,-1.3241431E-1,1.097762E-1,-6.859615E-3,-3.8133059E-3,-1.132765E-1,6.725871E-2,1.13287464E-1,-1.429138E-1,4.849077E-3,1.3111664E-1,-1.7143587E-2],"categories":[],"categories_nodes":[],"categories_segments":[],"categories_sizes":[],"default_left":[0,0,0,0,0,0,0,0,0,0,0,0,0,0,0,0,0,0,0,0,0,0,0,0,0,0,0],"id":17,"left_children":[1,3,5,7,9,11,13,15,17,19,-1,21,-1,23,25,-1,-1,-1,-1,-1,-1,-1,-1,-1,-1,-1,-1],"loss_changes":[2.041603E1,2.0265118E1,1.5771965E1,4.448853E1,4.680864E1,1.6888046E-1,6.911656E0,6.405985E1,4.1152077E1,1.8719631E1,0E0,1.6986084E-1,0E0,6.3426414E0,6.49209E0,0E0,0E0,0E0,0E0,0E0,0E0,0E0,0E0,0E0,0E0,0E0,0E0],"parents":[2147483647,0,0,1,1,2,2,3,3,4,4,5,5,6,6,7,7,8,8,9,9,11,11,13,13,14,14],"right_children":[2,4,6,8,10,12,14,16,18,20,-1,22,-1,24,26,-1,-1,-1,-1,-1,-1,-1,-1,-1,-1,-1,-1],"split_conditions":[-2.2934256E-2,-3.2915495E-2,-6.3964683E-3,-4.1434806E-2,2.7919312E0,2.6554153E0,1.3477214E-1,-4.3124862E-2,-3.6336217E-2,-2.4005948E-1,1.2506643E-1,-1.6294464E-1,2.638465E-2,3.8820654E-1,2.0895677E0,-6.263245E-4,-1.3241431E-1,1.097762E-1,-6.859615E-3,-3.8133059E-3,-1.132765E-1,6.725871E-2,1.13287464E-1,-1.429138E-1,4.849077E-3,1.3111664E-1,-1.7143587E-2],"split_indices":[2,2,0,0,5,5,1,0,0,3,0,4,0,5,3,0,0,0,0,0,0,0,0,0,0,0,0],"split_type":[0,0,0,0,0,0,0,0,0,0,0,0,0,0,0,0,0,0,0,0,0,0,0,0,0,0,0],"sum_hessian":[2.24642E3,2.1932366E3,5.3183414E1,2.1083594E3,8.487708E1,3.1985783E1,2.1197632E1,1.9865774E3,1.2178205E2,7.2639984E1,1.2237103E1,3.0925179E1,1.0606036E0,1.0651794E1,1.0545837E1,1.9499824E3,3.6594997E1,6.82905E1,5.349155E1,2.2621473E1,5.001851E1,6.728418E0,2.4196762E1,4.178308E0,6.4734864E0,4.250756E0,6.2950816E0],"tree_param":{"num_deleted":"0","num_feature":"6","num_nodes":"27","size_leaf_vector":"1"}},{"base_weights":[5.698204E-4,-8.514582E-2,9.320406E-2,-5.2801162E-2,-1.3521171E0,5.849975E-1,3.4088023E-2,-8.0909595E-2,1.2750583E0,5.3972967E-2,-1.4919832E-1,1.0280098E0,1.2546457E-1,1.310974E0,1.1944928E-2,1.5787587E-3,-5.359883E-2,-1.1281818E-1,1.568285E-1,-1.3257003E-1,1.2231731E-1,1.4349891E-1,-4.3447297E-2,1.7159213E-1,3.6113982E-3,-1.3317232E-1,4.588295E-3],"categories":[],"categories_nodes":[],"categories_segments":[],"categories_sizes":[],"default_left":[0,0,0,0,0,0,0,0,0,0,0,0,0,0,0,0,0,0,0,0,0,0,0,0,0,0,0],"id":18,"left_children":[1,3,5,7,9,11,13,15,17,-1,-1,19,21,23,25,-1,-1,-1,-1,-1,-1,-1,-1,-1,-1,-1,-1],"loss_changes":[1.7805906E1,4.765975E1,3.1313389E1,4.2532963E1,8.466694E0,2.3402191E1,2.7217028E1,4.9037334E1,1.8417553E1,0E0,0E0,2.859169E1,4.306036E1,8.409082E0,4.3280083E1,0E0,0E0,0E0,0E0,0E0,0E0,0E0,0E0,0E0,0E0,0E0,0E0],"parents":[2147483647,0,0,1,1,2,2,3,3,4,4,5,5,6,6,7,7,8,8,11,11,12,12,13,13,14,14],"right_children":[2,4,6,8,10,12,14,16,18,-1,-1,20,22,24,26,-1,-1,-1,-1,-1,-1,-1,-1,-1,-1,-1,-1],"split_conditions":[-5.450197E-2,-5.4614455E-2,-5.4056104E-2,-5.469892E-2,-5.5239715E-2,-5.325514E-2,-5.647178E-2,-5.5631813E-2,-5.598454E-2,5.3972967E-2,-1.4919832E-1,-5.01626E-1,-1.9751176E-1,-5.280468E-2,-5.5891518E-2,1.5787587E-3,-5.359883E-2,-1.1281818E-1,1.568285E-1,-1.3257003E-1,1.2231731E-1,1.4349891E-1,-4.3447297E-2,1.7159213E-1,3.6113982E-3,-1.3317232E-1,4.588295E-3],"split_indices":[0,0,0,0,1,2,2,0,1,0,0,5,5,0,2,0,0,0,0,0,0,0,0,0,0,0,0],"split_type":[0,0,0,0,0,0,0,0,0,0,0,0,0,0,0,0,0,0,0,0,0,0,0,0,0,0,0],"sum_hessian":[2.2405005E3,1.1637493E3,1.0767512E3,1.135795E3,2.7954178E1,1.14587585E2,9.6216364E2,1.1131703E3,2.2624779E1,1.7275962E0,2.6226582E1,5.771267E1,5.6874916E1,1.5408777E1,9.467549E2,9.188865E2,1.9428386E2,2.150678E0,2.04741E1,3.9754267E0,5.373724E1,1.6566984E1,4.030793E1,1.1431652E1,3.9771252E0,2.2381725E1,9.2437317E2],"tree_param":{"num_deleted":"0","num_feature":"6","num_nodes":"27","size_leaf_vector":"1"}},{"base_weights":[5.4066844E-4,-6.844768E-2,1.15554534E-1,2.442895E-1,-1.2981091E-1,1.2218997E0,6.897017E-2,-9.528282E-2,1.0222803E0,-7.657598E-2,-6.762883E-1,-7.699258E-2,1.3206878E0,-1.0850948E0,1.0051549E-1,2.3742251E-2,-1.4499049E-1,1.6492976E-1,3.1313192E-2,-1.587733E-2,3.5447445E-2,-1.05946794E-1,6.809078E-4,1.4199476E-1,-4.664866E-2,1.20558284E-1,-1.9238898E-1,-8.3552204E-2,1.3543713E-2],"categories":[],"categories_nodes":[],"categories_segments":[],"categories_sizes":[],"default_left":[0,0,0,0,0,0,0,0,0,0,0,0,0,0,0,0,0,0,0,0,0,0,0,0,0,0,0,0,0],"id":19,"left_children":[1,3,5,7,9,11,13,15,17,19,21,-1,23,25,27,-1,-1,-1,-1,-1,-1,-1,-1,-1,-1,-1,-1,-1,-1],"loss_changes":[1.77479E1,2.6862747E1,4.3137604E1,6.077567E1,3.3969643E1,7.672596E0,2.9444834E1,7.2818565E1,3.0552994E1,3.7853336E1,2.7145836E1,0E0,6.4446144E0,4.3677345E1,2.5782515E1,0E0,0E0,0E0,0E0,0E0,0E0,0E0,0E0,0E0,0E0,0E0,0E0,0E0,0E0],"parents":[2147483647,0,0,1,1,2,2,3,3,4,4,5,5,6,6,7,7,8,8,9,9,10,10,12,12,13,13,14,14],"right_children":[2,4,6,8,10,12,14,16,18,20,22,-1,24,26,28,-1,-1,-1,-1,-1,-1,-1,-1,-1,-1,-1,-1,-1,-1],"split_conditions":[-1.4383759E-1,-2.2527328E-1,-1.3200636E-1,-5.4851428E-2,-1.8102188E-1,-2.8405106E-1,-1.288286E-1,-5.5514682E-2,-5.414187E-2,-5.2041247E-2,-1.2352349E-1,-7.699258E-2,5.0152387E-2,-5.237996E-2,-5.7371356E-2,2.3742251E-2,-1.4499049E-1,1.6492976E-1,3.1313192E-2,-1.587733E-2,3.5447445E-2,-1.05946794E-1,6.809078E-4,1.4199476E-1,-4.664866E-2,1.20558284E-1,-1.9238898E-1,-8.3552204E-2,1.3543713E-2],"split_indices":[5,4,5,2,5,3,5,2,2,2,3,0,4,2,1,0,0,0,0,0,0,0,0,0,0,0,0,0,0],"split_type":[0,0,0,0,0,0,0,0,0,0,0,0,0,0,0,0,0,0,0,0,0,0,0,0,0,0,0,0,0],"sum_hessian":[2.2347717E3,1.397137E3,8.3763477E2,2.2868169E2,1.1684553E3,3.282539E1,8.048094E2,1.598075E2,6.88742E1,1.0657734E3,1.0268188E2,1.2300779E0,3.1595312E1,2.0524801E1,7.842846E2,1.2895894E2,3.0848553E1,3.5850254E1,3.302394E1,8.956189E2,1.7015457E2,6.5428925E1,3.7252956E1,3.0127508E1,1.467804E0,5.3840733E0,1.5140727E1,2.7383131E1,7.569014E2],"tree_param":{"num_deleted":"0","num_feature":"6","num_nodes":"29","size_leaf_vector":"1"}},{"base_weights":[4.327146E-4,7.329322E-1,-1.0923545E-2,2.661685E-1,1.8861423E-1,-1.7202428E-1,4.6167754E-2,-2.7549812E-1,2.0325044E-1,-2.192426E-1,1.4681596E0,1.4967434E0,2.7886728E-2,-1.05209075E-1,1.5412581E-1,-2.6046881E-2,1.3643222E-1,2.0160984E-1,8.793674E-2,2.1576558E-1,5.5881537E-5,1.2680478E-1,9.4498246E-4],"categories":[],"categories_nodes":[],"categories_segments":[],"categories_sizes":[],"default_left":[0,0,0,0,0,0,0,0,0,0,0,0,0,0,0,0,0,0,0,0,0,0,0],"id":20,"left_children":[1,3,5,7,-1,9,11,13,-1,15,17,19,21,-1,-1,-1,-1,-1,-1,-1,-1,-1,-1],"loss_changes":[1.8541384E1,1.7814842E1,2.0195929E1,2.4850626E1,0E0,4.481774E1,4.2955082E1,3.02773E1,0E0,3.687075E1,3.455864E0,1.993473E1,3.6623234E1,0E0,0E0,0E0,0E0,0E0,0E0,0E0,0E0,0E0,0E0],"parents":[2147483647,0,0,1,1,2,2,3,3,5,5,6,6,7,7,9,9,10,10,11,11,12,12],"right_children":[2,4,6,8,-1,10,12,14,-1,16,18,20,22,-1,-1,-1,-1,-1,-1,-1,-1,-1,-1],"split_conditions":[-5.888922E-2,-5.898594E-2,-3.6559737E-1,-1.5227593E-1,1.8861423E-1,4.673514E-1,-2.9043147E-1,-4.1583264E-1,2.0325044E-1,2.9704323E-1,-5.7872456E-2,-3.1018537E-1,-4.7666794E-1,-1.05209075E-1,1.5412581E-1,-2.6046881E-2,1.3643222E-1,2.0160984E-1,8.793674E-2,2.1576558E-1,5.5881537E-5,1.2680478E-1,9.4498246E-4],"split_indices":[1,1,5,3,0,3,3,5,0,4,1,5,4,0,0,0,0,0,0,0,0,0,0],"split_type":[0,0,0,0,0,0,0,0,0,0,0,0,0,0,0,0,0,0,0,0,0,0,0],"sum_hessian":[2.2269834E3,3.3028748E1,2.1939546E3,2.4388334E1,8.640413E0,5.735351E2,1.6204196E3,1.9310562E1,5.077771E0,5.58328E2,1.5207058E1,1.9160797E1,1.6012588E3,1.3822764E1,5.487798E0,5.4497577E2,1.3352275E1,6.6211724E0,8.585885E0,1.2983479E1,6.1773195E0,2.24636E1,1.5787952E3],"tree_param":{"num_deleted":"0","num_feature":"6","num_nodes":"23","size_leaf_vector":"1"}},{"base_weights":[8.9674245E-4,4.0415862E-1,-1.792269E-2,1.7555034E-1,1.493128E0,-1.0980265E0,-7.996049E-3,4.787205E-1,-1.3919543E-1,1.6358314E-1,-1.7862942E-2,8.813188E-2,-1.2783756E0,1.5555742E0,-1.8231006E-2,1.33079095E-2,1.4879422E-1,-4.520681E-2,-1.5506205E-1,1.7572528E-2,1.6777687E-1,-1.0195329E-2,1.0105302E-2],"categories":[],"categories_nodes":[],"categories_segments":[],"categories_sizes":[],"default_left":[0,0,0,0,0,0,0,0,0,0,0,0,0,0,0,0,0,0,0,0,0,0,0],"id":21,"left_children":[1,3,5,7,9,11,13,15,-1,-1,-1,-1,17,19,21,-1,-1,-1,-1,-1,-1,-1,-1],"loss_changes":[1.6900717E1,2.4456778E1,2.2804073E1,4.0204132E1,4.370449E0,8.040932E0,3.3784245E1,2.4380213E1,0E0,0E0,0E0,0E0,3.384201E0,2.0200653E0,2.0948565E1,0E0,0E0,0E0,0E0,0E0,0E0,0E0,0E0],"parents":[2147483647,0,0,1,1,2,2,3,3,4,4,5,5,6,6,7,7,12,12,13,13,14,14],"right_children":[2,4,6,8,10,12,14,16,-1,-1,-1,-1,18,20,22,-1,-1,-1,-1,-1,-1,-1,-1],"split_conditions":[-5.7762925E-2,-3.523899E-1,-5.7707284E-2,-3.786428E-1,-2.6607582E-1,-5.829439E-2,-5.7351166E-1,-5.7788182E-2,-1.3919543E-1,1.6358314E-1,-1.7862942E-2,8.813188E-2,-2.4571988E-1,-2.9671714E-1,-1.5636374E-1,1.33079095E-2,1.4879422E-1,-4.520681E-2,-1.5506205E-1,1.7572528E-2,1.6777687E-1,-1.0195329E-2,1.0105302E-2],"split_indices":[2,5,2,5,3,1,5,2,0,0,0,0,4,3,5,0,0,0,0,0,0,0,0],"split_type":[0,0,0,0,0,0,0,0,0,0,0,0,0,0,0,0,0,0,0,0,0,0,0],"sum_hessian":[2.2250005E3,9.829364E1,2.1267068E3,8.2198784E1,1.6094854E1,1.8369171E1,2.1083376E3,6.94593E1,1.2739486E1,1.4848828E1,1.246027E0,1.209381E0,1.715979E1,1.2729279E1,2.0956084E3,5.2582535E1,1.6876766E1,4.9118977E0,1.2247892E1,1.2338973E0,1.1495381E1,1.2314392E3,8.641691E2],"tree_param":{"num_deleted":"0","num_feature":"6","num_nodes":"23","size_leaf_vector":"1"}},{"base_weights":[9.2057296E-4,-1.19005E-2,5.4536563E-1,6.861595E-3,-4.7902483E-1,9.8573637E-1,-8.648798E-2,-1.3896809E-2,9.1119945E-1,-7.5682116E-1,1.1969177E-1,6.107345E-1,1.0815684E0,-3.215758E-1,1.0671022E-1,3.0290263E-4,-1.303353E-1,-1.2021863E-1,1.0820331E-1,-4.4161472E-3,-1.07997835E-1,-1.0657602E-1,1.04464434E-1,1.11088656E-1,2.3817578E-2,-3.644316E-3,-1.2732166E-1],"categories":[],"categories_nodes":[],"categories_segments":[],"categories_sizes":[],"default_left":[0,0,0,0,0,0,0,0,0,0,0,0,0,0,0,0,0,0,0,0,0,0,0,0,0,0,0],"id":22,"left_children":[1,3,5,7,9,11,13,15,17,19,-1,21,23,25,-1,-1,-1,-1,-1,-1,-1,-1,-1,-1,-1,-1,-1],"loss_changes":[1.5516682E1,1.9037708E1,1.4315643E1,3.9227753E1,3.9956768E1,4.2541885E-1,6.28882E0,4.4594055E1,1.822963E1,1.6663837E1,0E0,7.2586117E0,2.9846E-1,5.103949E0,0E0,0E0,0E0,0E0,0E0,0E0,0E0,0E0,0E0,0E0,0E0,0E0,0E0],"parents":[2147483647,0,0,1,1,2,2,3,3,4,4,5,5,6,6,7,7,8,8,9,9,11,11,12,12,13,13],"right_children":[2,4,6,8,10,12,14,16,18,20,-1,22,24,26,-1,-1,-1,-1,-1,-1,-1,-1,-1,-1,-1,-1,-1],"split_conditions":[-2.2934256E-2,-3.2915495E-2,-6.3964683E-3,-3.7131492E-2,2.7919312E0,3.3980283E-1,2.2161232E1,1.1018828E0,-3.3005455E-1,-3.6336217E-2,1.1969177E-1,-9.827224E-2,2.6554153E0,3.2044804E0,1.0671022E-1,3.0290263E-4,-1.303353E-1,-1.2021863E-1,1.0820331E-1,-4.4161472E-3,-1.07997835E-1,-1.0657602E-1,1.04464434E-1,1.11088656E-1,2.3817578E-2,-3.644316E-3,-1.2732166E-1],"split_indices":[2,2,0,2,5,5,0,5,5,0,0,3,5,3,0,0,0,0,0,0,0,0,0,0,0,0,0],"split_type":[0,0,0,0,0,0,0,0,0,0,0,0,0,0,0,0,0,0,0,0,0,0,0,0,0,0,0],"sum_hessian":[2.2209727E3,2.17083E3,5.0142483E1,2.0879526E3,8.287751E1,2.9218536E1,2.0923948E1,2.0420631E3,4.5889412E1,7.156384E1,1.1313665E1,7.4477177E0,2.1770819E1,1.7980896E1,2.9430513E0,2.0165903E3,2.5472792E1,2.9804928E0,4.2908916E1,2.2681316E1,4.888253E1,1.2318904E0,6.2158275E0,2.0732931E1,1.0378876E0,1.4634401E1,3.346495E0],"tree_param":{"num_deleted":"0","num_feature":"6","num_nodes":"27","size_leaf_vector":"1"}},{"base_weights":[8.753471E-4,6.687875E-1,-9.544574E-3,2.4569283E-1,1.7025176E-1,-6.254624E-2,1.2739462E-1,-2.5511354E-1,1.8292728E-1,-3.2871746E-4,-9.007755E-1,-2.8243512E-2,4.1333818E-1,-9.69716E-2,1.4092185E-1,-6.1803428E-3,1.1208054E-1,-1.1516537E-1,3.6981534E-2,1.1629699E-2,-1.2183287E-1,1.3351078E-1,-2.2470396E-2],"categories":[],"categories_nodes":[],"categories_segments":[],"categories_sizes":[],"default_left":[0,0,0,0,0,0,0,0,0,0,0,0,0,0,0,0,0,0,0,0,0,0,0],"id":23,"left_children":[1,3,5,7,-1,9,11,13,-1,15,17,19,21,-1,-1,-1,-1,-1,-1,-1,-1,-1,-1],"loss_changes":[1.5419614E1,1.446696E1,1.5842328E1,2.0545805E1,0E0,8.206383E1,2.711893E1,2.5287432E1,0E0,1.01095245E2,3.5083588E1,6.814899E1,1.2659767E2,0E0,0E0,0E0,0E0,0E0,0E0,0E0,0E0,0E0,0E0],"parents":[2147483647,0,0,1,1,2,2,3,3,5,5,6,6,7,7,9,9,10,10,11,11,12,12],"right_children":[2,4,6,8,-1,10,12,14,-1,16,18,20,22,-1,-1,-1,-1,-1,-1,-1,-1,-1,-1],"split_conditions":[-5.888922E-2,-5.898594E-2,-9.6507646E-2,-1.5227593E-1,1.7025176E-1,-1.4748298E-1,-5.2397557E-2,-4.1583264E-1,1.8292728E-1,-1.765205E-1,1.8190403E-2,-5.3330462E-2,-4.841087E-2,-9.69716E-2,1.4092185E-1,-6.1803428E-3,1.1208054E-1,-1.1516537E-1,3.6981534E-2,1.1629699E-2,-1.2183287E-1,1.3351078E-1,-2.2470396E-2],"split_indices":[1,1,3,3,0,3,0,5,0,3,4,0,1,0,0,0,0,0,0,0,0,0,0],"split_type":[0,0,0,0,0,0,0,0,0,0,0,0,0,0,0,0,0,0,0,0,0,0,0],"sum_hessian":[2.2136748E3,3.3033894E1,2.1806409E3,2.4318335E1,8.715558E0,1.5725399E3,6.081009E2,1.9112816E1,5.2055182E0,1.4648146E3,1.0772539E2,3.9435568E2,2.1374524E2,1.3663549E1,5.4492674E0,1.3895659E3,7.524865E1,9.00405E1,1.768489E1,3.5245135E2,4.1904316E1,8.6985756E1,1.2675948E2],"tree_param":{"num_deleted":"0","num_feature":"6","num_nodes":"23","size_leaf_vector":"1"}},{"base_weights":[1.0358072E-3,3.695061E-1,-1.6014865E-2,1.5691398E-1,1.3950099E0,-1.0618431E-1,8.906816E-2,4.3192485E-1,-1.3121325E-1,1.5317334E-1,-1.655647E-2,-1.3880666E-1,1.0736728E0,6.5509135E-1,2.9583065E-2,1.1206094E-2,1.3839667E-1,-8.457105E-3,-7.6728985E-2,-6.967798E-2,1.2174537E-1,2.3613907E-2,1.4816034E-1,-1.790836E-1,5.0337515E-3],"categories":[],"categories_nodes":[],"categories_segments":[],"categories_sizes":[],"default_left":[0,0,0,0,0,0,0,0,0,0,0,0,0,0,0,0,0,0,0,0,0,0,0,0,0],"id":24,"left_children":[1,3,5,7,9,11,13,15,-1,-1,-1,17,19,21,23,-1,-1,-1,-1,-1,-1,-1,-1,-1,-1],"loss_changes":[1.3889662E1,2.1098055E1,2.0031393E1,3.374163E1,3.8088531E0,4.3938427E1,3.2855286E1,2.1137014E1,0E0,0E0,0E0,3.770144E1,8.669472E0,3.1785748E1,3.351097E1,0E0,0E0,0E0,0E0,0E0,0E0,0E0,0E0,0E0,0E0],"parents":[2147483647,0,0,1,1,2,2,3,3,4,4,5,5,6,6,7,7,11,11,12,12,13,13,14,14],"right_children":[2,4,6,8,10,12,14,16,-1,-1,-1,18,20,22,24,-1,-1,-1,-1,-1,-1,-1,-1,-1,-1],"split_conditions":[-5.7762925E-2,-3.523899E-1,-5.2831095E-2,-3.786428E-1,-2.6607582E-1,5.440511E-2,-5.584115E-2,-5.7788182E-2,-1.3121325E-1,1.5317334E-1,-1.655647E-2,-5.3200103E-2,-5.7401627E-2,-9.6507646E-2,-5.5770174E-2,1.1206094E-2,1.3839667E-1,-8.457105E-3,-7.6728985E-2,-6.967798E-2,1.2174537E-1,2.3613907E-2,1.4816034E-1,-1.790836E-1,5.0337515E-3],"split_indices":[2,5,2,5,3,5,0,2,0,0,0,2,1,3,0,0,0,0,0,0,0,0,0,0,0],"split_type":[0,0,0,0,0,0,0,0,0,0,0,0,0,0,0,0,0,0,0,0,0,0,0,0,0],"sum_hessian":[2.208849E3,9.677789E1,2.112071E3,8.1115295E1,1.5662599E1,1.136691E3,9.753802E2,6.891933E1,1.2195967E1,1.44179125E1,1.2446858E0,1.1069664E3,2.9724607E1,9.18053E1,8.835749E2,5.242384E1,1.6495485E1,1.0200727E3,8.689366E1,1.9437717E0,2.7780836E1,6.177683E1,3.002847E1,8.998625E0,8.7457623E2],"tree_param":{"num_deleted":"0","num_feature":"6","num_nodes":"25","size_leaf_vector":"1"}},{"base_weights":[1.044072E-3,-1.0636421E-2,5.160856E-1,2.5759025E-2,-2.3210222E-1,9.504139E-1,-7.2954655E-2,-8.644936E-3,8.4114164E-1,-8.144722E-1,1.1664795E-1,5.8436924E-1,1.0476471E0,-5.731179E-1,4.537958E-1,1.7566683E-3,-9.5411666E-2,-9.337982E-2,9.870417E-2,1.1571719E-2,-1.3064335E-1,8.837532E-2,-4.428077E-2,-9.855329E-2,1.0224928E-1,1.0781894E-1,2.3106309E-2,-1.3471228E-1,3.1315063E-3,1.2185704E-1,-1.5680667E-2],"categories":[],"categories_nodes":[],"categories_segments":[],"categories_sizes":[],"default_left":[0,0,0,0,0,0,0,0,0,0,0,0,0,0,0,0,0,0,0,0,0,0,0,0,0,0,0,0,0,0,0],"id":25,"left_children":[1,3,5,7,9,11,13,15,17,19,21,23,25,27,29,-1,-1,-1,-1,-1,-1,-1,-1,-1,-1,-1,-1,-1,-1,-1,-1],"loss_changes":[1.3259772E1,1.7378572E1,1.2574087E1,5.196051E1,6.1900627E1,3.9164352E-1,5.970065E0,4.4080215E1,2.0341248E1,5.2367065E1,8.2449135E1,6.634712E0,2.7521324E-1,5.449855E0,5.38103E0,0E0,0E0,0E0,0E0,0E0,0E0,0E0,0E0,0E0,0E0,0E0,0E0,0E0,0E0,0E0,0E0],"parents":[2147483647,0,0,1,1,2,2,3,3,4,4,5,5,6,6,7,7,8,8,9,9,10,10,11,11,12,12,13,13,14,14],"right_children":[2,4,6,8,10,12,14,16,18,20,22,24,26,28,30,-1,-1,-1,-1,-1,-1,-1,-1,-1,-1,-1,-1,-1,-1,-1,-1],"split_conditions":[-2.2934256E-2,-4.461446E-2,-6.3964683E-3,2.8872576E-1,-4.5647833E-2,3.3980283E-1,1.3477214E-1,2.0860884E-1,-5.6433596E-2,-4.864071E-2,-3.948816E-2,-9.827224E-2,2.6554153E0,3.8820654E-1,2.0895677E0,1.7566683E-3,-9.5411666E-2,-9.337982E-2,9.870417E-2,1.1571719E-2,-1.3064335E-1,8.837532E-2,-4.428077E-2,-9.855329E-2,1.0224928E-1,1.0781894E-1,2.3106309E-2,-1.3471228E-1,3.1315063E-3,1.2185704E-1,-1.5680667E-2],"split_indices":[2,2,0,5,1,5,1,5,0,0,1,3,5,5,3,0,0,0,0,0,0,0,0,0,0,0,0,0,0,0,0],"split_type":[0,0,0,0,0,0,0,0,0,0,0,0,0,0,0,0,0,0,0,0,0,0,0,0,0,0,0,0,0,0,0],"sum_hessian":[2.2021943E3,2.1543164E3,4.7877827E1,1.8510076E3,3.0330887E2,2.7204859E1,2.0672968E1,1.7770181E3,7.3989456E1,1.1310387E2,1.9020499E2,7.181043E0,2.0023815E1,1.0558948E1,1.011402E1,1.7300371E3,4.698096E1,5.2097855E0,6.877967E1,3.9390316E1,7.3713554E1,7.997142E1,1.10233574E2,1.2941937E0,5.8868494E0,1.8993061E1,1.0307554E0,4.0912156E0,6.4677324E0,4.0481105E0,6.0659103E0],"tree_param":{"num_deleted":"0","num_feature":"6","num_nodes":"31","size_leaf_vector":"1"}},{"base_weights":[9.98433E-4,6.1998516E-1,-8.639112E-3,2.325431E-1,1.5607753E-1,-1.2479317E-1,4.9362693E-2,-2.3230265E-1,1.670977E-1,-8.934874E-2,-1.3505185E0,1.0406643E0,7.942654E-3,1.17422E-1,-9.805428E-2,-1.6028142E-2,6.215434E-2,-1.4222819E-1,-1.3678786E-2,1.168463E-1,-1.3230823E-1,-1.3359225E-1,3.2051206E-3],"categories":[],"categories_nodes":[],"categories_segments":[],"categories_sizes":[],"default_left":[0,0,0,0,0,0,0,0,0,0,0,0,0,0,0,0,0,0,0,0,0,0,0],"id":26,"left_children":[1,3,5,7,-1,9,11,13,-1,15,17,19,21,-1,-1,-1,-1,-1,-1,-1,-1,-1,-1],"loss_changes":[1.3113429E1,1.1921141E1,1.4589436E1,1.713492E1,0E0,3.1211796E1,5.929892E1,2.199614E1,0E0,3.5498222E1,1.5647202E0,1.9043945E1,4.499552E1,0E0,0E0,0E0,0E0,0E0,0E0,0E0,0E0,0E0,0E0],"parents":[2147483647,0,0,1,1,2,2,3,3,5,5,6,6,7,7,9,9,10,10,11,11,12,12],"right_children":[2,4,6,8,-1,10,12,14,-1,16,18,20,22,-1,-1,-1,-1,-1,-1,-1,-1,-1,-1],"split_conditions":[-5.888922E-2,-5.898594E-2,-5.5655617E-2,-1.5227593E-1,1.5607753E-1,-5.5720437E-2,-5.545498E-2,-6.0447983E-2,1.670977E-1,-5.2831095E-2,2.489656E-2,-5.5024344E-2,-5.538048E-2,1.17422E-1,-9.805428E-2,-1.6028142E-2,6.215434E-2,-1.4222819E-1,-1.3678786E-2,1.168463E-1,-1.3230823E-1,-1.3359225E-1,3.2051206E-3],"split_indices":[1,1,1,3,0,1,1,0,0,2,4,5,1,0,0,0,0,0,0,0,0,0,0],"split_type":[0,0,0,0,0,0,0,0,0,0,0,0,0,0,0,0,0,0,0,0,0,0,0],"sum_hessian":[2.1963086E3,3.2701054E1,2.1636077E3,2.4045618E1,8.655437E0,7.20196E2,1.4434116E3,1.880657E1,5.239047E0,7.0099805E2,1.9197943E1,5.6924263E1,1.3864873E3,6.3328786E0,1.2473692E1,6.381028E2,6.2895245E1,1.7963972E1,1.2339702E0,5.4484184E1,2.4400759E0,2.3475882E1,1.3630115E3],"tree_param":{"num_deleted":"0","num_feature":"6","num_nodes":"23","size_leaf_vector":"1"}},{"base_weights":[9.0941024E-4,2.3250693E-1,-2.5680516E-2,-7.0735574E-2,9.37101E-1,1.3070523E0,-3.5402335E-2,2.19466E-1,-1.322931E0,-6.865702E-1,1.1775458E0,-7.257116E-3,1.5689842E-1,-1.2447697E-1,8.1346065E-2,6.23546E-4,1.5632834E-1,1.1750928E-1,-1.4923574E-1,-1.0777248E-2,-1.3689633E-1,1.5385841E-1,6.511346E-2,-7.2407904E-3,-8.757875E-2,5.8530677E-2,1.4714332E-3],"categories":[],"categories_nodes":[],"categories_segments":[],"categories_sizes":[],"default_left":[0,0,0,0,0,0,0,0,0,0,0,0,0,0,0,0,0,0,0,0,0,0,0,0,0,0,0],"id":27,"left_children":[1,3,5,7,9,11,13,15,17,19,21,-1,-1,23,25,-1,-1,-1,-1,-1,-1,-1,-1,-1,-1,-1,-1],"loss_changes":[1.3514332E1,4.835591E1,2.5552122E1,5.8045895E1,2.738425E1,5.2750416E0,2.034371E1,3.720925E1,1.4470062E1,3.5699396E0,1.0336945E1,0E0,0E0,4.33396E1,2.842664E1,0E0,0E0,0E0,0E0,0E0,0E0,0E0,0E0,0E0,0E0,0E0,0E0],"parents":[2147483647,0,0,1,1,2,2,3,3,4,4,5,5,6,6,7,7,8,8,9,9,10,10,13,13,14,14],"right_children":[2,4,6,8,10,12,14,16,18,20,22,-1,-1,24,26,-1,-1,-1,-1,-1,-1,-1,-1,-1,-1,-1,-1],"split_conditions":[-2.2527328E-1,-5.4851428E-2,-5.7351166E-1,-5.5441003E-2,-4.100904E-1,-6.0613954E-1,-1.5636374E-1,-5.5801332E-2,-4.4942683E-1,-4.5189038E-1,-5.414187E-2,-7.257116E-3,1.5689842E-1,-1.8102188E-1,-5.6341432E-2,6.23546E-4,1.5632834E-1,1.1750928E-1,-1.4923574E-1,-1.0777248E-2,-1.3689633E-1,1.5385841E-1,6.511346E-2,-7.2407904E-3,-8.757875E-2,5.8530677E-2,1.4714332E-3],"split_indices":[4,2,5,2,5,5,5,2,5,5,2,0,0,5,0,0,0,0,0,0,0,0,0,0,0,0,0],"split_type":[0,0,0,0,0,0,0,0,0,0,0,0,0,0,0,0,0,0,0,0,0,0,0,0,0,0,0],"sum_hessian":[2.1925706E3,2.2500851E2,1.9675621E3,1.5793585E2,6.707266E1,1.32823515E1,1.9542798E3,1.2888982E2,2.9046024E1,8.4121065E0,5.8660557E1,2.2347298E0,1.1047622E1,1.1084829E3,8.457969E2,1.1210601E2,1.678381E1,1.4678793E0,2.7578146E1,5.1780653E0,3.234041E0,3.3655323E1,2.5005234E1,1.0376646E3,7.081827E1,9.786011E1,7.4793677E2],"tree_param":{"num_deleted":"0","num_feature":"6","num_nodes":"27","size_leaf_vector":"1"}},{"base_weights":[9.740063E-4,3.5012913E-1,-1.5037206E-2,1.820512E-1,1.5673218E0,-6.776052E-1,-9.776589E-4,-5.8574307E-1,7.697822E-1,5.0741076E-2,1.702881E-1,1.1448348E0,-9.620555E-1,1.3498285E0,-9.753136E-3,5.808738E-2,-1.2535103E-1,1.8844264E-2,1.4550121E-1,1.8370902E-2,1.4345418E-1,-1.1409133E-1,1.3709593E-1,1.54079115E-2,1.4591964E-1,1.3961785E-1,-1.7551879E-3],"categories":[],"categories_nodes":[],"categories_segments":[],"categories_sizes":[],"default_left":[0,0,0,0,0,0,0,0,0,0,0,0,0,0,0,0,0,0,0,0,0,0,0,0,0,0,0],"id":28,"left_children":[1,3,5,7,9,11,13,15,17,-1,-1,19,21,23,25,-1,-1,-1,-1,-1,-1,-1,-1,-1,-1,-1,-1],"loss_changes":[1.2231995E1,1.9341833E1,1.9488636E1,3.900104E1,7.8954506E-1,2.3636585E1,2.4310087E1,3.0025913E1,1.9173456E1,0E0,0E0,1.4978065E0,1.7481441E1,1.5062523E0,2.2364119E1,0E0,0E0,0E0,0E0,0E0,0E0,0E0,0E0,0E0,0E0,0E0,0E0],"parents":[2147483647,0,0,1,1,2,2,3,3,4,4,5,5,6,6,7,7,8,8,11,11,12,12,13,13,14,14],"right_children":[2,4,6,8,10,12,14,16,18,-1,-1,20,22,24,26,-1,-1,-1,-1,-1,-1,-1,-1,-1,-1,-1,-1],"split_conditions":[-5.7762925E-2,-1.05391055E-1,-5.755328E-2,-5.8354884E-2,-5.8142174E-2,-5.888922E-2,-5.7351166E-1,-5.8518644E-2,-2.0082599E-1,5.0741076E-2,1.702881E-1,-5.9320025E-2,-5.2917603E-2,-2.9671714E-1,-5.7476718E-2,5.808738E-2,-1.2535103E-1,1.8844264E-2,1.4550121E-1,1.8370902E-2,1.4345418E-1,-1.1409133E-1,1.3709593E-1,1.54079115E-2,1.4591964E-1,1.3961785E-1,-1.7551879E-3],"split_indices":[2,4,2,1,2,1,5,2,4,0,0,0,4,3,2,0,0,0,0,0,0,0,0,0,0,0,0],"split_type":[0,0,0,0,0,0,0,0,0,0,0,0,0,0,0,0,0,0,0,0,0,0,0,0,0,0,0],"sum_hessian":[2.1860952E3,9.4937325E1,2.091158E3,8.442845E1,1.0508868E1,4.2471203E1,2.0486865E3,3.6608105E1,4.782035E1,1.7294816E0,8.7793865E0,5.3256507E0,3.714555E1,1.2236962E1,2.0364497E3,1.3373745E1,2.3234358E1,2.6561201E1,2.1259151E1,1.6119616E0,3.7136889E0,3.497519E1,2.1703606E0,1.2273042E0,1.1009659E1,1.0251861E1,2.0261979E3],"tree_param":{"num_deleted":"0","num_feature":"6","num_nodes":"27","size_leaf_vector":"1"}},{"base_weights":[1.2493514E-3,-2.5464337E-2,1.9825636E-1,6.7923204E-3,-6.49013E-1,1.1766142E0,-9.8902E-2,-2.6477894E-2,6.872107E-1,2.782474E-1,-1.18707E0,1.3517927E0,3.4296426E-1,-1.3682421E0,7.054235E-2,-1.4703443E-3,-1.3336496E-1,-1.4754105E-1,8.445562E-2,-1.7219733E-2,1.3626917E-1,-1.2919575E-1,1.04983404E-1,1.6249413E-2,1.4764354E-1,-1.3456047E-1,1.1162378E-1,-1.4310403E-1,-2.5088117E-2,1.3119654E-1,-4.849903E-3],"categories":[],"categories_nodes":[],"categories_segments":[],"categories_sizes":[],"default_left":[0,0,0,0,0,0,0,0,0,0,0,0,0,0,0,0,0,0,0,0,0,0,0,0,0,0,0,0,0,0,0],"id":29,"left_children":[1,3,5,7,9,11,13,15,17,19,21,23,25,27,29,-1,-1,-1,-1,-1,-1,-1,-1,-1,-1,-1,-1,-1,-1,-1,-1],"loss_changes":[1.14981E1,3.870211E1,7.596064E1,4.1452244E1,4.7549374E1,8.423431E0,4.3333103E1,2.6852755E1,3.029272E1,1.7606272E1,1.5452568E1,7.164154E0,1.704939E1,1.3056107E0,2.6412916E1,0E0,0E0,0E0,0E0,0E0,0E0,0E0,0E0,0E0,0E0,0E0,0E0,0E0,0E0,0E0,0E0],"parents":[2147483647,0,0,1,1,2,2,3,3,4,4,5,5,6,6,7,7,8,8,9,9,10,10,11,11,12,12,13,13,14,14],"right_children":[2,4,6,8,10,12,14,16,18,20,22,24,26,28,30,-1,-1,-1,-1,-1,-1,-1,-1,-1,-1,-1,-1,-1,-1,-1,-1],"split_conditions":[1.7510197E-1,6.202339E-2,2.995466E-1,-1.3640657E-2,-5.451534E-2,2.469856E0,3.9088154E-1,1.8969E-1,-4.6150315E-1,-5.5114046E-2,3.216161E-1,-5.5477317E-2,-3.7907057E-2,5.078892E-1,-3.8004857E-1,-1.4703443E-3,-1.3336496E-1,-1.4754105E-1,8.445562E-2,-1.7219733E-2,1.3626917E-1,-1.2919575E-1,1.04983404E-1,1.6249413E-2,1.4764354E-1,-1.3456047E-1,1.1162378E-1,-1.4310403E-1,-2.5088117E-2,1.3119654E-1,-4.849903E-3],"split_indices":[3,3,3,3,1,5,3,4,5,0,4,2,0,4,5,0,0,0,0,0,0,0,0,0,0,0,0,0,0,0,0],"split_type":[0,0,0,0,0,0,0,0,0,0,0,0,0,0,0,0,0,0,0,0,0,0,0,0,0,0,0,0,0,0,0],"sum_hessian":[2.1828352E3,1.9229574E3,2.5987778E2,1.8293146E3,9.364276E1,5.985451E1,2.0002325E2,1.7449532E3,8.4361374E1,3.4562447E1,5.9080315E1,4.8947433E1,1.0907078E1,2.2723358E1,1.772999E2,1.7303779E3,1.4575267E1,5.153443E0,7.920793E1,2.5013727E1,9.54872E0,5.6837658E1,2.2426574E0,4.861763E0,4.408567E1,3.1934717E0,7.7136064E0,2.1248417E1,1.4749401E0,1.4636987E1,1.6266292E2],"tree_param":{"num_deleted":"0","num_feature":"6","num_nodes":"31","size_leaf_vector":"1"}},{"base_weights":[1.1527623E-3,-2.8046433E-2,1.7952259E-1,1.7881302E-2,-8.427969E-1,1.2498362E0,7.252721E-2,-1.3231901E-2,8.167956E-1,-1.2391162E0,5.523552E-1,-7.678027E-2,1.3718971E0,-1.8742481E-1,1.6251265E-1,5.26027E-4,-1.4306939E-1,-7.627707E-2,9.485867E-2,5.708138E-2,-1.3428922E-1,-1.2125569E-1,1.04110174E-1,1.5625614E-1,7.62322E-2,6.674562E-2,-1.06698265E-2],"categories":[],"categories_nodes":[],"categories_segments":[],"categories_sizes":[],"default_left":[0,0,0,0,0,0,0,0,0,0,0,0,0,0,0,0,0,0,0,0,0,0,0,0,0,0,0],"id":30,"left_children":[1,3,5,7,9,11,13,15,17,19,21,-1,23,-1,25,-1,-1,-1,-1,-1,-1,-1,-1,-1,-1,-1,-1],"loss_changes":[1.1349302E1,7.008688E1,3.5013634E1,4.4097977E1,5.594748E1,7.89904E0,4.9309986E1,4.4781395E1,1.4567108E1,1.5444153E1,2.0931637E1,0E0,1.8969116E0,0E0,3.6543182E1,0E0,0E0,0E0,0E0,0E0,0E0,0E0,0E0,0E0,0E0,0E0,0E0],"parents":[2147483647,0,0,1,1,2,2,3,3,4,4,5,5,6,6,7,7,8,8,9,9,10,10,12,12,14,14],"right_children":[2,4,6,8,10,12,14,16,18,20,22,-1,24,-1,26,-1,-1,-1,-1,-1,-1,-1,-1,-1,-1,-1,-1],"split_conditions":[-4.5647833E-2,-4.34938E-2,-4.4479776E-2,2.8508535E-1,-3.7131492E-2,-2.7521938E-1,-4.431304E-2,-4.4395857E-2,-5.5655617E-2,-5.5790685E-2,-5.6566563E-2,-7.678027E-2,-1.7032216E-1,-1.8742481E-1,-3.948816E-2,5.26027E-4,-1.4306939E-1,-7.627707E-2,9.485867E-2,5.708138E-2,-1.3428922E-1,-1.2125569E-1,1.04110174E-1,1.5625614E-1,7.62322E-2,6.674562E-2,-1.06698265E-2],"split_indices":[1,2,1,5,2,3,1,0,1,1,1,0,4,0,1,0,0,0,0,0,0,0,0,0,0,0,0],"split_type":[0,0,0,0,0,0,0,0,0,0,0,0,0,0,0,0,0,0,0,0,0,0,0,0,0,0,0],"sum_hessian":[2.1771318E3,1.8715941E3,3.0553778E2,1.7726475E3,9.8946625E1,2.679695E1,2.7874084E2,1.7071472E3,6.550031E1,7.71442E1,2.1802422E1,1.2268636E0,2.5570086E1,1.1438925E1,2.673019E2,1.686146E3,2.1001127E1,4.675457E0,6.0824856E1,3.9393086E0,7.3204895E1,4.407077E0,1.7395346E1,1.8286905E1,7.2831807E0,9.243937E1,1.7486253E2],"tree_param":{"num_deleted":"0","num_feature":"6","num_nodes":"27","size_leaf_vector":"1"}},{"base_weights":[9.784038E-4,3.3530337E-1,-1.4117898E-2,1.5940087E-1,1.8021867E-1,-6.2266785E-1,-1.4041218E-3,-6.2574875E-1,5.1302695E-1,1.067944E0,-8.900642E-1,1.2650869E0,-9.448715E-3,-8.2473606E-2,9.789356E-2,6.678792E-3,1.1145624E-1,1.7241592E-2,1.343175E-1,-1.058025E-1,1.2063493E-1,1.4618873E-2,1.370402E-1,1.261763E-1,-1.658541E-3],"categories":[],"categories_nodes":[],"categories_segments":[],"categories_sizes":[],"default_left":[0,0,0,0,0,0,0,0,0,0,0,0,0,0,0,0,0,0,0,0,0,0,0,0,0],"id":31,"left_children":[1,3,5,-1,7,9,11,13,15,17,19,21,23,-1,-1,-1,-1,-1,-1,-1,-1,-1,-1,-1,-1],"loss_changes":[1.0964304E1,1.8033993E1,1.6081308E1,0E0,2.303713E1,2.0179201E1,2.0766546E1,8.8542385E0,1.6162104E1,1.3122063E0,1.4400347E1,1.3156376E0,1.8394186E1,0E0,0E0,0E0,0E0,0E0,0E0,0E0,0E0,0E0,0E0,0E0,0E0],"parents":[2147483647,0,0,1,1,2,2,4,4,5,5,6,6,7,7,8,8,9,9,10,10,11,11,12,12],"right_children":[2,4,6,-1,8,10,12,14,16,18,20,22,24,-1,-1,-1,-1,-1,-1,-1,-1,-1,-1,-1,-1],"split_conditions":[-5.7762925E-2,-3.3113545E-1,-5.755328E-2,1.5940087E-1,-4.9958703E-1,-5.888922E-2,-5.7351166E-1,-5.6535713E-2,-5.8354884E-2,-5.9320025E-2,-5.2917603E-2,-2.9671714E-1,-5.7476718E-2,-8.2473606E-2,9.789356E-2,6.678792E-3,1.1145624E-1,1.7241592E-2,1.343175E-1,-1.058025E-1,1.2063493E-1,1.4618873E-2,1.370402E-1,1.261763E-1,-1.658541E-3],"split_indices":[2,3,2,0,5,1,5,0,1,0,4,3,2,0,0,0,0,0,0,0,0,0,0,0,0],"split_type":[0,0,0,0,0,0,0,0,0,0,0,0,0,0,0,0,0,0,0,0,0,0,0,0,0],"sum_hessian":[2.1704714E3,9.285607E1,2.0776155E3,9.168004E0,8.368807E1,4.1535313E1,2.0360802E3,2.4200678E1,5.9487392E1,5.263431E0,3.627188E1,1.1865022E1,2.0242151E3,2.1963198E1,2.2374804E0,3.479002E1,2.469737E1,1.6197232E0,3.643708E0,3.4039978E1,2.2319045E0,1.2261506E0,1.0638871E1,1.0319238E1,2.0138959E3],"tree_param":{"num_deleted":"0","num_feature":"6","num_nodes":"25","size_leaf_vector":"1"}},{"base_weights":[1.2362686E-3,-6.2200926E-2,8.204929E-2,-2.5899267E-2,-8.305652E-1,5.9261227E-1,2.9225705E-2,-5.3500652E-2,1.0754672E0,-1.140286E0,9.727008E-1,2.3115322E-1,1.3915339E0,2.2286163E-1,-1.4123653E-1,-1.9080738E-3,-8.090453E-2,-6.780241E-2,1.2283573E-1,-1.3834535E-1,4.4661697E-2,1.8126345E-1,-4.8556518E-2,-2.0223534E-2,1.5407325E-1,2.0029314E-2,1.4575224E-1,-1.3668229E-2,6.457663E-2,-1.6387434E-1,-2.0327787E-3],"categories":[],"categories_nodes":[],"categories_segments":[],"categories_sizes":[],"default_left":[0,0,0,0,0,0,0,0,0,0,0,0,0,0,0,0,0,0,0,0,0,0,0,0,0,0,0,0,0,0,0],"id":32,"left_children":[1,3,5,7,9,11,13,15,17,19,21,23,25,27,29,-1,-1,-1,-1,-1,-1,-1,-1,-1,-1,-1,-1,-1,-1,-1,-1],"loss_changes":[1.1123409E1,3.3884377E1,2.5717094E1,3.5374374E1,3.1719452E1,2.5499153E1,2.8608828E1,2.9483341E1,8.460236E0,1.8844635E1,1.1381092E1,3.5931934E1,1.8818512E0,6.178007E1,8.3445984E1,0E0,0E0,0E0,0E0,0E0,0E0,0E0,0E0,0E0,0E0,0E0,0E0,0E0,0E0,0E0,0E0],"parents":[2147483647,0,0,1,1,2,2,3,3,4,4,5,5,6,6,7,7,8,8,9,9,10,10,11,11,12,12,13,13,14,14],"right_children":[2,4,6,8,10,12,14,16,18,20,22,24,26,28,30,-1,-1,-1,-1,-1,-1,-1,-1,-1,-1,-1,-1,-1,-1,-1,-1],"split_conditions":[-5.2831095E-2,-5.3046685E-2,-5.584115E-2,5.440511E-2,-5.2544273E-2,-8.3331965E-2,-1.5037341E-1,-5.5024344E-2,-5.7401627E-2,-3.99399E-2,-5.0320175E-2,-5.6003273E-2,-5.80191E-2,-2.6933682E-1,-1.4364001E-1,-1.9080738E-3,-8.090453E-2,-6.780241E-2,1.2283573E-1,-1.3834535E-1,4.4661697E-2,1.8126345E-1,-4.8556518E-2,-2.0223534E-2,1.5407325E-1,2.0029314E-2,1.4575224E-1,-1.3668229E-2,6.457663E-2,-1.6387434E-1,-2.0327787E-3],"split_indices":[2,2,0,5,1,3,4,5,1,3,1,0,0,3,4,0,0,0,0,0,0,0,0,0,0,0,0,0,0,0,0],"split_type":[0,0,0,0,0,0,0,0,0,0,0,0,0,0,0,0,0,0,0,0,0,0,0,0,0,0,0,0,0,0,0],"sum_hessian":[2.167769E3,1.2145741E3,9.5319495E2,1.160767E3,5.3807163E1,8.841422E1,8.647807E2,1.1333163E3,2.7450659E1,4.6233894E1,7.573269E0,6.176086E1,2.6653362E1,4.0472617E2,4.6005453E2,1.0849166E3,4.8399673E1,1.9260576E0,2.5524601E1,4.0201817E1,6.0320797E0,4.651237E0,2.9220319E0,4.703936E1,1.4721503E1,1.6107615E0,2.50426E1,2.1911575E2,1.856104E2,3.3431946E1,4.266226E2],"tree_param":{"num_deleted":"0","num_feature":"6","num_nodes":"31","size_leaf_vector":"1"}},{"base_weights":[1.2404607E-3,-9.279859E-3,4.821812E-1,-1.5751047E-2,9.161013E-1,9.093943E-1,-5.7474703E-2,4.3412847E-3,-6.257133E-1,-1.0428696E-1,1.2484654E-1,5.0140715E-1,1.0184479E0,-2.8464046E-1,1.04293995E-1,-2.552154E-3,4.958243E-2,5.351513E-3,-9.482782E-2,-9.5807955E-2,9.795635E-2,1.0500336E-1,2.30041E-2,-2.0602401E-3,-1.1793753E-1],"categories":[],"categories_nodes":[],"categories_segments":[],"categories_sizes":[],"default_left":[0,0,0,0,0,0,0,0,0,0,0,0,0,0,0,0,0,0,0,0,0,0,0,0,0],"id":33,"left_children":[1,3,5,7,9,11,13,15,17,-1,-1,19,21,23,-1,-1,-1,-1,-1,-1,-1,-1,-1,-1,-1],"loss_changes":[1.093941E1,1.2685234E1,1.0722509E1,2.5766495E1,1.0880054E1,6.413288E-1,5.643957E0,2.9897587E1,1.4740215E1,0E0,0E0,6.12418E0,2.430687E-1,4.349954E0,0E0,0E0,0E0,0E0,0E0,0E0,0E0,0E0,0E0,0E0,0E0],"parents":[2147483647,0,0,1,1,2,2,3,3,4,4,5,5,6,6,7,7,8,8,11,11,12,12,13,13],"right_children":[2,4,6,8,10,12,14,16,18,-1,-1,20,22,24,-1,-1,-1,-1,-1,-1,-1,-1,-1,-1,-1],"split_conditions":[-2.2934256E-2,2.7919312E0,-6.3964683E-3,-3.2915495E-2,-5.7101246E-2,3.3980283E-1,2.2161232E1,-4.1434806E-2,-2.4005948E-1,-1.0428696E-1,1.2484654E-1,-2.9871471E-2,2.6554153E0,3.2044804E0,1.04293995E-1,-2.552154E-3,4.958243E-2,5.351513E-3,-9.482782E-2,-9.5807955E-2,9.795635E-2,1.0500336E-1,2.30041E-2,-2.0602401E-3,-1.1793753E-1],"split_indices":[2,5,0,2,0,5,0,0,3,0,0,0,5,3,0,0,0,0,0,0,0,0,0,0,0],"split_type":[0,0,0,0,0,0,0,0,0,0,0,0,0,0,0,0,0,0,0,0,0,0,0,0,0],"sum_hessian":[2.1602036E3,2.1149216E3,4.528207E1,2.1012107E3,1.3710782E1,2.4891682E1,2.0390387E1,2.0351648E3,6.6046036E1,1.6787012E0,1.2032081E1,6.430802E0,1.846088E1,1.7515816E1,2.8745708E0,1.9194838E3,1.1568101E2,2.1534567E1,4.4511467E1,1.3392589E0,5.091543E0,1.7430717E1,1.0301634E0,1.4314581E1,3.2012355E0],"tree_param":{"num_deleted":"0","num_feature":"6","num_nodes":"25","size_leaf_vector":"1"}},{"base_weights":[1.2023926E-3,5.6711364E-1,-7.551936E-3,2.2142847E-1,1.3307378E0,2.0807704E-1,-3.263715E-2,6.113077E-1,-1.15849175E-1,1.8779509E-2,1.4955586E-1,-6.736833E-2,8.631145E-1,-1.0358404E0,-2.1995604E-2,-2.215256E-2,1.1570325E-1,2.0030262E-2,-1.21737555E-1,-6.3560195E-2,1.0951133E-1,4.624403E-2,-1.8015109E-1,1.2431257E-1,-2.9767067E-3],"categories":[],"categories_nodes":[],"categories_segments":[],"categories_sizes":[],"default_left":[0,0,0,0,0,0,0,0,0,0,0,0,0,0,0,0,0,0,0,0,0,0,0,0,0],"id":34,"left_children":[1,3,5,7,9,11,13,15,-1,-1,-1,17,19,21,23,-1,-1,-1,-1,-1,-1,-1,-1,-1,-1],"loss_changes":[1.0683154E1,8.376871E0,1.1493988E1,1.3519553E1,1.6099529E0,4.00133E1,2.0295427E1,8.992468E0,0E0,0E0,0E0,4.851717E1,2.351435E1,2.3725332E1,1.8562927E1,0E0,0E0,0E0,0E0,0E0,0E0,0E0,0E0,0E0,0E0],"parents":[2147483647,0,0,1,1,2,2,3,3,4,4,5,5,6,6,7,7,11,11,12,12,13,13,14,14],"right_children":[2,4,6,8,10,12,14,16,-1,-1,-1,18,20,22,24,-1,-1,-1,-1,-1,-1,-1,-1,-1,-1],"split_conditions":[-5.888922E-2,-5.7224393E-2,-2.2527328E-1,-2.6086032E-1,-5.9756633E-2,-5.4851428E-2,-2.2128649E-1,-1.8611908E-1,-1.15849175E-1,1.8779509E-2,1.4955586E-1,-5.5514682E-2,-4.100904E-1,-3.62176E-1,-5.7351166E-1,-2.215256E-2,1.1570325E-1,2.0030262E-2,-1.21737555E-1,-6.3560195E-2,1.0951133E-1,4.624403E-2,-1.8015109E-1,1.2431257E-1,-2.9767067E-3],"split_indices":[1,2,4,3,0,2,4,4,0,0,0,2,5,5,5,0,0,0,0,0,0,0,0,0,0],"split_type":[0,0,0,0,0,0,0,0,0,0,0,0,0,0,0,0,0,0,0,0,0,0,0,0,0],"sum_hessian":[2.1545303E3,3.1850014E1,2.1226804E3,2.2812838E1,9.037177E0,2.2044772E2,1.9022327E3,1.8221561E1,4.591276E0,1.4086112E0,7.6285663E0,1.5582144E2,6.4626274E1,1.8955067E1,1.8832776E3,7.4484763E0,1.0773085E1,1.2707079E2,2.875065E1,8.429819E0,5.6196453E1,6.5445614E0,1.2410506E1,1.0527571E1,1.87275E3],"tree_param":{"num_deleted":"0","num_feature":"6","num_nodes":"25","size_leaf_vector":"1"}},{"base_weights":[1.1542568E-3,-2.3771819E-2,1.879231E-1,5.4329396E-3,-5.984156E-1,1.0946716E0,-7.97634E-2,-2.452397E-2,6.2243396E-1,2.3432812E-1,-1.0850031E0,1.2492977E0,3.0363128E-1,-1.2708014E0,7.381243E-2,-6.0094893E-3,3.2913603E-2,-3.571722E-2,9.338177E-2,-1.7275175E-2,1.2850472E-1,-1.18406355E-1,1.00670435E-1,1.39454175E-2,1.370955E-1,-1.2039949E-1,1.05317526E-1,-1.3323124E-1,-2.314902E-2,1.06767856E-1,-5.1245964E-3],"categories":[],"categories_nodes":[],"categories_segments":[],"categories_sizes":[],"default_left":[0,0,0,0,0,0,0,0,0,0,0,0,0,0,0,0,0,0,0,0,0,0,0,0,0,0,0,0,0,0,0],"id":35,"left_children":[1,3,5,7,9,11,13,15,17,19,21,23,25,27,29,-1,-1,-1,-1,-1,-1,-1,-1,-1,-1,-1,-1,-1,-1,-1,-1],"loss_changes":[1.002195E1,3.1878204E1,6.1612007E1,3.3441612E1,3.747951E1,6.695656E0,3.606095E1,2.1728746E1,2.5888248E1,1.5066102E1,1.3243813E1,6.29834E0,1.3448463E1,1.1308517E0,2.182061E1,0E0,0E0,0E0,0E0,0E0,0E0,0E0,0E0,0E0,0E0,0E0,0E0,0E0,0E0,0E0,0E0],"parents":[2147483647,0,0,1,1,2,2,3,3,4,4,5,5,6,6,7,7,8,8,9,9,10,10,11,11,12,12,13,13,14,14],"right_children":[2,4,6,8,10,12,14,16,18,20,22,24,26,28,30,-1,-1,-1,-1,-1,-1,-1,-1,-1,-1,-1,-1,-1,-1,-1,-1],"split_conditions":[1.7510197E-1,6.202339E-2,2.995466E-1,-1.3640657E-2,-5.451534E-2,2.469856E0,3.9088154E-1,-3.996444E-2,-5.53909E-2,-5.5114046E-2,3.216161E-1,-5.5477317E-2,-3.7907057E-2,5.078892E-1,-3.1785268E-1,-6.0094893E-3,3.2913603E-2,-3.571722E-2,9.338177E-2,-1.7275175E-2,1.2850472E-1,-1.18406355E-1,1.00670435E-1,1.39454175E-2,1.370955E-1,-1.2039949E-1,1.05317526E-1,-1.3323124E-1,-2.314902E-2,1.06767856E-1,-5.1245964E-3],"split_indices":[3,3,3,3,1,5,3,2,2,0,4,2,0,4,5,0,0,0,0,0,0,0,0,0,0,0,0,0,0,0,0],"split_type":[0,0,0,0,0,0,0,0,0,0,0,0,0,0,0,0,0,0,0,0,0,0,0,0,0,0,0,0,0,0,0],"sum_hessian":[2.1507917E3,1.8983163E3,2.524756E2,1.807448E3,9.086825E1,5.684208E1,1.9563353E2,1.7246713E3,8.277676E1,3.3704662E1,5.716358E1,4.706323E1,9.77885E0,2.1513504E1,1.7412003E2,1.5678116E3,1.5685954E2,1.9930094E1,6.2846664E1,2.4895134E1,8.809528E0,5.499311E1,2.170474E0,4.8612995E0,4.2201927E1,3.0459497E0,6.7329E0,2.0045221E1,1.4682814E0,1.8618368E1,1.5550165E2],"tree_param":{"num_deleted":"0","num_feature":"6","num_nodes":"31","size_leaf_vector":"1"}},{"base_weights":[1.2095324E-3,3.1593162E-1,-1.2987756E-2,1.5091665E-1,1.4829899E0,-5.7886887E-1,-1.3678402E-3,-5.0357044E-1,6.540248E-1,5.4517217E-2,1.5951706E-1,9.2080414E-1,-8.16591E-1,1.1425097E0,-8.271096E-3,5.282637E-2,-1.1130126E-1,1.1585628E-2,1.3376187E-1,9.375756E-3,1.2097309E-1,-9.6401624E-2,1.3286154E-1,1.5936814E-2,1.2397708E-1,1.1579305E-1,-1.4889053E-3],"categories":[],"categories_nodes":[],"categories_segments":[],"categories_sizes":[],"default_left":[0,0,0,0,0,0,0,0,0,0,0,0,0,0,0,0,0,0,0,0,0,0,0,0,0,0,0],"id":36,"left_children":[1,3,5,7,9,11,13,15,17,-1,-1,19,21,23,25,-1,-1,-1,-1,-1,-1,-1,-1,-1,-1,-1,-1],"loss_changes":[9.584684E0,1.760722E1,1.34959345E1,2.7406755E1,3.2511902E-1,1.5474769E1,1.5899402E1,2.3417833E1,1.7109373E1,0E0,0E0,1.3491402E0,1.2722061E1,9.573746E-1,1.546228E1,0E0,0E0,0E0,0E0,0E0,0E0,0E0,0E0,0E0,0E0,0E0,0E0],"parents":[2147483647,0,0,1,1,2,2,3,3,4,4,5,5,6,6,7,7,8,8,11,11,12,12,13,13,14,14],"right_children":[2,4,6,8,10,12,14,16,18,-1,-1,20,22,24,26,-1,-1,-1,-1,-1,-1,-1,-1,-1,-1,-1,-1],"split_conditions":[-5.7762925E-2,-1.05391055E-1,-5.755328E-2,-5.8354884E-2,-5.8142174E-2,-5.888922E-2,-5.7351166E-1,-5.8518644E-2,-2.0082599E-1,5.4517217E-2,1.5951706E-1,-5.9320025E-2,-5.000387E-2,-2.9671714E-1,-5.7476718E-2,5.282637E-2,-1.1130126E-1,1.1585628E-2,1.3376187E-1,9.375756E-3,1.2097309E-1,-9.6401624E-2,1.3286154E-1,1.5936814E-2,1.2397708E-1,1.1579305E-1,-1.4889053E-3],"split_indices":[2,4,2,1,2,1,5,2,4,0,0,0,3,3,2,0,0,0,0,0,0,0,0,0,0,0,0],"split_type":[0,0,0,0,0,0,0,0,0,0,0,0,0,0,0,0,0,0,0,0,0,0,0,0,0,0,0],"sum_hessian":[2.14317E3,9.158922E1,2.0515808E3,8.123272E1,1.0356501E1,4.0297672E1,2.0112831E3,3.530455E1,4.592817E1,1.732528E0,8.623972E0,5.120636E0,3.5177036E1,1.1078388E1,2.0002047E3,1.315882E1,2.2145731E1,2.6351822E1,1.9576345E1,1.6686534E0,3.4519825E0,3.3430225E1,1.7468092E0,1.2348406E0,9.843547E0,1.0305042E1,1.9898997E3],"tree_param":{"num_deleted":"0","num_feature":"6","num_nodes":"27","size_leaf_vector":"1"}},{"base_weights":[1.444037E-3,1.9405037E-1,-2.0345777E-2,-5.7517666E-2,8.057502E-1,-9.653336E-2,8.0796555E-2,1.8107376E-1,-1.1524053E0,1.3742317E-1,2.049148E-1,-4.746919E-2,-8.314895E-1,5.5765843E-1,1.8060997E-2,-1.8923884E-3,1.4376329E-1,1.1868926E-1,-1.3273585E-1,-7.412869E-2,7.979597E-2,-1.165407E-2,3.2230042E-2,-1.1476632E-1,7.6376447E-3,-4.6738863E-2,1.01824716E-1,-6.425738E-2,1.0908511E-2],"categories":[],"categories_nodes":[],"categories_segments":[],"categories_sizes":[],"default_left":[0,0,0,0,0,0,0,0,0,0,0,0,0,0,0,0,0,0,0,0,0,0,0,0,0,0,0,0,0],"id":37,"left_children":[1,3,5,7,9,11,13,15,17,-1,19,21,23,25,27,-1,-1,-1,-1,-1,-1,-1,-1,-1,-1,-1,-1,-1,-1],"loss_changes":[8.985878E0,3.353251E1,1.4830275E1,4.073243E1,2.1400906E1,3.9539154E1,2.4729841E1,3.225371E1,1.2990566E1,0E0,1.8568804E1,2.634306E1,1.9786308E1,4.5853508E1,4.407956E1,0E0,0E0,0E0,0E0,0E0,0E0,0E0,0E0,0E0,0E0,0E0,0E0,0E0,0E0],"parents":[2147483647,0,0,1,1,2,2,3,3,4,4,5,5,6,6,7,7,8,8,10,10,11,11,12,12,13,13,14,14],"right_children":[2,4,6,8,10,12,14,16,18,-1,20,22,24,26,28,-1,-1,-1,-1,-1,-1,-1,-1,-1,-1,-1,-1,-1,-1],"split_conditions":[-2.2527328E-1,-5.4851428E-2,-1.5636374E-1,-5.5441003E-2,-5.414187E-2,-1.8102188E-1,-5.6341432E-2,-5.5801332E-2,-4.4942683E-1,1.3742317E-1,-4.937791E-2,-5.2041247E-2,-9.6507646E-2,-5.7371356E-2,-5.503083E-2,-1.8923884E-3,1.4376329E-1,1.1868926E-1,-1.3273585E-1,-7.412869E-2,7.979597E-2,-1.165407E-2,3.2230042E-2,-1.1476632E-1,7.6376447E-3,-4.6738863E-2,1.01824716E-1,-6.425738E-2,1.0908511E-2],"split_indices":[4,2,5,2,2,5,0,2,5,0,0,2,3,1,1,0,0,0,0,0,0,0,0,0,0,0,0,0,0],"split_type":[0,0,0,0,0,0,0,0,0,0,0,0,0,0,0,0,0,0,0,0,0,0,0,0,0,0,0,0,0],"sum_hessian":[2.1391567E3,2.1660637E2,1.9225505E3,1.5412627E2,6.2480095E1,1.0965767E3,8.259738E2,1.27234665E2,2.6891607E1,3.1443022E1,3.1037073E1,1.0289507E3,6.762605E1,9.51135E1,7.308603E2,1.1061396E2,1.6620703E1,1.4687611E0,2.5422846E1,1.1861735E1,1.9175337E1,8.6757574E2,1.613749E2,4.9962097E1,1.7663954E1,2.948327E1,6.563023E1,8.7771675E1,6.430886E2],"tree_param":{"num_deleted":"0","num_feature":"6","num_nodes":"29","size_leaf_vector":"1"}},{"base_weights":[1.3965733E-3,5.298799E-1,-6.6948636E-3,1.976173E-1,1.2534386E0,-5.279668E-2,9.3125045E-2,-2.4168566E-1,1.3168667E-1,1.950102E-2,1.4058849E-1,2.789977E-2,-4.111277E-1,8.049082E-1,-3.4335084E-2,9.518779E-2,-1.11915186E-1,-5.488663E-4,7.3844455E-2,-1.2763368E-1,-2.6598591E-2,1.3580862E-1,-1.4121139E-2,-1.17932774E-1,6.921093E-4],"categories":[],"categories_nodes":[],"categories_segments":[],"categories_sizes":[],"default_left":[0,0,0,0,0,0,0,0,0,0,0,0,0,0,0,0,0,0,0,0,0,0,0,0,0],"id":38,"left_children":[1,3,5,7,9,11,13,15,-1,-1,-1,17,19,21,23,-1,-1,-1,-1,-1,-1,-1,-1,-1,-1],"loss_changes":[9.108754E0,7.474695E0,9.66039E0,1.1725576E1,1.3266869E0,4.1532436E1,6.019978E1,1.9399323E1,0E0,0E0,0E0,2.7830372E1,3.2812504E1,5.2932625E1,2.6625511E1,0E0,0E0,0E0,0E0,0E0,0E0,0E0,0E0,0E0,0E0],"parents":[2147483647,0,0,1,1,2,2,3,3,4,4,5,5,6,6,7,7,11,11,12,12,13,13,14,14],"right_children":[2,4,6,8,10,12,14,16,-1,-1,-1,18,20,22,24,-1,-1,-1,-1,-1,-1,-1,-1,-1,-1],"split_conditions":[-5.888922E-2,-5.7224393E-2,-1.05391055E-1,-5.898594E-2,-5.9756633E-2,-1.5037341E-1,-8.35478E-2,-5.964984E-2,1.3168667E-1,1.950102E-2,1.4058849E-1,-1.5607396E-1,-1.4444113E-1,-5.414688E-2,-4.2875662E-1,9.518779E-2,-1.11915186E-1,-5.488663E-4,7.3844455E-2,-1.2763368E-1,-2.6598591E-2,1.3580862E-1,-1.4121139E-2,-1.17932774E-1,6.921093E-4],"split_indices":[1,2,4,1,0,4,4,1,0,0,0,4,4,0,5,0,0,0,0,0,0,0,0,0,0],"split_type":[0,0,0,0,0,0,0,0,0,0,0,0,0,0,0,0,0,0,0,0,0,0,0,0,0],"sum_hessian":[2.1282803E3,3.1121586E1,2.0971587E3,2.2200224E1,8.921362E0,1.4349147E3,6.6224414E2,1.6505798E1,5.6944256E0,1.4101254E0,7.511236E0,1.1719196E3,2.6299515E2,9.9771164E1,5.6247296E2,6.9573455E0,9.548454E0,1.1202704E3,5.1649124E1,3.666092E1,2.2633421E2,6.2685013E1,3.7086147E1,1.8602686E1,5.438703E2],"tree_param":{"num_deleted":"0","num_feature":"6","num_nodes":"25","size_leaf_vector":"1"}},{"base_weights":[1.338085E-3,-2.225759E-2,1.7996429E-1,1.3059837E-2,-4.7607842E-1,1.0253224E0,-6.2473547E-2,-9.272624E-3,1.3198235E0,3.944388E-2,-1.1752329E0,1.1673824E0,2.803347E-1,-5.5777436E-1,2.7659848E-1,-2.5207826E-3,7.233759E-2,1.4574383E-1,-8.570757E-2,-5.4534532E-2,8.072586E-2,-1.3266997E-1,2.9567847E-2,1.2342066E-2,1.2871051E-1,-1.1481078E-1,1.0226541E-1,9.918754E-2,-8.2514115E-2,1.1935116E-1,7.342528E-3],"categories":[],"categories_nodes":[],"categories_segments":[],"categories_sizes":[],"default_left":[0,0,0,0,0,0,0,0,0,0,0,0,0,0,0,0,0,0,0,0,0,0,0,0,0,0,0,0,0,0,0],"id":39,"left_children":[1,3,5,7,9,11,13,15,17,19,21,23,25,27,29,-1,-1,-1,-1,-1,-1,-1,-1,-1,-1,-1,-1,-1,-1,-1,-1],"loss_changes":[8.968165E0,3.0131294E1,5.0946747E1,5.0931656E1,4.896994E1,5.5348396E0,3.2715424E1,2.0058111E1,1.0034042E1,3.5955166E1,1.3234276E1,5.6159134E0,1.19757E1,3.36004E1,2.1477758E1,0E0,0E0,0E0,0E0,0E0,0E0,0E0,0E0,0E0,0E0,0E0,0E0,0E0,0E0,0E0,0E0],"parents":[2147483647,0,0,1,1,2,2,3,3,4,4,5,5,6,6,7,7,8,8,9,9,10,10,11,11,12,12,13,13,14,14],"right_children":[2,4,6,8,10,12,14,16,18,20,22,24,26,28,30,-1,-1,-1,-1,-1,-1,-1,-1,-1,-1,-1,-1,-1,-1,-1,-1],"split_conditions":[1.7510197E-1,5.7071995E-2,2.995466E-1,2.489656E-2,-5.4833893E-2,2.469856E0,-2.2587541E-1,1.504799E0,-5.0320175E-2,-4.475922E-3,3.216161E-1,-5.5477317E-2,-3.7907057E-2,-5.490968E-1,-5.5719614E-2,-2.5207826E-3,7.233759E-2,1.4574383E-1,-8.570757E-2,-5.4534532E-2,8.072586E-2,-1.3266997E-1,2.9567847E-2,1.2342066E-2,1.2871051E-1,-1.1481078E-1,1.0226541E-1,9.918754E-2,-8.2514115E-2,1.1935116E-1,7.342528E-3],"split_indices":[3,4,3,4,1,5,5,5,1,3,4,2,0,4,0,0,0,0,0,0,0,0,0,0,0,0,0,0,0,0,0],"split_type":[0,0,0,0,0,0,0,0,0,0,0,0,0,0,0,0,0,0,0,0,0,0,0,0,0,0,0,0,0,0,0],"sum_hessian":[2.1258262E3,1.8785536E3,2.4727264E2,1.7438168E3,1.347368E2,5.4390125E1,1.9288252E2,1.7154922E3,2.8324688E1,7.809612E1,5.6640675E1,4.5203415E1,9.186708E0,7.812139E1,1.1476113E2,1.6799193E3,3.5572872E1,2.6951424E1,1.3732634E0,4.449627E1,3.3599857E1,5.144154E1,5.199135E0,4.8595815E0,4.0343834E1,2.954577E0,6.232131E0,1.10965185E1,6.702487E1,1.9932436E1,9.48287E1],"tree_param":{"num_deleted":"0","num_feature":"6","num_nodes":"31","size_leaf_vector":"1"}},{"base_weights":[1.4074502E-3,-3.6629446E-2,1.049705E-1,1.4427256E-2,-6.9977945E-1,-3.3405017E-2,3.7313166E-1,-3.7321776E-2,9.114497E-1,6.502552E-1,-9.2828053E-1,7.993698E-2,-9.806755E-1,1.1746993E0,-1.8928961E-1,-5.649182E-3,6.9768116E-2,1.16386555E-1,-5.032555E-2,-8.3911315E-2,1.6181344E-1,-9.850418E-2,1.1707202E-1,-8.866954E-3,7.8729466E-2,-1.1916991E-1,8.770936E-2,1.4663827E-1,5.7086196E-2,-1.16785005E-1,2.3844821E-2],"categories":[],"categories_nodes":[],"categories_segments":[],"categories_sizes":[],"default_left":[0,0,0,0,0,0,0,0,0,0,0,0,0,0,0,0,0,0,0,0,0,0,0,0,0,0,0,0,0,0,0],"id":40,"left_children":[1,3,5,7,9,11,13,15,17,19,21,23,25,27,29,-1,-1,-1,-1,-1,-1,-1,-1,-1,-1,-1,-1,-1,-1,-1,-1],"loss_changes":[8.353659E0,5.2524788E1,2.1150337E1,6.693076E1,3.4813953E1,4.0519836E1,8.76707E1,1.9250828E1,2.8668503E1,2.5346462E1,1.2502304E1,4.0303E1,1.6855206E1,1.3274788E1,4.835278E1,0E0,0E0,0E0,0E0,0E0,0E0,0E0,0E0,0E0,0E0,0E0,0E0,0E0,0E0,0E0,0E0],"parents":[2147483647,0,0,1,1,2,2,3,3,4,4,5,5,6,6,7,7,8,8,9,9,10,10,11,11,12,12,13,13,14,14],"right_children":[2,4,6,8,10,12,14,16,18,20,22,24,26,28,30,-1,-1,-1,-1,-1,-1,-1,-1,-1,-1,-1,-1,-1,-1,-1,-1],"split_conditions":[-9.6507646E-2,-1.4748298E-1,-5.2397557E-2,-1.765205E-1,-5.8196925E-2,-5.3330462E-2,-4.841087E-2,1.504799E0,-4.803079E-2,-1.2352349E-1,1.0498829E-1,-5.3483605E-2,-1.012087E-1,2.1492647E-1,-4.165715E-2,-5.649182E-3,6.9768116E-2,1.16386555E-1,-5.032555E-2,-8.3911315E-2,1.6181344E-1,-9.850418E-2,1.1707202E-1,-8.866954E-3,7.8729466E-2,-1.1916991E-1,8.770936E-2,1.4663827E-1,5.7086196E-2,-1.16785005E-1,2.3844821E-2],"split_indices":[3,3,0,3,0,0,1,5,4,3,4,1,5,3,0,0,0,0,0,0,0,0,0,0,0,0,0,0,0,0,0],"split_type":[0,0,0,0,0,0,0,0,0,0,0,0,0,0,0,0,0,0,0,0,0,0,0,0,0,0,0,0,0,0,0],"sum_hessian":[2.1186633E3,1.550016E3,5.6864746E2,1.4401178E3,1.09898125E2,3.756707E2,1.9297676E2,1.3624753E3,7.764252E1,1.564113E1,9.4256996E1,3.3634253E2,3.9328156E1,7.9122314E1,1.1385445E2,1.3287427E3,3.373258E1,6.603726E1,1.1605253E1,6.213249E0,9.427881E0,9.229195E1,1.9650526E0,2.7230927E2,6.403327E1,3.5638515E1,3.6896403E0,5.2387905E1,2.6734406E1,3.4103535E1,7.975091E1],"tree_param":{"num_deleted":"0","num_feature":"6","num_nodes":"31","size_leaf_vector":"1"}},{"base_weights":[1.5317971E-3,2.9937422E-1,-1.1690267E-2,1.4666905E-1,1.5114343E-1,-2.7741766E-1,1.0175806E-2,-1.2664043E0,3.1321403E-1,-4.0076283E-1,1.3821434E0,9.09372E-1,-2.0763267E-2,-1.682024E-1,5.918561E-3,1.3603195E-2,1.3166781E-1,-2.0984842E-2,-1.3147847E-1,1.9533351E-1,-4.0927663E-2,-8.526823E-2,1.11039236E-1,-3.6364973E-2,1.1990695E-3],"categories":[],"categories_nodes":[],"categories_segments":[],"categories_sizes":[],"default_left":[0,0,0,0,0,0,0,0,0,0,0,0,0,0,0,0,0,0,0,0,0,0,0,0,0],"id":41,"left_children":[1,3,5,-1,7,9,11,13,15,17,19,21,23,-1,-1,-1,-1,-1,-1,-1,-1,-1,-1,-1,-1],"loss_changes":[8.31463E0,1.5306906E1,1.174975E1,0E0,1.8947655E1,3.2025913E1,5.2013744E1,4.7731876E0,1.2846891E1,2.4832275E1,1.1913294E1,2.2974808E1,2.0307169E1,0E0,0E0,0E0,0E0,0E0,0E0,0E0,0E0,0E0,0E0,0E0,0E0],"parents":[2147483647,0,0,1,1,2,2,4,4,5,5,6,6,7,7,8,8,9,9,10,10,11,11,12,12],"right_children":[2,4,6,-1,8,10,12,14,16,18,20,22,24,-1,-1,-1,-1,-1,-1,-1,-1,-1,-1,-1,-1],"split_conditions":[-5.7762925E-2,-3.3113545E-1,-5.684888E-2,1.4666905E-1,-5.7872045E-1,-3.1297037E-1,-5.6612197E-2,-2.8571287E-1,-1.05391055E-1,-5.697673E-2,-2.7942535E-1,-5.828366E-2,-5.58711E-2,-1.682024E-1,5.918561E-3,1.3603195E-2,1.3166781E-1,-2.0984842E-2,-1.3147847E-1,1.9533351E-1,-4.0927663E-2,-8.526823E-2,1.11039236E-1,-3.6364973E-2,1.1990695E-3],"split_indices":[2,3,2,0,5,5,2,4,4,2,5,0,2,0,0,0,0,0,0,0,0,0,0,0,0],"split_type":[0,0,0,0,0,0,0,0,0,0,0,0,0,0,0,0,0,0,0,0,0,0,0,0,0],"sum_hessian":[2.109446E3,8.874392E1,2.0207021E3,8.99711E0,7.97468E1,1.5274782E2,1.8679543E3,7.4829974E0,7.226381E1,1.4288644E2,9.861377E0,6.118932E1,1.806765E3,5.492131E0,1.9908664E0,6.238417E1,9.87964E0,1.19215195E2,2.367124E1,7.40873E0,2.4526465E0,5.9338737E0,5.5255447E1,1.5665997E2,1.6501051E3],"tree_param":{"num_deleted":"0","num_feature":"6","num_nodes":"25","size_leaf_vector":"1"}},{"base_weights":[1.4025749E-3,1.8964055E-1,-1.9507166E-2,-4.1034076E-2,7.582538E-1,9.547998E-1,-2.5960132E-2,1.7793089E-1,-1.0633634E0,-5.857771E-1,9.8591053E-1,-1.4683372E-2,1.2072601E-1,-7.91169E-1,-1.6892672E-2,3.749261E-4,1.3441373E-1,6.924245E-2,-1.2476659E-1,-3.0486318E-3,-1.2588397E-1,1.2757136E-1,4.1968167E-2,3.0389402E-2,-1.191931E-1,1.5233476E-1,-2.3088502E-3],"categories":[],"categories_nodes":[],"categories_segments":[],"categories_sizes":[],"default_left":[0,0,0,0,0,0,0,0,0,0,0,0,0,0,0,0,0,0,0,0,0,0,0,0,0,0,0],"id":42,"left_children":[1,3,5,7,9,11,13,15,17,19,21,-1,-1,23,25,-1,-1,-1,-1,-1,-1,-1,-1,-1,-1,-1,-1],"loss_changes":[8.300045E0,2.768368E1,1.1957739E1,3.3975163E1,1.9210026E1,3.6577473E0,1.307591E1,2.5419163E1,9.525673E0,3.492711E0,8.070911E0,0E0,0E0,1.0048035E1,1.7836803E1,0E0,0E0,0E0,0E0,0E0,0E0,0E0,0E0,0E0,0E0,0E0,0E0],"parents":[2147483647,0,0,1,1,2,2,3,3,4,4,5,5,6,6,7,7,8,8,9,9,10,10,13,13,14,14],"right_children":[2,4,6,8,10,12,14,16,18,20,22,-1,-1,24,26,-1,-1,-1,-1,-1,-1,-1,-1,-1,-1,-1,-1],"split_conditions":[-2.2527328E-1,-5.4851428E-2,-5.7351166E-1,-5.5514682E-2,-4.100904E-1,-6.0613954E-1,-5.3108805E-1,-5.5801332E-2,-4.4942683E-1,-4.5189038E-1,1.7640155E-2,-1.4683372E-2,1.2072601E-1,-5.8145963E-2,-5.2682686E-1,3.749261E-4,1.3441373E-1,6.924245E-2,-1.2476659E-1,-3.0486318E-3,-1.2588397E-1,1.2757136E-1,4.1968167E-2,3.0389402E-2,-1.191931E-1,1.5233476E-1,-2.3088502E-3],"split_indices":[4,2,5,2,5,5,5,2,5,5,3,0,0,1,5,0,0,0,0,0,0,0,0,0,0,0,0],"split_type":[0,0,0,0,0,0,0,0,0,0,0,0,0,0,0,0,0,0,0,0,0,0,0,0,0,0,0],"sum_hessian":[2.1068076E3,2.0982332E2,1.8969843E3,1.4992833E2,5.9894985E1,1.1514369E1,1.8854698E3,1.2416115E2,2.5767181E1,8.447845E0,5.144714E1,2.224771E0,9.2895975E0,2.1070415E1,1.8643994E3,1.0889942E2,1.5261726E1,2.1858952E0,2.3581285E1,5.20166E0,3.2461846E0,3.3201298E1,1.824584E1,5.709952E0,1.5360463E1,6.4886937E0,1.8579108E3],"tree_param":{"num_deleted":"0","num_feature":"6","num_nodes":"27","size_leaf_vector":"1"}},{"base_weights":[1.4360022E-3,1.0429207E0,-2.2069796E-3,1.3621737E-1,-3.0357942E-2,-2.4874518E-2,1.7221558E-1,5.5982783E-3,-4.232816E-1,9.48478E-1,-4.3006264E-2,-1.4121932E-3,1.18119396E-1,5.5263485E-3,-1.0754087E-1,1.0798124E-1,2.482694E-2,-1.1475288E-1,8.972204E-3],"categories":[],"categories_nodes":[],"categories_segments":[],"categories_sizes":[],"default_left":[0,0,0,0,0,0,0,0,0,0,0,0,0,0,0,0,0,0,0],"id":43,"left_children":[1,3,5,-1,-1,7,9,11,13,15,17,-1,-1,-1,-1,-1,-1,-1,-1],"loss_changes":[7.981477E0,3.5656433E0,8.294109E0,0E0,0E0,2.2540613E1,4.034961E1,4.0019444E1,4.122702E1,4.5521927E0,2.793595E1,0E0,0E0,0E0,0E0,0E0,0E0,0E0,0E0],"parents":[2147483647,0,0,1,1,2,2,5,5,6,6,7,7,8,8,9,9,10,10],"right_children":[2,4,6,-1,-1,8,10,12,14,16,18,-1,-1,-1,-1,-1,-1,-1,-1],"split_conditions":[-6.0447983E-2,-2.5056797E-1,1.7510197E-1,1.3621737E-1,-3.0357942E-2,5.7071995E-2,2.995466E-1,2.489656E-2,-5.4833893E-2,2.469856E0,3.9088154E-1,-1.4121932E-3,1.18119396E-1,5.5263485E-3,-1.0754087E-1,1.0798124E-1,2.482694E-2,-1.1475288E-1,8.972204E-3],"split_indices":[0,3,3,0,0,4,3,4,1,5,3,0,0,0,0,0,0,0,0],"split_type":[0,0,0,0,0,0,0,0,0,0,0,0,0,0,0,0,0,0,0],"sum_hessian":[2.102043E3,6.3326483E0,2.0957102E3,5.109544E0,1.2231045E0,1.8554392E3,2.4027106E2,1.7245223E3,1.3091687E2,5.1416172E1,1.8885487E2,1.697043E3,2.747932E1,7.603557E1,5.4881298E1,4.283896E1,8.577211E0,1.943954E1,1.6941534E2],"tree_param":{"num_deleted":"0","num_feature":"6","num_nodes":"19","size_leaf_vector":"1"}},{"base_weights":[1.3753477E-3,-2.2049742E-2,1.4942607E-1,2.0240206E-2,-7.8563374E-1,1.137025E0,4.883562E-2,-6.644355E-3,7.105827E-1,-1.1303036E0,5.042928E-1,-7.161493E-2,1.2559928E0,-1.6243984E-1,1.31631E-1,1.0040492E-3,-1.2694326E-1,7.9139516E-2,-1.4210151E-1,-1.5322311E-1,-5.9561945E-2,-1.088706E-1,9.403898E-2,1.4245962E-1,7.325619E-2,5.7799358E-2,-1.1191952E-2],"categories":[],"categories_nodes":[],"categories_segments":[],"categories_sizes":[],"default_left":[0,0,0,0,0,0,0,0,0,0,0,0,0,0,0,0,0,0,0,0,0,0,0,0,0,0,0],"id":44,"left_children":[1,3,5,7,9,11,13,15,17,19,21,-1,23,-1,25,-1,-1,-1,-1,-1,-1,-1,-1,-1,-1,-1,-1],"loss_changes":[7.280524E0,5.8546738E1,2.8433973E1,3.1897654E1,4.287032E1,6.7340508E0,3.6415302E1,3.48824E1,1.2221928E1,1.5288902E1,1.5441101E1,0E0,1.1831017E0,0E0,2.723382E1,0E0,0E0,0E0,0E0,0E0,0E0,0E0,0E0,0E0,0E0,0E0,0E0],"parents":[2147483647,0,0,1,1,2,2,3,3,4,4,5,5,6,6,7,7,8,8,9,9,10,10,12,12,14,14],"right_children":[2,4,6,8,10,12,14,16,18,20,22,-1,24,-1,26,-1,-1,-1,-1,-1,-1,-1,-1,-1,-1,-1,-1],"split_conditions":[-4.5647833E-2,-4.34938E-2,-4.4479776E-2,2.8508535E-1,-3.7131492E-2,-2.7521938E-1,-4.431304E-2,-4.4395857E-2,-4.75368E-2,-1.7261069E-1,-5.6566563E-2,-7.161493E-2,-1.7032216E-1,-1.6243984E-1,-3.948816E-2,1.0040492E-3,-1.2694326E-1,7.9139516E-2,-1.4210151E-1,-1.5322311E-1,-5.9561945E-2,-1.088706E-1,9.403898E-2,1.4245962E-1,7.325619E-2,5.7799358E-2,-1.1191952E-2],"split_indices":[1,2,1,5,2,3,1,0,1,4,1,0,4,0,1,0,0,0,0,0,0,0,0,0,0,0,0],"split_type":[0,0,0,0,0,0,0,0,0,0,0,0,0,0,0,0,0,0,0,0,0,0,0,0,0,0,0],"sum_hessian":[2.0973323E3,1.8115532E3,2.8577905E2,1.7174105E3,9.414269E1,2.5464508E1,2.6031454E2,1.6539883E3,6.3422215E1,7.438949E1,1.9753208E1,1.2333151E0,2.4231194E1,1.1395733E1,2.4891881E2,1.6333987E3,2.0589565E1,6.1711365E1,1.7108488E0,4.140172E1,3.2987766E1,3.9237695E0,1.5829439E1,1.7025444E1,7.2057486E0,8.738762E1,1.6153119E2],"tree_param":{"num_deleted":"0","num_feature":"6","num_nodes":"27","size_leaf_vector":"1"}},{"base_weights":[1.0499723E-3,-5.109714E-2,6.842815E-2,5.8805957E-2,-2.6621562E-1,2.1477252E-1,-1.0693763E-1,1.2298232E-2,9.5016974E-1,-7.8540343E-1,-4.8090212E-2,1.1932045E-2,7.618909E-1,-5.56687E-1,1.2816024E-1,-6.22987E-3,3.216685E-2,-4.344069E-2,1.6165319E-1,-1.181158E-1,1.2410923E-2,5.345679E-2,-3.0476138E-2,1.3601591E-2,-7.303117E-2,-5.6993544E-2,8.851E-2,6.712485E-2,-7.333408E-2,6.0479414E-2,-6.2084864E-3],"categories":[],"categories_nodes":[],"categories_segments":[],"categories_sizes":[],"default_left":[0,0,0,0,0,0,0,0,0,0,0,0,0,0,0,0,0,0,0,0,0,0,0,0,0,0,0,0,0,0,0],"id":45,"left_children":[1,3,5,7,9,11,13,15,17,19,21,23,25,27,29,-1,-1,-1,-1,-1,-1,-1,-1,-1,-1,-1,-1,-1,-1,-1,-1],"loss_changes":[7.350617E0,2.789777E1,2.3447044E1,3.2380413E1,4.514402E1,5.5242874E1,4.40427E1,1.7181818E1,3.643948E1,4.260675E1,4.2336414E1,3.3644543E1,2.2598106E1,3.1500198E1,2.4875542E1,0E0,0E0,0E0,0E0,0E0,0E0,0E0,0E0,0E0,0E0,0E0,0E0,0E0,0E0,0E0,0E0],"parents":[2147483647,0,0,1,1,2,2,3,3,4,4,5,5,6,6,7,7,8,8,9,9,10,10,11,11,12,12,13,13,14,14],"right_children":[2,4,6,8,10,12,14,16,18,20,22,24,26,28,30,-1,-1,-1,-1,-1,-1,-1,-1,-1,-1,-1,-1,-1,-1,-1,-1],"split_conditions":[-5.2831095E-2,-5.4550704E-2,5.440511E-2,-5.4660425E-2,-5.6659166E-2,-1.012087E-1,2.8872576E-1,-1.0417902E-1,-5.488434E-2,-1.7044991E-1,-5.5221073E-2,-1.3200636E-1,-5.2273426E-2,-5.1820148E-2,4.8925704E-1,-6.22987E-3,3.216685E-2,-4.344069E-2,1.6165319E-1,-1.181158E-1,1.2410923E-2,5.345679E-2,-3.0476138E-2,1.3601591E-2,-7.303117E-2,-5.6993544E-2,8.851E-2,6.712485E-2,-7.333408E-2,6.0479414E-2,-6.2084864E-3],"split_indices":[2,2,5,2,0,5,5,4,1,5,1,5,2,2,5,0,0,0,0,0,0,0,0,0,0,0,0,0,0,0,0],"split_type":[0,0,0,0,0,0,0,0,0,0,0,0,0,0,0,0,0,0,0,0,0,0,0,0,0,0,0,0,0,0,0],"sum_hessian":[2.0900657E3,1.1783373E3,9.1172845E2,7.8037415E2,3.979631E2,4.9686517E2,4.148633E2,7.4264E2,3.773413E1,1.169633E2,2.809998E2,3.632241E2,1.3364108E2,1.4194682E2,2.7291647E2,5.990038E2,1.4363622E2,1.2373138E1,2.5360992E1,8.129214E1,3.5671165E1,8.5600075E1,1.9539972E2,3.1189935E2,5.132472E1,1.1009401E1,1.2263169E2,1.7500381E1,1.2444644E2,7.7235115E1,1.9568137E2],"tree_param":{"num_deleted":"0","num_feature":"6","num_nodes":"31","size_leaf_vector":"1"}},{"base_weights":[1.0353815E-3,-2.0140762E-2,1.6618122E-1,8.73476E-3,-3.9838743E-1,8.830641E-1,-2.7719988E-2,-8.506091E-3,1.0685515E0,1.7401654E-2,-9.8931676E-1,9.816132E-1,-2.5989186E-2,-7.861762E-1,1.4752834E-1,-1.974929E-3,8.423263E-2,1.2075762E-1,-9.2552155E-2,-7.599417E-2,5.24684E-2,-1.13954544E-1,3.4140024E-2,1.1461836E-1,2.4221107E-2,-1.2232014E-1,7.7118E-2,-1.1931975E-1,5.9513617E-2,1.6550474E-1,1.5748799E-3],"categories":[],"categories_nodes":[],"categories_segments":[],"categories_sizes":[],"default_left":[0,0,0,0,0,0,0,0,0,0,0,0,0,0,0,0,0,0,0,0,0,0,0,0,0,0,0,0,0,0,0],"id":46,"left_children":[1,3,5,7,9,11,13,15,17,19,21,23,25,27,29,-1,-1,-1,-1,-1,-1,-1,-1,-1,-1,-1,-1,-1,-1,-1,-1],"loss_changes":[7.283125E0,2.016494E1,3.292581E1,3.1363934E1,3.2190987E1,4.542553E0,2.5007782E1,1.6178667E1,8.734787E0,3.1096071E1,1.1204269E1,5.260868E0,6.579563E0,2.0560694E1,3.036185E1,0E0,0E0,0E0,0E0,0E0,0E0,0E0,0E0,0E0,0E0,0E0,0E0,0E0,0E0,0E0,0E0],"parents":[2147483647,0,0,1,1,2,2,3,3,4,4,5,5,6,6,7,7,8,8,9,9,10,10,11,11,12,12,13,13,14,14],"right_children":[2,4,6,8,10,12,14,16,18,20,22,24,26,28,30,-1,-1,-1,-1,-1,-1,-1,-1,-1,-1,-1,-1,-1,-1,-1,-1],"split_conditions":[1.7510197E-1,5.7071995E-2,2.995466E-1,2.489656E-2,-5.4833893E-2,3.8627195E-1,4.673514E-1,9.904699E-2,-5.0320175E-2,-5.80191E-2,3.216161E-1,2.469856E0,-5.5891518E-2,-1.4383759E-1,-5.771498E-2,-1.974929E-3,8.423263E-2,1.2075762E-1,-9.2552155E-2,-7.599417E-2,5.24684E-2,-1.13954544E-1,3.4140024E-2,1.1461836E-1,2.4221107E-2,-1.2232014E-1,7.7118E-2,-1.1931975E-1,5.9513617E-2,1.6550474E-1,1.5748799E-3],"split_indices":[3,4,3,4,1,4,3,3,1,0,4,5,2,5,1,0,0,0,0,0,0,0,0,0,0,0,0,0,0,0,0],"split_type":[0,0,0,0,0,0,0,0,0,0,0,0,0,0,0,0,0,0,0,0,0,0,0,0,0,0,0,0,0,0,0],"sum_hessian":[2.0806306E3,1.8449379E3,2.3569266E2,1.7149916E3,1.2994632E2,4.9421074E1,1.8627158E2,1.6885151E3,2.6476395E1,7.684633E1,5.3099987E1,4.4515408E1,4.9056673E0,3.430727E1,1.5196431E2,1.6674575E3,2.1057579E1,2.5119507E1,1.3568872E0,3.014896E1,4.669737E1,4.7842556E1,5.2574315E0,3.5961277E1,8.55413E0,1.7472159E0,3.1584513E0,2.6604193E1,7.7030783E0,1.1286853E1,1.4067746E2],"tree_param":{"num_deleted":"0","num_feature":"6","num_nodes":"31","size_leaf_vector":"1"}},{"base_weights":[1.0393485E-3,-7.5566014E-3,4.0607822E-1,2.0202037E-2,-1.8720476E-1,8.59607E-1,-1.1109692E-1,-2.9775621E-3,5.830531E-1,-9.2418486E-1,1.276571E-2,2.5230125E-2,9.157706E-1,-6.1153924E-1,4.3211952E-1,1.6013291E-3,-6.708121E-2,-9.4515905E-2,7.1991056E-2,3.0606136E-2,-1.3545063E-1,-1.3115972E-1,1.2346449E-2,5.1787864E-2,1.0238828E-1,-1.2922488E-1,-6.681011E-3,1.1529503E-1,-1.441282E-2],"categories":[],"categories_nodes":[],"categories_segments":[],"categories_sizes":[],"default_left":[0,0,0,0,0,0,0,0,0,0,0,0,0,0,0,0,0,0,0,0,0,0,0,0,0,0,0,0,0],"id":47,"left_children":[1,3,5,7,9,11,13,15,17,19,21,-1,23,25,27,-1,-1,-1,-1,-1,-1,-1,-1,-1,-1,-1,-1,-1,-1],"loss_changes":[7.2279906E0,1.0141797E1,1.0214691E1,2.298722E1,4.012471E1,5.5685425E-1,5.984587E0,2.148391E1,1.5255938E1,3.1175426E1,3.1693666E1,0E0,3.6296654E-1,4.12836E0,4.6007047E0,0E0,0E0,0E0,0E0,0E0,0E0,0E0,0E0,0E0,0E0,0E0,0E0,0E0,0E0],"parents":[2147483647,0,0,1,1,2,2,3,3,4,4,5,5,6,6,7,7,8,8,9,9,10,10,12,12,13,13,14,14],"right_children":[2,4,6,8,10,12,14,16,18,20,22,-1,24,26,28,-1,-1,-1,-1,-1,-1,-1,-1,-1,-1,-1,-1,-1,-1],"split_conditions":[-2.2934256E-2,-4.461446E-2,-6.3964683E-3,2.8872576E-1,-4.283074E-2,-5.4727413E-2,1.3477214E-1,2.0860884E-1,-5.6433596E-2,-4.864071E-2,-3.3005455E-1,2.5230125E-2,-1.6294464E-1,3.8820654E-1,2.0895677E0,1.6013291E-3,-6.708121E-2,-9.4515905E-2,7.1991056E-2,3.0606136E-2,-1.3545063E-1,-1.3115972E-1,1.2346449E-2,5.1787864E-2,1.0238828E-1,-1.2922488E-1,-6.681011E-3,1.1529503E-1,-1.441282E-2],"split_indices":[2,2,0,5,2,1,1,5,0,0,5,0,4,5,3,0,0,0,0,0,0,0,0,0,0,0,0,0,0],"split_type":[0,0,0,0,0,0,0,0,0,0,0,0,0,0,0,0,0,0,0,0,0,0,0,0,0,0,0,0,0],"sum_hessian":[2.074117E3,2.0319747E3,4.2142303E1,1.7607908E3,2.71184E2,2.2099962E1,2.0042341E1,1.6921006E3,6.869018E1,5.7105015E1,2.1407896E2,2.33572E0,1.9764242E1,1.0366421E1,9.67592E0,1.6462627E3,4.5837864E1,5.1604214E0,6.3529755E1,1.4873088E1,4.2231926E1,1.5676945E1,1.9840202E2,5.4599295E0,1.4304313E1,3.9980557E0,6.3683653E0,3.8540647E0,5.821855E0],"tree_param":{"num_deleted":"0","num_feature":"6","num_nodes":"29","size_leaf_vector":"1"}},{"base_weights":[8.4090536E-4,4.8069113E-1,-6.403627E-3,1.7377377E-1,1.2288606E-1,-8.030716E-2,4.9621962E-2,-1.953622E-1,1.2935528E-1,-2.2847027E-2,-7.70094E-1,8.180341E-1,1.4897408E-2,9.201681E-2,-7.744308E-2,-9.519373E-3,3.731453E-2,-1.1518786E-1,4.948978E-2,-8.5890196E-2,1.0813358E-1,-1.0340094E-1,3.9917496E-3],"categories":[],"categories_nodes":[],"categories_segments":[],"categories_sizes":[],"default_left":[0,0,0,0,0,0,0,0,0,0,0,0,0,0,0,0,0,0,0,0,0,0,0],"id":48,"left_children":[1,3,5,7,-1,9,11,13,-1,15,17,19,21,-1,-1,-1,-1,-1,-1,-1,-1,-1,-1],"loss_changes":[7.1980147E0,6.858007E0,8.450255E0,9.760731E0,0E0,3.4861343E1,3.0964443E1,1.2448755E1,0E0,2.3337275E1,3.3235924E1,2.3083164E1,2.921768E1,0E0,0E0,0E0,0E0,0E0,0E0,0E0,0E0,0E0,0E0],"parents":[2147483647,0,0,1,1,2,2,3,3,5,5,6,6,7,7,9,9,10,10,11,11,12,12],"right_children":[2,4,6,8,-1,10,12,14,-1,16,18,20,22,-1,-1,-1,-1,-1,-1,-1,-1,-1,-1],"split_conditions":[-5.888922E-2,-5.898594E-2,-5.4991424E-2,-1.5227593E-1,1.2288606E-1,-5.5239715E-2,-5.4672215E-2,-6.0447983E-2,1.2935528E-1,-5.5655617E-2,-1.8876219E-1,-2.3656788E-1,-5.454582E-2,9.201681E-2,-7.744308E-2,-9.519373E-3,3.731453E-2,-1.1518786E-1,4.948978E-2,-8.5890196E-2,1.0813358E-1,-1.0340094E-1,3.9917496E-3],"split_indices":[1,1,1,3,0,1,1,0,0,1,3,4,1,0,0,0,0,0,0,0,0,0,0],"split_type":[0,0,0,0,0,0,0,0,0,0,0,0,0,0,0,0,0,0,0,0,0,0,0],"sum_hessian":[2.0687166E3,2.9795923E1,2.0389207E3,2.2002306E1,7.7936163E0,8.7899805E2,1.1599226E3,1.7168299E1,4.8340073E0,8.123605E2,6.6637566E1,4.9175297E1,1.1107473E3,5.665366E0,1.1502933E1,6.875133E2,1.2484716E2,5.125716E1,1.5380404E1,6.3664045E0,4.280889E1,2.4938387E1,1.085809E3],"tree_param":{"num_deleted":"0","num_feature":"6","num_nodes":"23","size_leaf_vector":"1"}},{"base_weights":[8.136338E-4,5.2864056E-2,-6.4361796E-2,2.0464748E-2,1.098745E0,-3.5378674E-1,6.0967974E-2,-3.488995E-2,3.3652917E-1,-1.0684031E-1,1.2431449E0,-8.0860496E-1,-1.582179E-1,1.0119987E0,-5.359344E-3,1.4808258E-3,-1.2819158E-1,1.5207588E-2,1.1770803E-1,1.4549944E-1,-1.5949605E-2,-2.3864111E-2,-1.14649706E-1,1.2791747E-1,-2.701503E-2,-3.679344E-2,1.4094697E-1,1.2768735E-1,-4.4147098E-3],"categories":[],"categories_nodes":[],"categories_segments":[],"categories_sizes":[],"default_left":[0,0,0,0,0,0,0,0,0,0,0,0,0,0,0,0,0,0,0,0,0,0,0,0,0,0,0,0,0],"id":49,"left_children":[1,3,5,7,9,11,13,15,17,-1,19,21,23,25,27,-1,-1,-1,-1,-1,-1,-1,-1,-1,-1,-1,-1,-1,-1],"loss_changes":[7.0093827E0,3.890415E1,3.3300194E1,1.9523958E1,1.2123844E1,2.4544147E1,4.0442993E1,5.8892284E1,2.5605724E1,0E0,9.980083E0,1.5742348E1,3.1753569E1,2.3444935E1,2.9910236E1,0E0,0E0,0E0,0E0,0E0,0E0,0E0,0E0,0E0,0E0,0E0,0E0,0E0,0E0],"parents":[2147483647,0,0,1,1,2,2,3,3,4,4,5,5,6,6,7,7,8,8,10,10,11,11,12,12,13,13,14,14],"right_children":[2,4,6,8,10,12,14,16,18,-1,20,22,24,26,28,-1,-1,-1,-1,-1,-1,-1,-1,-1,-1,-1,-1,-1,-1],"split_conditions":[-1.529434E-1,-1.5607396E-1,-1.05391055E-1,-4.6677876E-2,-3.9003307E-1,-5.401072E-2,-9.884728E-2,-4.7008544E-2,7.416117E-1,-1.0684031E-1,-4.7627896E-2,-1.3036698E-1,-5.6107692E-2,-5.5037554E-2,-5.739117E-2,1.4808258E-3,-1.2819158E-1,1.5207588E-2,1.1770803E-1,1.4549944E-1,-1.5949605E-2,-2.3864111E-2,-1.14649706E-1,1.2791747E-1,-2.701503E-2,-3.679344E-2,1.4094697E-1,1.2768735E-1,-4.4147098E-3],"split_indices":[4,4,4,0,5,2,4,2,5,0,2,4,1,1,2,0,0,0,0,0,0,0,0,0,0,0,0,0,0],"split_type":[0,0,0,0,0,0,0,0,0,0,0,0,0,0,0,0,0,0,0,0,0,0,0,0,0,0,0,0,0],"sum_hessian":[2.0641936E3,1.1477588E3,9.1643463E2,1.1142609E3,3.3498013E1,2.763756E2,6.40059E2,9.4895325E2,1.6530759E2,1.6928508E0,3.1805162E1,8.216248E1,1.9421312E2,4.079953E1,5.992595E2,9.1353394E2,3.5419304E1,1.365283E2,2.8779293E1,2.7599339E1,4.205824E0,3.1214846E1,5.0947643E1,1.3277718E1,1.8093541E2,9.140388E0,3.1659142E1,