{"learner":{"attributes":{"scikit_learn":"{\"_estimator_type\": \"classifier\"}"},"feature_names":[],"feature_types":[],"gradient_booster":{"model":{"gbtree_model_param":{"num_parallel_tree":"1","num_trees":"200"},"iteration_indptr":[0,1,2,3,4,5,6,7,8,9,10,11,12,13,14,15,16,17,18,19,20,21,22,23,24,25,26,27,28,29,30,31,32,33,34,35,36,37,38,39,40,41,42,43,44,45,46,47,48,49,50,51,52,53,54,55,56,57,58,59,60,61,62,63,64,65,66,67,68,69,70,71,72,73,74,75,76,77,78,79,80,81,82,83,84,85,86,87,88,89,90,91,92,93,94,95,96,97,98,99,100,101,102,103,104,105,106,107,108,109,110,111,112,113,114,115,116,117,118,119,120,121,122,123,124,125,126,127,128,129,130,131,132,133,134,135,136,137,138,139,140,141,142,143,144,145,146,147,148,149,150,151,152,153,154,155,156,157,158,159,160,161,162,163,164,165,166,167,168,169,170,171,172,173,174,175,176,177,178,179,180,181,182,183,184,185,186,187,188,189,190,191,192,193,194,195,196,197,198,199,200],"tree_info":[0,0,0,0,0,0,0,0,0,0,0,0,0,0,0,0,0,0,0,0,0,0,0,0,0,0,0,0,0,0,0,0,0,0,0,0,0,0,0,0,0,0,0,0,0,0,0,0,0,0,0,0,0,0,0,0,0,0,0,0,0,0,0,0,0,0,0,0,0,0,0,0,0,0,0,0,0,0,0,0,0,0,0,0,0,0,0,0,0,0,0,0,0,0,0,0,0,0,0,0,0,0,0,0,0,0,0,0,0,0,0,0,0,0,0,0,0,0,0,0,0,0,0,0,0,0,0,0,0,0,0,0,0,0,0,0,0,0,0,0,0,0,0,0,0,0,0,0,0,0,0,0,0,0,0,0,0,0,0,0,0,0,0,0,0,0,0,0,0,0,0,0,0,0,0,0,0,0,0,0,0,0,0,0,0,0,0,0,0,0,0,0,0,0,0,0,0,0,0,0],"trees":[{"base_weights":[-9.31677E-3,-1.1662931E0,1.1232997E0,-1.3097556E0,1.2411067E0,1.3625686E-1,1.5056317E0,1.0333333E0,-1.4498366E0,1.5368421E0,3.283582E-1,-6.7873305E-1,1.0097088E0,-4.5454547E-2,1.5282556E0,9.090909E-2,1.5384616E0,1.3953488E0,-1.5111681E0,1.726708E0,4.2424244E-1,-7.931035E-2,8.095238E-2,-3.233533E-1,-1.7349398E0,5.050505E-1,1.8761061E0,1.0765432E0,1.675102E0,8.974359E-2,-1.1698114E0,8.969072E-2,1.0476191E0,4.516129E-1,8.983051E-2,-1.6720257E0,-8.69455E-1,3.3333335E-2,1.8095238E0,-5.294118E-2,8.0000006E-2,-6.832918E-1,1.0769231E0,-9.4957985E-2,-6.0784318E-2,1.3214285E0,-5.4545456E-1,9.71564E-2,3.6842104E-2,3.452381E-1,1.5815899E0,1.7651515E0,1.0994152E0,2.2222223E-2,-8.974359E-2,9.0697676E-2,-2.5E-2,-3.3333335E-2,7.647059E-2,-8.6334996E-2,3.0303032E-3,-5.276653E-2,9.2307694E-2,9.407408E-2,3.75E-2,-4.913295E-2,5.5932205E-2,-6.1538465E-2,8.7804876E-2,4.2857144E-2,9.2156865E-2,-7.5806454E-2,8.214286E-2,-2.4031008E-2,4.2180095E-2,9.281769E-2,3.5E-2,2.4324326E-2,8.922559E-2,-9.2156865E-2,7.966102E-2],"categories":[],"categories_nodes":[],"categories_segments":[],"categories_sizes":[],"default_left":[0,0,0,0,0,0,0,0,0,0,0,0,0,0,0,0,0,0,0,0,0,0,0,0,0,0,0,0,0,0,0,0,0,0,0,0,0,0,0,0,0,0,0,0,0,0,0,0,0,0,0,0,0,0,0,0,0,0,0,0,0,0,0,0,0,0,0,0,0,0,0,0,0,0,0,0,0,0,0,0,0],"id":0,"left_children":[1,3,5,7,9,11,13,15,17,19,21,23,25,-1,27,29,31,33,35,37,39,-1,-1,41,43,45,47,49,51,-1,53,-1,55,57,-1,59,61,-1,63,-1,-1,65,67,-1,-1,69,71,-1,-1,73,75,77,79,-1,-1,-1,-1,-1,-1,-1,-1,-1,-1,-1,-1,-1,-1,-1,-1,-1,-1,-1,-1,-1,-1,-1,-1,-1,-1,-1,-1],"loss_changes":[2.9549753E3,3.868872E2,4.2981702E2,3.4719836E2,1.6568565E1,2.2794485E2,4.625464E1,2.8422844E1,1.7560474E2,9.301582E0,4.395922E1,6.1654007E1,6.6605225E1,0E0,5.2191162E1,4.9360516E1,3.0089493E0,7.330349E0,9.906128E1,2.3271255E0,1.6079857E1,0E0,0E0,6.3863525E1,1.2299957E0,8.56241E1,2.8822937E0,7.424599E1,2.9811646E1,0E0,1.41670685E1,0E0,1.9586378E1,1.0360531E1,0E0,7.375708E1,1.01513306E2,0E0,1.3907394E0,0E0,0E0,5.517815E1,4.291182E1,0E0,0E0,1.1984596E1,9.5952866E1,0E0,0E0,3.497799E1,2.7646912E1,1.2202637E1,1.2717207E2,0E0,0E0,0E0,0E0,0E0,0E0,0E0,0E0,0E0,0E0,0E0,0E0,0E0,0E0,0E0,0E0,0E0,0E0,0E0,0E0,0E0,0E0,0E0,0E0,0E0,0E0,0E0,0E0],"parents":[2147483647,0,0,1,1,2,2,3,3,4,4,5,5,6,6,7,7,8,8,9,9,10,10,11,11,12,12,14,14,15,15,16,16,17,17,18,18,19,19,20,20,23,23,24,24,25,25,26,26,27,27,28,28,30,30,32,32,33,33,35,35,36,36,38,38,41,41,42,42,45,45,46,46,49,49,50,50,51,51,52,52],"right_children":[2,4,6,8,10,12,14,16,18,20,22,24,26,-1,28,30,32,34,36,38,40,-1,-1,42,44,46,48,50,52,-1,54,-1,56,58,-1,60,62,-1,64,-1,-1,66,68,-1,-1,70,72,-1,-1,74,76,78,80,-1,-1,-1,-1,-1,-1,-1,-1,-1,-1,-1,-1,-1,-1,-1,-1,-1,-1,-1,-1,-1,-1,-1,-1,-1,-1,-1,-1],"split_conditions":[-4.5658614E-2,-4.5058247E-2,-2.1736392E-1,-4.8373107E-2,-4.6127167E-2,-4.192843E-2,-4.833414E-2,-2.4068432E-1,-4.9115032E-2,-4.1400015E-2,-4.6016615E-2,-4.280143E-2,-3.6831938E-2,-4.5454547E-2,-4.3637026E-2,-2.532031E-1,-4.858124E-2,-4.7995467E-2,-4.767561E-2,-4.6935733E-2,-3.794161E-2,-7.931035E-2,8.095238E-2,-4.3164484E-2,-4.4115357E-2,-3.9284464E-2,-2.2200277E-1,-1.0812557E-1,-1.33052515E-2,8.974359E-2,-4.8445154E-2,8.969072E-2,-4.958619E-2,-4.965338E-2,8.983051E-2,-4.5913346E-2,1.741907E-1,3.3333335E-2,-4.2166855E-2,-5.294118E-2,8.0000006E-2,-4.310873E-2,-4.6513606E-2,-9.4957985E-2,-6.0784318E-2,-4.246356E-2,-3.769411E-2,9.71564E-2,3.6842104E-2,-4.528766E-2,3.4909862E-1,-2.164525E-1,-1.2655969E-2,2.2222223E-2,-8.974359E-2,9.0697676E-2,-2.5E-2,-3.3333335E-2,7.647059E-2,-8.6334996E-2,3.0303032E-3,-5.276653E-2,9.2307694E-2,9.407408E-2,3.75E-2,-4.913295E-2,5.5932205E-2,-6.1538465E-2,8.7804876E-2,4.2857144E-2,9.2156865E-2,-7.5806454E-2,8.214286E-2,-2.4031008E-2,4.2180095E-2,9.281769E-2,3.5E-2,2.4324326E-2,8.922559E-2,-9.2156865E-2,7.966102E-2],"split_indices":[2,1,3,2,2,2,1,3,1,0,2,2,0,0,2,3,2,2,0,0,0,0,0,2,0,2,3,3,0,0,2,0,0,0,0,2,3,0,1,0,0,0,0,0,0,1,2,0,0,1,3,3,0,0,0,0,0,0,0,0,0,0,0,0,0,0,0,0,0,0,0,0,0,0,0,0,0,0,0,0,0],"split_type":[0,0,0,0,0,0,0,0,0,0,0,0,0,0,0,0,0,0,0,0,0,0,0,0,0,0,0,0,0,0,0,0,0,0,0,0,0,0,0,0,0,0,0,0,0,0,0,0,0,0,0,0,0,0,0,0,0,0,0,0,0,0,0,0,0,0,0,0,0,0,0,0,0,0,0,0,0,0,0,0,0],"sum_hessian":[2.253E3,1.1145E3,1.1385E3,1.05225E3,6.225E1,3.1825E2,8.2025E2,5.9E1,9.9325E2,4.65E1,1.575E1,1.6475E2,1.535E2,7.25E0,8.13E2,2.1E1,3.8E1,2.05E1,9.7275E2,3.925E1,7.25E0,6.25E0,9.5E0,1.2425E2,4.05E1,9.8E1,5.55E1,2.015E2,6.115E2,8.75E0,1.225E1,2.325E1,1.475E1,6.75E0,1.375E1,7.765E2,1.9625E2,3.5E0,3.575E1,3.25E0,4E0,9.925E1,2.5E1,2.875E1,1.175E1,5.5E1,4.3E1,5.175E1,3.75E0,8.3E1,1.185E2,5.27E2,8.45E1,3.5E0,8.75E0,9.75E0,5E0,3.5E0,3.25E0,7.5275E2,2.375E1,1.8425E2,1.2E1,3.275E1,3E0,8.55E1,1.375E1,5.5E0,1.95E1,3.05E1,2.45E1,3E1,1.3E1,3.125E1,5.175E1,8.95E1,2.9E1,8.25E0,5.1875E2,1.175E1,7.275E1],"tree_param":{"num_deleted":"0","num_feature":"6","num_nodes":"81","size_leaf_vector":"1"}},{"base_weights":[1.0324099E-2,-1.2432524E0,1.0438514E0,-1.4167278E0,4.8194814E-1,1.2944676E-1,1.4445753E0,1.7382696E0,-1.4883546E0,-4.7929823E-2,9.143856E-2,-2.23236E-1,1.6157255E0,7.747621E-1,1.5707238E0,4.580314E-2,9.320064E-2,8.458451E-2,-1.5474671E0,8.5823886E-2,-5.8807206E-1,9.2017375E-2,-3.9571208E-1,1.7815055E0,6.080146E-1,-8.733569E-2,1.2467116E0,1.6500446E0,8.570928E-1,8.336901E-2,-1.5730252E0,-7.0305996E-2,-9.042451E-2,-9.9324995E-1,3.001848E-2,4.2030815E-2,9.361347E-2,-4.102314E-2,1.2506728E0,-1.2033684E0,8.171509E-2,1.4733104E0,-6.618046E-2,1.3465183E0,1.8002214E0,-8.761608E-2,1.3384048E0,-8.580135E-2,-5.09171E-2,3.2734692E-2,-6.5121636E-2,7.788984E-2,-6.938454E-2,5.829413E-2,-1.9110415E-2,7.924741E-2,2.715282E-2,1.537953E-2,-8.305915E-2,1.3566754E-2,8.655139E-2,7.511249E-2,2.866863E-2,4.015648E-2,9.101155E-2,-8.746042E-2,8.2404524E-2],"categories":[],"categories_nodes":[],"categories_segments":[],"categories_sizes":[],"default_left":[0,0,0,0,0,0,0,0,0,0,0,0,0,0,0,0,0,0,0,0,0,0,0,0,0,0,0,0,0,0,0,0,0,0,0,0,0,0,0,0,0,0,0,0,0,0,0,0,0,0,0,0,0,0,0,0,0,0,0,0,0,0,0,0,0,0,0],"id":1,"left_children":[1,3,5,7,9,11,13,15,17,19,-1,21,23,25,27,-1,-1,-1,29,-1,31,-1,33,35,37,39,41,43,45,-1,47,49,-1,51,53,-1,-1,-1,55,57,-1,59,-1,61,63,-1,65,-1,-1,-1,-1,-1,-1,-1,-1,-1,-1,-1,-1,-1,-1,-1,-1,-1,-1,-1,-1],"loss_changes":[2.91397E3,3.0486035E2,4.5152222E2,2.1134009E2,6.689112E1,1.9783243E2,7.119849E1,4.602089E-1,1.7251257E2,6.596097E1,0E0,1.0940843E2,1.1006912E1,5.6175186E1,3.935498E1,0E0,0E0,0E0,7.5571045E1,0E0,3.331491E1,0E0,7.192586E1,3.6891327E0,1.1805509E1,9.743061E1,5.3853867E1,2.7072632E1,9.544461E1,0E0,6.81604E1,3.4975914E1,0E0,1.2050911E2,7.817585E1,0E0,0E0,0E0,1.1485977E0,2.1761108E1,0E0,2.5045792E1,0E0,2.5405823E1,7.115967E0,0E0,6.3266563E1,0E0,0E0,0E0,0E0,0E0,0E0,0E0,0E0,0E0,0E0,0E0,0E0,0E0,0E0,0E0,0E0,0E0,0E0,0E0,0E0],"parents":[2147483647,0,0,1,1,2,2,3,3,4,4,5,5,6,6,7,7,8,8,9,9,11,11,12,12,13,13,14,14,18,18,20,20,22,22,23,23,24,24,25,25,26,26,27,27,28,28,30,30,31,31,33,33,34,34,38,38,39,39,41,41,43,43,44,44,46,46],"right_children":[2,4,6,8,10,12,14,16,18,20,-1,22,24,26,28,-1,-1,-1,30,-1,32,-1,34,36,38,40,42,44,46,-1,48,50,-1,52,54,-1,-1,-1,56,58,-1,60,-1,62,64,-1,66,-1,-1,-1,-1,-1,-1,-1,-1,-1,-1,-1,-1,-1,-1,-1,-1,-1,-1,-1,-1],"split_conditions":[-2.7071726E-1,-4.5186315E-2,-2.1736392E-1,-4.5483324E-1,-4.0515415E-2,1.2269148E-1,-4.6838675E-2,-4.886194E-2,-4.932436E-2,-3.954591E-1,9.143856E-2,-2.3972642E-1,-2.2281125E-1,-1.8431294E-1,-1.33052515E-2,4.580314E-2,9.320064E-2,8.458451E-2,-5.0011426E-2,8.5823886E-2,-4.20724E-2,9.2017375E-2,-4.6229303E-2,-2.3150966E-1,-4.4426214E-2,-1.1947728E-1,7.000008E-1,-5.7244707E-2,-1.2655969E-2,8.336901E-2,-4.767561E-2,-3.144043E-1,-9.042451E-2,-4.8743844E-2,-4.5058247E-2,4.2030815E-2,9.361347E-2,-4.102314E-2,-4.4115357E-2,-4.8535112E-2,8.171509E-2,-2.2187638E-1,-6.618046E-2,-9.5117345E-2,-2.164525E-1,-8.761608E-2,-1.5211937E-1,-8.580135E-2,-5.09171E-2,3.2734692E-2,-6.5121636E-2,7.788984E-2,-6.938454E-2,5.829413E-2,-1.9110415E-2,7.924741E-2,2.715282E-2,1.537953E-2,-8.305915E-2,1.3566754E-2,8.655139E-2,7.511249E-2,2.866863E-2,4.015648E-2,9.101155E-2,-8.746042E-2,8.2404524E-2],"split_indices":[5,1,3,5,0,5,0,1,1,5,0,3,3,3,0,0,0,0,0,0,0,0,0,3,0,5,3,5,0,0,0,5,0,1,1,0,0,0,0,0,0,5,0,5,3,0,5,0,0,0,0,0,0,0,0,0,0,0,0,0,0,0,0,0,0,0,0],"split_type":[0,0,0,0,0,0,0,0,0,0,0,0,0,0,0,0,0,0,0,0,0,0,0,0,0,0,0,0,0,0,0,0,0,0,0,0,0,0,0,0,0,0,0,0,0,0,0,0,0,0,0,0,0,0,0,0,0,0,0,0,0,0,0,0,0,0,0],"sum_hessian":[2.2471165E3,1.01536554E3,1.2317509E3,9.227576E2,9.2607925E1,3.7572153E2,8.560293E2,1.9967474E1,9.0279016E2,6.715262E1,2.5455309E1,3.043511E2,7.137043E1,1.3680019E2,7.192291E2,3.7476468E0,1.6219828E1,1.5971324E1,8.8681885E2,1.5228845E1,5.1923775E1,2.2729902E1,2.8162122E2,6.0628475E1,1.0741952E1,4.8684475E1,8.811571E1,6.4610205E2,7.312704E1,6.4879594E0,8.803309E2,3.7199417E1,1.4724357E1,1.16613815E2,1.650074E2,6.2368374E0,5.439164E1,3.2473001E0,7.4946513E0,2.9719904E1,1.8964573E1,8.136903E1,6.746672E0,2.1716028E2,4.2894177E2,1.0976678E1,6.2150356E1,6.982284E2,1.8210248E2,2.371427E1,1.34851465E1,1.5221213E1,1.013926E2,4.3451458E1,1.2155594E2,4.2480493E0,3.2466023E0,6.9873066E0,2.2732597E1,1.4728626E1,6.66404E1,1.799672E2,3.7193092E1,9.24789E0,4.1969388E2,5.24168E0,5.6908676E1],"tree_param":{"num_deleted":"0","num_feature":"6","num_nodes":"67","size_leaf_vector":"1"}},{"base_weights":[-7.862455E-3,-1.176964E0,9.8912144E-1,-1.4789083E0,-4.159546E-1,1.2708448E-1,1.3652077E0,1.5708011E0,-1.5351056E0,8.706289E-2,-6.1962295E-1,-2.029281E-1,1.5505834E0,6.59002E-1,1.4970684E0,3.7778135E-2,8.734483E-2,7.014465E-2,-1.5682882E0,-8.131754E-1,9.0216E-2,9.06702E-2,-4.0788388E-1,1.7156374E0,6.068402E-1,-2.3222937E-1,1.1398817E0,1.5729631E0,8.435459E-1,1.073033E0,-1.5963978E0,7.6286644E-2,-9.2049325E-1,8.660616E-2,-5.635682E-1,4.1572824E-2,8.9525335E-2,6.1000403E-2,-3.4278713E-2,-1.1149836E0,8.625742E-2,1.3510548E0,-8.064889E-2,1.1867485E0,1.713089E0,-8.4660776E-2,1.3371259E0,1.7804177E-2,7.349074E-2,-8.178257E-2,-4.7342584E-2,-7.180389E-2,-2.55188E-2,-6.6069685E-2,-2.872922E-3,1.9896923E-2,-7.7980354E-2,-1.0634859E-3,8.345275E-2,6.873599E-2,1.6687773E-2,6.2213004E-2,8.806709E-2,-8.1500135E-2,7.931854E-2],"categories":[],"categories_nodes":[],"categories_segments":[],"categories_sizes":[],"default_left":[0,0,0,0,0,0,0,0,0,0,0,0,0,0,0,0,0,0,0,0,0,0,0,0,0,0,0,0,0,0,0,0,0,0,0,0,0,0,0,0,0,0,0,0,0,0,0,0,0,0,0,0,0,0,0,0,0,0,0,0,0,0,0,0,0],"id":2,"left_children":[1,3,5,7,9,11,13,15,17,-1,19,21,23,25,27,-1,-1,-1,29,31,-1,-1,33,35,37,39,41,43,45,47,49,-1,51,-1,53,-1,-1,-1,-1,55,-1,57,-1,59,61,-1,63,-1,-1,-1,-1,-1,-1,-1,-1,-1,-1,-1,-1,-1,-1,-1,-1,-1,-1],"loss_changes":[2.6336538E3,2.3835645E2,3.9520215E2,1.2995264E2,1.3148534E2,1.7485611E2,7.807263E1,6.8408585E-1,7.348694E1,0E0,1.2905292E2,1.25752045E2,9.869003E0,5.8279522E1,3.4118042E1,0E0,0E0,0E0,5.543225E1,6.478989E1,0E0,0E0,9.273274E1,2.4214172E0,1.0324985E1,8.533249E1,5.3391167E1,3.2555176E1,9.8065025E1,1.8140984E0,1.6715088E1,0E0,5.045285E1,0E0,9.868098E1,0E0,0E0,0E0,0E0,2.3408363E1,0E0,3.597838E1,0E0,2.7344574E1,8.366699E0,0E0,5.036683E1,0E0,0E0,0E0,0E0,0E0,0E0,0E0,0E0,0E0,0E0,0E0,0E0,0E0,0E0,0E0,0E0,0E0,0E0],"parents":[2147483647,0,0,1,1,2,2,3,3,4,4,5,5,6,6,7,7,8,8,10,10,11,11,12,12,13,13,14,14,18,18,19,19,22,22,23,23,24,24,25,25,26,26,27,27,28,28,29,29,30,30,32,32,34,34,39,39,41,41,43,43,44,44,46,46],"right_children":[2,4,6,8,10,12,14,16,18,-1,20,22,24,26,28,-1,-1,-1,30,32,-1,-1,34,36,38,40,42,44,46,48,50,-1,52,-1,54,-1,-1,-1,-1,56,-1,58,-1,60,62,-1,64,-1,-1,-1,-1,-1,-1,-1,-1,-1,-1,-1,-1,-1,-1,-1,-1,-1,-1],"split_conditions":[-2.7071726E-1,-4.771815E-2,-2.1736392E-1,-4.5483324E-1,-4.29244E-1,1.2269148E-1,-4.6838675E-2,-4.8445154E-2,-5.0011426E-2,8.706289E-2,1.741907E-1,-4.7825847E-2,-2.2281125E-1,-1.8431294E-1,-1.33052515E-2,3.7778135E-2,8.734483E-2,7.014465E-2,-4.858124E-2,-4.798674E-2,9.0216E-2,9.06702E-2,-2.3972642E-1,-2.3150966E-1,1.0183045E0,2.9040942E-2,-3.9748088E-2,-4.3706372E-2,-1.2655969E-2,-4.878929E-2,-2.8856095E-2,7.6286644E-2,-4.638936E-2,8.660616E-2,-4.6229303E-2,4.1572824E-2,8.9525335E-2,6.1000403E-2,-3.4278713E-2,-4.8535112E-2,8.625742E-2,-2.2187638E-1,-8.064889E-2,-4.4136327E-2,-2.0768394E-1,-8.4660776E-2,-1.5211937E-1,1.7804177E-2,7.349074E-2,-8.178257E-2,-4.7342584E-2,-7.180389E-2,-2.55188E-2,-6.6069685E-2,-2.872922E-3,1.9896923E-2,-7.7980354E-2,-1.0634859E-3,8.345275E-2,6.873599E-2,1.6687773E-2,6.2213004E-2,8.806709E-2,-8.1500135E-2,7.931854E-2],"split_indices":[5,0,3,5,5,5,0,2,0,0,3,2,3,3,0,0,0,0,2,2,0,0,3,3,5,5,2,2,0,0,3,0,2,0,0,0,0,0,0,0,0,5,0,2,3,0,5,0,0,0,0,0,0,0,0,0,0,0,0,0,0,0,0,0,0],"split_type":[0,0,0,0,0,0,0,0,0,0,0,0,0,0,0,0,0,0,0,0,0,0,0,0,0,0,0,0,0,0,0,0,0,0,0,0,0,0,0,0,0,0,0,0,0,0,0,0,0,0,0,0,0,0,0,0,0,0,0,0,0,0,0,0,0],"sum_hessian":[2.2575322E3,1.038991E3,1.2185413E3,7.431782E2,2.9581274E2,3.7054456E2,8.4799664E2,1.2959179E1,7.3021906E2,2.486788E1,2.7094485E2,3.0150378E2,6.904077E1,1.3436678E2,7.136299E2,3.2418048E0,9.717374E0,7.6941967E0,7.2252484E2,2.5152504E2,1.9419811E1,2.7095314E1,2.7440848E2,5.8067307E1,1.0973469E1,4.7272335E1,8.709444E1,6.381173E2,7.551258E1,7.216875E0,7.15308E2,1.0454764E1,2.4107028E2,1.7922552E1,2.5648593E2,5.478103E0,5.2589203E1,7.4804826E0,3.4929857E0,3.287601E1,1.4396324E1,8.136231E1,5.732123E0,1.7240486E2,4.6571246E2,1.1903564E1,6.3609016E1,3.247094E0,3.9697812E0,6.7311194E2,4.2196E1,1.0569399E2,1.3537628E2,1.0205802E2,1.544279E2,7.4910803E0,2.5384932E1,1.5482213E1,6.58801E1,1.4077182E2,3.1633041E1,4.5958786E1,4.1975366E2,4.499932E0,5.9109085E1],"tree_param":{"num_deleted":"0","num_feature":"6","num_nodes":"65","size_leaf_vector":"1"}},{"base_weights":[-1.9294219E-3,-9.147119E-1,1.0431347E0,-1.0980146E0,6.1801803E-1,4.5046583E-1,1.3401198E0,8.071264E-1,-1.1864392E0,5.8600976E-4,8.7652445E-2,-2.4796787E-1,9.165535E-1,1.7161769E0,1.2105067E0,2.2743282E-1,8.9271896E-2,-1.4584266E0,-6.1878705E-1,8.023838E-1,-1.1564585E0,8.119554E-2,-5.853047E-1,6.5278924E-1,1.6642146E0,-1.7732153E-2,8.801971E-2,8.4485984E-1,1.4670641E0,7.4910283E-1,-7.707542E-2,-1.4939622E0,7.79164E-2,-7.5271183E-1,1.4610304E0,3.6957106E-1,8.557119E-2,-8.2249835E-2,4.7054034E-2,1.295015E0,-8.264549E-1,9.013324E-2,3.8571885E-1,8.734649E-2,4.104767E-2,1.1405467E0,-1.0430552E0,1.53566E0,7.7119714E-1,-3.5882294E-2,8.107371E-2,7.26627E-2,-7.621624E-2,4.770961E-2,-4.5581296E-2,8.158988E-2,4.4928215E-2,7.595464E-2,-5.8627844E-2,7.6242894E-2,2.6412169E-2,7.760438E-2,-5.2066553E-2,-8.006397E-2,2.5692133E-2,5.120562E-3,7.197742E-2,7.445304E-2,-8.035871E-2,5.8832217E-2,8.6280935E-2,-6.875242E-2,5.958735E-2],"categories":[],"categories_nodes":[],"categories_segments":[],"categories_sizes":[],"default_left":[0,0,0,0,0,0,0,0,0,0,0,0,0,0,0,0,0,0,0,0,0,0,0,0,0,0,0,0,0,0,0,0,0,0,0,0,0,0,0,0,0,0,0,0,0,0,0,0,0,0,0,0,0,0,0,0,0,0,0,0,0,0,0,0,0,0,0,0,0,0,0,0,0],"id":3,"left_children":[1,3,5,7,9,11,13,15,17,19,-1,21,23,25,27,29,-1,31,33,35,37,-1,39,41,43,-1,-1,45,47,49,-1,51,-1,53,55,57,-1,-1,-1,59,61,-1,63,-1,-1,65,67,69,71,-1,-1,-1,-1,-1,-1,-1,-1,-1,-1,-1,-1,-1,-1,-1,-1,-1,-1,-1,-1,-1,-1,-1,-1],"loss_changes":[2.121892E3,3.3426727E2,1.8193262E2,1.7967407E2,8.933008E1,1.1341368E2,3.1572021E1,2.6617382E1,1.5568811E2,7.844728E1,0E0,8.9322014E1,4.0080048E1,1.6607971E1,4.724115E1,2.9823296E1,0E0,7.575586E1,9.309526E1,1.9018875E1,3.7016304E1,0E0,5.5172337E1,4.719815E1,2.3179321E0,0E0,0E0,1.2146245E2,1.3247864E1,3.272313E1,0E0,6.2839966E1,0E0,8.5217514E1,4.85569E-1,6.402482E1,0E0,0E0,0E0,1.6534042E0,5.5977303E1,0E0,3.3366623E1,0E0,0E0,5.7822388E1,4.481333E1,1.6669983E1,2.7939293E1,0E0,0E0,0E0,0E0,0E0,0E0,0E0,0E0,0E0,0E0,0E0,0E0,0E0,0E0,0E0,0E0,0E0,0E0,0E0,0E0,0E0,0E0,0E0,0E0],"parents":[2147483647,0,0,1,1,2,2,3,3,4,4,5,5,6,6,7,7,8,8,9,9,11,11,12,12,13,13,14,14,15,15,17,17,18,18,19,19,20,20,22,22,23,23,24,24,27,27,28,28,29,29,31,31,33,33,34,34,35,35,39,39,40,40,42,42,45,45,46,46,47,47,48,48],"right_children":[2,4,6,8,10,12,14,16,18,20,-1,22,24,26,28,30,-1,32,34,36,38,-1,40,42,44,-1,-1,46,48,50,-1,52,-1,54,56,58,-1,-1,-1,60,62,-1,64,-1,-1,66,68,70,72,-1,-1,-1,-1,-1,-1,-1,-1,-1,-1,-1,-1,-1,-1,-1,-1,-1,-1,-1,-1,-1,-1,-1,-1],"split_conditions":[-4.614433E-2,5.8477204E-3,-2.120938E-1,-4.9076416E-2,-4.731789E-2,-4.3985505E-2,-1.3602653E-1,-4.9621142E-2,-4.738054E-2,2.1117072E-1,8.7652445E-2,-4.6419933E-2,-3.2966446E-2,-4.6568498E-2,-5.0097816E-2,-4.9686655E-2,8.9271896E-2,1.741907E-1,-4.5201108E-2,-4.8345327E-2,1.1621054E0,8.119554E-2,-4.5977723E-2,-1.7351261E-1,-2.1835917E-1,-1.7732153E-2,8.801971E-2,-5.3183123E-2,-4.3511085E-4,-2.4013612E-1,-7.707542E-2,-4.9891934E-2,7.79164E-2,-2.3972642E-1,-4.4485815E-2,-4.916402E-2,8.557119E-2,-8.2249835E-2,4.7054034E-2,-2.2672601E-1,-1.7351261E-1,9.013324E-2,-4.483023E-2,8.734649E-2,4.104767E-2,-4.4239677E-2,-4.238657E-2,-4.3146227E-2,1.3247115E-2,-3.5882294E-2,8.107371E-2,7.26627E-2,-7.621624E-2,4.770961E-2,-4.5581296E-2,8.158988E-2,4.4928215E-2,7.595464E-2,-5.8627844E-2,7.6242894E-2,2.6412169E-2,7.760438E-2,-5.2066553E-2,-8.006397E-2,2.5692133E-2,5.120562E-3,7.197742E-2,7.445304E-2,-8.035871E-2,5.8832217E-2,8.6280935E-2,-6.875242E-2,5.958735E-2],"split_indices":[0,4,3,1,1,1,4,0,1,3,0,1,0,1,4,0,0,3,1,0,4,0,0,4,3,0,0,4,1,3,0,0,0,3,1,0,0,0,0,3,4,0,0,0,0,0,1,0,0,0,0,0,0,0,0,0,0,0,0,0,0,0,0,0,0,0,0,0,0,0,0,0,0],"split_type":[0,0,0,0,0,0,0,0,0,0,0,0,0,0,0,0,0,0,0,0,0,0,0,0,0,0,0,0,0,0,0,0,0,0,0,0,0,0,0,0,0,0,0,0,0,0,0,0,0,0,0,0,0,0,0,0,0,0,0,0,0,0,0,0,0,0,0,0,0,0,0,0,0],"sum_hessian":[2.2224011E3,1.1863452E3,1.0360559E3,1.0598759E3,1.2646937E2,3.4669742E2,6.8935846E2,4.6650246E1,1.0132255E3,8.255939E1,4.3909985E1,1.3894937E2,2.0774805E2,1.7355855E2,5.1579987E2,3.0066792E1,1.6583454E1,6.839469E2,3.2927866E2,4.8947044E1,3.361234E1,2.0634548E1,1.1831483E2,1.5495517E2,5.2792885E1,3.4816647E0,1.7007687E2,2.1445322E2,3.0134668E2,2.3664526E1,6.402267E0,6.764831E2,7.463804E0,3.0995776E2,1.9320892E1,3.4112118E1,1.483493E1,2.7437593E1,6.1747446E0,1.2952238E1,1.0536259E2,2.8122696E1,1.26832466E2,4.710112E1,5.6917653E0,1.8575586E2,2.8697369E1,2.7320807E2,2.8138592E1,8.891796E0,1.4772729E1,6.4202685E0,6.700628E2,2.5973263E1,2.839845E2,1.3362752E1,5.9581394E0,1.9552425E1,1.45596895E1,9.204484E0,3.7477539E0,8.214136E0,9.714845E1,6.9864073E0,1.1984606E2,4.1837692E1,1.4391817E2,4.929789E0,2.376758E1,9.702615E1,1.7618193E2,4.238429E0,2.3900162E1],"tree_param":{"num_deleted":"0","num_feature":"6","num_nodes":"73","size_leaf_vector":"1"}},{"base_weights":[1.0523062E-2,-1.0841558E0,9.249133E-1,-1.2387648E0,4.3612602E-1,3.7260085E-1,1.3390934E0,7.198605E-1,-1.3363678E0,-2.4783678E-2,8.28935E-2,1.01317085E-1,1.2400421E0,1.1648171E0,1.5752802E0,3.5127897E-2,7.497609E-2,8.566597E-2,-1.380524E0,8.1483796E-2,-6.0380745E-1,8.606348E-2,-1.1327638E-2,-5.640787E-2,1.373508E0,1.2661464E0,-1.494149E0,-4.5167932E-1,1.6318151E0,1.1007788E0,-1.2629032E0,8.460745E-2,-1.4040456E0,-8.829696E-2,-8.6798556E-2,-7.627307E-1,2.5128484E-1,8.7600124E-1,8.252384E-2,1.3559579E0,-1.0318795E0,-8.77369E-2,-3.275956E-2,5.5453766E-2,-7.815139E-2,8.339147E-2,6.809894E-1,4.5610755E-3,7.816654E-2,-7.4936375E-2,-3.7590157E-2,-7.660416E-2,-4.601342E-2,2.2752633E-2,-5.478393E-2,-5.410972E-2,7.4607424E-2,2.057459E-2,-7.8377426E-2,6.439217E-2,-3.399102E-2,7.34115E-2,2.0322915E-2,-7.761853E-2,1.3549076E-2,7.358688E-2,-9.1942735E-3],"categories":[],"categories_nodes":[],"categories_segments":[],"categories_sizes":[],"default_left":[0,0,0,0,0,0,0,0,0,0,0,0,0,0,0,0,0,0,0,0,0,0,0,0,0,0,0,0,0,0,0,0,0,0,0,0,0,0,0,0,0,0,0,0,0,0,0,0,0,0,0,0,0,0,0,0,0,0,0,0,0,0,0,0,0,0,0],"id":4,"left_children":[1,3,5,7,9,11,13,15,17,19,-1,21,23,25,27,29,-1,-1,31,-1,33,-1,35,-1,37,39,41,43,45,47,49,-1,51,53,-1,55,57,59,-1,61,63,-1,-1,-1,-1,-1,65,-1,-1,-1,-1,-1,-1,-1,-1,-1,-1,-1,-1,-1,-1,-1,-1,-1,-1,-1,-1],"loss_changes":[2.2203062E3,2.3783716E2,2.7597754E2,1.7619202E2,5.2935585E1,1.2208218E2,2.6578491E1,2.3522352E1,1.19989136E2,6.726387E1,0E0,7.240695E1,4.0626114E1,1.0994403E2,3.3997437E1,3.5328312E1,0E0,0E0,6.4644165E1,0E0,3.0184834E1,0E0,7.3576256E1,0E0,1.4743027E1,8.124225E1,2.169159E0,1.6752815E1,8.541016E0,6.398695E0,2.6262283E-1,0E0,5.158484E1,2.062557E1,0E0,7.117293E1,8.116489E1,2.916259E1,0E0,3.9138123E1,1.0672829E1,0E0,0E0,0E0,0E0,0E0,8.479458E0,0E0,0E0,0E0,0E0,0E0,0E0,0E0,0E0,0E0,0E0,0E0,0E0,0E0,0E0,0E0,0E0,0E0,0E0,0E0,0E0],"parents":[2147483647,0,0,1,1,2,2,3,3,4,4,5,5,6,6,7,7,8,8,9,9,11,11,12,12,13,13,14,14,15,15,18,18,20,20,22,22,24,24,25,25,26,26,27,27,28,28,29,29,30,30,32,32,33,33,35,35,36,36,37,37,39,39,40,40,46,46],"right_children":[2,4,6,8,10,12,14,16,18,20,-1,22,24,26,28,30,-1,-1,32,-1,34,-1,36,-1,38,40,42,44,46,48,50,-1,52,54,-1,56,58,60,-1,62,64,-1,-1,-1,-1,-1,66,-1,-1,-1,-1,-1,-1,-1,-1,-1,-1,-1,-1,-1,-1,-1,-1,-1,-1,-1,-1],"split_conditions":[-2.7071726E-1,-4.5186315E-2,-4.4426214E-2,-4.8373107E-2,-4.0515415E-2,-4.2604588E-2,-3.753352E-2,-4.8534982E-2,-4.9267977E-2,-3.954591E-1,8.28935E-2,-4.7838748E-2,-4.833414E-2,-3.7697386E-2,-1.442533E-1,-4.858124E-2,7.497609E-2,8.566597E-2,-4.5483324E-1,8.1483796E-2,-4.20724E-2,8.606348E-2,-4.6146248E-2,-5.640787E-2,-4.1726884E-2,-2.2040144E-2,-3.769411E-2,-2.716905E-2,1.3259229E-1,-4.9686655E-2,-4.889156E-2,8.460745E-2,-4.767561E-2,-3.144043E-1,-8.6798556E-2,-1.7072275E-1,-4.2788528E-2,-4.4974692E-2,8.252384E-2,-3.8871914E-2,-1.9120187E-2,-8.77369E-2,-3.275956E-2,5.5453766E-2,-7.815139E-2,8.339147E-2,1.0183045E0,4.5610755E-3,7.816654E-2,-7.4936375E-2,-3.7590157E-2,-7.660416E-2,-4.601342E-2,2.2752633E-2,-5.478393E-2,-5.410972E-2,7.4607424E-2,2.057459E-2,-7.8377426E-2,6.439217E-2,-3.399102E-2,7.34115E-2,2.0322915E-2,-7.761853E-2,1.3549076E-2,7.358688E-2,-9.1942735E-3],"split_indices":[5,1,0,2,0,2,2,1,1,5,0,2,1,2,5,2,0,0,5,0,0,0,2,0,2,1,2,0,1,0,1,0,0,5,0,5,2,0,0,2,1,0,0,0,0,0,5,0,0,0,0,0,0,0,0,0,0,0,0,0,0,0,0,0,0,0,0],"split_type":[0,0,0,0,0,0,0,0,0,0,0,0,0,0,0,0,0,0,0,0,0,0,0,0,0,0,0,0,0,0,0,0,0,0,0,0,0,0,0,0,0,0,0,0,0,0,0,0,0,0,0,0,0,0,0,0,0,0,0,0,0,0,0,0,0,0,0],"sum_hessian":[2.2161667E3,1.0085624E3,1.2076045E3,9.156302E2,9.29322E1,5.183201E2,6.8928436E2,4.315961E1,8.724706E2,6.818771E1,2.4744482E1,3.9568903E2,1.2263108E2,4.0003806E2,2.892463E2,2.3535107E1,1.9624504E1,1.1912634E1,8.605579E2,1.7207048E1,5.0980667E1,2.4797256E1,3.7089175E2,6.1448593E0,1.1648622E2,3.858574E2,1.41806555E1,7.658942E0,2.8158737E2,1.3007905E1,1.0527202E1,5.998667E0,8.5455927E2,3.577098E1,1.5209686E1,9.556134E1,2.753304E2,4.314663E1,7.33396E1,3.7173904E2,1.411834E1,9.987017E0,4.193639E0,3.1862643E0,4.472678E0,2.7058438E2,1.1002994E1,4.4633937E0,8.544512E0,5.8812194E0,4.6459823E0,6.7400793E2,1.8055135E2,2.3593616E1,1.2177364E1,8.4158165E1,1.1403177E1,2.5375305E2,2.157738E1,3.4252007E1,8.894622E0,3.3194266E2,3.97964E1,9.951301E0,4.1670384E0,5.381267E0,5.6217265E0],"tree_param":{"num_deleted":"0","num_feature":"6","num_nodes":"67","size_leaf_vector":"1"}},{"base_weights":[1.4284854E-2,-1.033669E0,8.8979906E-1,1.717769E-1,-1.2531971E0,1.1057176E-1,1.2417825E0,-6.8163556E-1,1.3437748E0,7.1929984E-2,-1.2945535E0,1.5762492E0,-2.2836867E-1,6.480341E-1,1.3552557E0,8.368601E-2,-9.7745353E-1,8.201082E-2,-9.707735E-2,-1.390618E0,-6.8010196E-2,1.1219157E0,9.044199E-2,-7.360172E-1,1.430095E0,2.5459272E-1,1.4585497E0,1.4174982E0,8.1873983E-1,-1.1940627E0,7.9406165E-2,-9.56207E-1,7.873578E-2,7.2038226E-2,-1.4130259E0,-7.024984E-1,8.31536E-2,8.260665E-2,-6.758017E-2,-1.5076445E0,-1.9389875E-1,1.5565691E0,5.81115E-1,-8.675625E-1,8.8163024E-1,8.335617E-2,1.1583687E0,1.123951E0,1.5584779E0,-7.614089E-2,1.2727336E0,-3.2560807E-2,-7.7162586E-2,-5.1146126E-3,-7.208144E-2,-7.152035E-2,6.085359E-2,3.83438E-2,-6.1805822E-2,-7.720507E-2,-2.8388366E-2,-7.5592E-2,1.6216855E-2,4.1752826E-2,8.1074804E-2,6.252309E-2,-2.772299E-2,3.522076E-2,-7.1546786E-2,5.6854825E-2,-6.609534E-2,2.0625368E-2,7.992398E-2,8.019514E-2,3.659147E-2,2.6053453E-2,7.899927E-2,-7.1997054E-2,7.341509E-2],"categories":[],"categories_nodes":[],"categories_segments":[],"categories_sizes":[],"default_left":[0,0,0,0,0,0,0,0,0,0,0,0,0,0,0,0,0,0,0,0,0,0,0,0,0,0,0,0,0,0,0,0,0,0,0,0,0,0,0,0,0,0,0,0,0,0,0,0,0,0,0,0,0,0,0,0,0,0,0,0,0,0,0,0,0,0,0,0,0,0,0,0,0,0,0,0,0,0,0],"id":5,"left_children":[1,3,5,7,9,11,13,15,17,-1,19,21,23,25,27,-1,29,-1,31,33,35,37,-1,39,41,43,45,47,49,51,-1,53,-1,-1,55,57,-1,-1,-1,59,61,63,65,67,69,-1,71,73,75,-1,77,-1,-1,-1,-1,-1,-1,-1,-1,-1,-1,-1,-1,-1,-1,-1,-1,-1,-1,-1,-1,-1,-1,-1,-1,-1,-1,-1,-1],"loss_changes":[2.0107871E3,2.6420032E2,3.2735504E2,1.5550864E2,9.581958E1,1.854728E2,5.453076E1,6.441402E1,2.8119812E1,0E0,9.79093E1,5.3796997E0,2.565865E2,4.2318504E1,2.1865845E1,0E0,4.673147E1,0E0,1.8905117E1,5.0970825E1,6.8677666E1,3.68216E1,0E0,9.7192825E1,6.769623E0,6.5030556E1,7.946472E-1,2.3760986E1,8.065288E1,1.3205605E1,0E0,3.4273143E0,0E0,0E0,3.6746094E1,3.6766106E1,0E0,0E0,0E0,2.4133606E0,9.476226E1,1.5320587E0,8.949816E0,3.0449879E1,3.4766216E1,0E0,6.2752266E0,3.714389E1,8.411377E0,0E0,3.5306175E1,0E0,0E0,0E0,0E0,0E0,0E0,0E0,0E0,0E0,0E0,0E0,0E0,0E0,0E0,0E0,0E0,0E0,0E0,0E0,0E0,0E0,0E0,0E0,0E0,0E0,0E0,0E0,0E0],"parents":[2147483647,0,0,1,1,2,2,3,3,4,4,5,5,6,6,7,7,8,8,10,10,11,11,12,12,13,13,14,14,16,16,18,18,19,19,20,20,21,21,23,23,24,24,25,25,26,26,27,27,28,28,29,29,31,31,34,34,35,35,39,39,40,40,41,41,42,42,43,43,44,44,46,46,47,47,48,48,50,50],"right_children":[2,4,6,8,10,12,14,16,18,-1,20,22,24,26,28,-1,30,-1,32,34,36,38,-1,40,42,44,46,48,50,52,-1,54,-1,-1,56,58,-1,-1,-1,60,62,64,66,68,70,-1,72,74,76,-1,78,-1,-1,-1,-1,-1,-1,-1,-1,-1,-1,-1,-1,-1,-1,-1,-1,-1,-1,-1,-1,-1,-1,-1,-1,-1,-1,-1,-1],"split_conditions":[-2.7071726E-1,-1.7848007E-1,-2.1736392E-1,-4.7099512E-2,-4.3319124E-1,-1.5450624E-1,-4.6838675E-2,-4.5483324E-1,-1.4637102E-1,7.1929984E-2,2.3911921E-2,-2.38382E-1,1.2269148E-1,2.9040942E-2,-1.33052515E-2,8.368601E-2,1.741907E-1,8.201082E-2,-3.4238544E-1,-5.0011426E-2,-4.771815E-2,-2.3944566E-1,9.044199E-2,-1.8461965E-1,-2.2281125E-1,-1.8431294E-1,1.9121021E-1,-7.52018E-2,-1.2655969E-2,-1.9078763E-1,7.9406165E-2,-2.3584029E-1,7.873578E-2,7.2038226E-2,1.741907E-1,-4.916402E-2,8.31536E-2,8.260665E-2,-6.758017E-2,-1.337608E-1,-1.5154423E-1,-4.3146227E-2,1.0183045E0,-4.8535112E-2,5.4924625E-1,8.335617E-2,2.2610262E-1,-1.3991818E-1,-2.164525E-1,-7.614089E-2,-1.5211937E-1,-3.2560807E-2,-7.7162586E-2,-5.1146126E-3,-7.208144E-2,-7.152035E-2,6.085359E-2,3.83438E-2,-6.1805822E-2,-7.720507E-2,-2.8388366E-2,-7.5592E-2,1.6216855E-2,4.1752826E-2,8.1074804E-2,6.252309E-2,-2.772299E-2,3.522076E-2,-7.1546786E-2,5.6854825E-2,-6.609534E-2,2.0625368E-2,7.992398E-2,8.019514E-2,3.659147E-2,2.6053453E-2,7.899927E-2,-7.1997054E-2,7.341509E-2],"split_indices":[5,4,3,0,5,4,0,5,3,0,4,3,5,5,0,0,3,0,5,0,0,3,0,5,3,3,5,5,0,3,0,4,0,0,3,0,0,0,0,4,4,0,5,0,3,0,5,4,3,0,5,0,0,0,0,0,0,0,0,0,0,0,0,0,0,0,0,0,0,0,0,0,0,0,0,0,0,0,0],"split_type":[0,0,0,0,0,0,0,0,0,0,0,0,0,0,0,0,0,0,0,0,0,0,0,0,0,0,0,0,0,0,0,0,0,0,0,0,0,0,0,0,0,0,0,0,0,0,0,0,0,0,0,0,0,0,0,0,0,0,0,0,0,0,0,0,0,0,0,0,0,0,0,0,0,0,0,0,0,0,0],"sum_hessian":[2.1895947E3,9.965661E2,1.1930286E3,1.5356213E2,8.4300397E2,3.7162735E2,8.214012E2,8.910039E1,6.446174E1,1.2244605E1,8.307594E2,6.9112816E1,3.0251453E2,1.3286998E2,6.885312E2,9.42209E0,7.96783E1,5.334761E1,1.1114128E1,7.702951E2,6.046428E1,2.5373241E1,4.373958E1,2.320433E2,7.0471245E1,9.0334045E1,4.2535934E1,6.154852E2,7.304595E1,7.396785E1,5.7104506E0,7.62414E0,3.4899886E0,5.551319E0,7.647438E2,4.468149E1,1.5782784E1,2.1167831E1,4.205411E0,9.5017944E1,1.3702534E2,6.060878E1,9.862462E0,3.2244766E1,5.8089275E1,2.2410677E1,2.0125256E1,2.0260149E2,4.1288376E2,1.1480233E1,6.156572E1,3.0076334E1,4.3891518E1,3.2020614E0,4.4220786E0,7.601763E2,4.5675306E0,1.178716E1,3.2894333E1,9.085106E1,4.166891E0,3.8132404E1,9.8892944E1,6.148124E0,5.4460655E1,6.1413617E0,3.7211006E0,8.44114E0,2.3803625E1,5.248806E1,5.601217E0,8.187344E0,1.1937912E1,8.970878E1,1.12892715E2,8.898459E0,4.039853E2,3.7121804E0,5.785354E1],"tree_param":{"num_deleted":"0","num_feature":"6","num_nodes":"79","size_leaf_vector":"1"}},{"base_weights":[-6.451966E-3,-8.837051E-1,8.362985E-1,9.318898E-1,-1.0070219E0,3.7771242E-3,1.1788322E0,2.450278E-1,7.768438E-2,-1.1023748E0,9.607686E-1,-3.2247546E-1,7.694337E-2,7.963597E-1,1.3030038E0,-6.3488257E-1,7.054004E-2,-1.2234331E0,-4.9219814E-1,1.4366363E0,-7.266552E-1,7.8800425E-2,-4.7051537E-1,8.122142E-2,2.9932415E-1,1.3819124E0,7.960094E-1,5.878746E-2,-1.3018998E0,5.816097E-2,-1.2480761E0,-6.203123E-1,7.9264894E-2,7.8033015E-2,2.3172949E-2,-8.387224E-2,6.3486435E-2,-7.9284394E-1,1.3975014E-1,-9.98493E-1,1.0206057E0,5.3529984E-1,1.4212446E0,-7.418311E-2,1.2070991E0,-1.967497E-2,-7.585781E-2,-6.441255E-2,1.6042533E-3,6.779961E-2,-3.7780166E-2,-2.5616696E-2,-7.756429E-2,5.1790286E-2,-5.515725E-2,-1.712859E-2,-6.512417E-2,-2.75053E-2,7.5154394E-2,7.871456E-2,-4.4949822E-2,6.481128E-2,7.9339415E-2,7.5809084E-2,-1.5895533E-3],"categories":[],"categories_nodes":[],"categories_segments":[],"categories_sizes":[],"default_left":[0,0,0,0,0,0,0,0,0,0,0,0,0,0,0,0,0,0,0,0,0,0,0,0,0,0,0,0,0,0,0,0,0,0,0,0,0,0,0,0,0,0,0,0,0,0,0,0,0,0,0,0,0,0,0,0,0,0,0,0,0,0,0,0,0],"id":6,"left_children":[1,3,5,7,9,11,13,15,-1,17,19,21,-1,23,25,27,-1,29,31,33,35,-1,37,-1,39,41,43,-1,45,-1,47,49,-1,-1,-1,-1,-1,51,53,55,57,59,61,-1,63,-1,-1,-1,-1,-1,-1,-1,-1,-1,-1,-1,-1,-1,-1,-1,-1,-1,-1,-1,-1],"loss_changes":[1.6086099E3,2.3962964E2,3.164583E2,2.879977E1,1.8846265E2,1.6301427E2,3.630298E1,3.541384E1,0E0,6.979846E1,3.853932E1,7.618933E1,0E0,7.988315E1,2.2582703E1,2.5523575E1,0E0,4.8186523E1,4.3424095E1,3.7134094E0,2.288741E1,0E0,4.9247883E1,0E0,1.16394325E2,1.6251465E1,7.871701E1,0E0,2.3346176E0,0E0,4.0515747E1,4.1375492E1,0E0,0E0,0E0,0E0,0E0,3.4013847E1,9.824347E1,8.433758E0,6.123987E1,3.760638E1,8.034851E0,0E0,2.6889214E1,0E0,0E0,0E0,0E0,0E0,0E0,0E0,0E0,0E0,0E0,0E0,0E0,0E0,0E0,0E0,0E0,0E0,0E0,0E0,0E0],"parents":[2147483647,0,0,1,1,2,2,3,3,4,4,5,5,6,6,7,7,9,9,10,10,11,11,13,13,14,14,15,15,17,17,18,18,19,19,20,20,22,22,24,24,25,25,26,26,28,28,30,30,31,31,37,37,38,38,39,39,40,40,41,41,42,42,44,44],"right_children":[2,4,6,8,10,12,14,16,-1,18,20,22,-1,24,26,28,-1,30,32,34,36,-1,38,-1,40,42,44,-1,46,-1,48,50,-1,-1,-1,-1,-1,52,54,56,58,60,62,-1,64,-1,-1,-1,-1,-1,-1,-1,-1,-1,-1,-1,-1,-1,-1,-1,-1,-1,-1,-1,-1],"split_conditions":[-4.5658614E-2,-4.8373107E-2,-2.1736392E-1,-4.9099516E-2,-4.40515E-2,-3.769411E-2,-4.3637026E-2,-1.5540238E-1,7.768438E-2,-4.746769E-2,-1.590919E-1,-1.7580421E-1,7.694337E-2,-1.379108E-1,-1.33052515E-2,-1.9166976E-1,7.054004E-2,-4.9891934E-2,1.0248218E-1,-1.6766728E-1,-4.638936E-2,7.8800425E-2,-4.192843E-2,8.122142E-2,-7.331917E-2,-4.790647E-2,-1.2655969E-2,5.878746E-2,-4.858124E-2,5.816097E-2,-4.5913346E-2,-4.731754E-2,7.9264894E-2,7.8033015E-2,2.3172949E-2,-8.387224E-2,6.3486435E-2,-4.280143E-2,-3.9284464E-2,-4.720197E-2,-4.529238E-2,-4.8256855E-2,-2.8856095E-2,-7.418311E-2,3.7329656E-1,-1.967497E-2,-7.585781E-2,-6.441255E-2,1.6042533E-3,6.779961E-2,-3.7780166E-2,-2.5616696E-2,-7.756429E-2,5.1790286E-2,-5.515725E-2,-1.712859E-2,-6.512417E-2,-2.75053E-2,7.5154394E-2,7.871456E-2,-4.4949822E-2,6.481128E-2,7.9339415E-2,7.5809084E-2,-1.5895533E-3],"split_indices":[2,2,3,0,0,2,2,4,0,0,4,4,0,4,0,4,0,0,3,4,2,0,2,0,4,0,0,0,2,0,2,0,0,0,0,0,0,2,2,0,2,0,3,0,4,0,0,0,0,0,0,0,0,0,0,0,0,0,0,0,0,0,0,0,0],"split_type":[0,0,0,0,0,0,0,0,0,0,0,0,0,0,0,0,0,0,0,0,0,0,0,0,0,0,0,0,0,0,0,0,0,0,0,0,0,0,0,0,0,0,0,0,0,0,0,0,0,0,0,0,0,0,0,0,0,0,0,0,0,0,0,0,0],"sum_hessian":[2.1738396E3,1.0650928E3,1.1087468E3,6.732403E1,9.977688E2,3.2349924E2,7.852476E2,3.2650776E1,3.467325E1,9.520741E2,4.5694675E1,2.6744836E2,5.6050846E1,1.9427058E2,5.9097705E2,1.8866205E1,1.378457E1,7.936164E2,1.5845769E2,3.5758965E1,9.935708E0,1.864873E1,2.4879965E2,7.2018486E1,1.2225209E2,5.0989185E2,8.108518E1,4.8737135E0,1.3992492E1,7.638425E0,7.8597797E2,1.4991425E2,8.543434E0,3.1181454E1,4.5775123E0,6.8385615E0,3.0971463E0,1.626123E2,8.618735E1,4.3534756E1,7.871734E1,2.328572E1,4.8660614E2,1.1989435E1,6.909574E1,3.2222736E0,1.0770218E1,7.6205634E2,2.3921652E1,9.026993E0,1.4088725E2,1.19931206E2,4.2681087E1,5.017831E1,3.600904E1,1.44604025E1,2.9074352E1,1.8464933E1,6.0252407E1,1.3447133E1,9.838588E0,2.8226715E2,2.0433897E2,5.512032E1,1.3975424E1],"tree_param":{"num_deleted":"0","num_feature":"6","num_nodes":"65","size_leaf_vector":"1"}},{"base_weights":[-3.7441094E-4,-9.833889E-1,8.279415E-1,7.7874035E-2,-1.0546719E0,5.999023E-2,1.1689104E0,-1.2874818E0,-4.6937996E-1,-2.2340243E-1,1.3244375E0,8.444751E-1,1.355436E0,5.9659716E-2,-1.3170065E0,-6.178058E-1,8.035755E-2,7.844321E-2,-3.7971988E-1,1.4767282E0,3.826064E-1,4.1721076E-1,1.2598019E0,1.4317732E0,7.208137E-1,3.7468154E-2,-1.3388647E0,1.2268268E0,-7.3797137E-1,7.7032946E-2,-5.266398E-1,3.9998237E-2,7.6856256E-2,4.576957E-2,-3.145923E-2,-2.9782357E-2,1.1207324E0,1.5347407E0,3.86219E-1,6.3156796E-1,1.4772179E0,-7.1592584E-2,1.2620218E0,-6.907808E-2,-4.421146E-2,4.11919E-2,8.224513E-2,4.702739E-2,-4.2035792E-2,-5.8286082E-2,-4.1142083E-3,9.6657965E-3,-9.320896E-2,6.490607E-2,-2.0939609E-2,7.79548E-2,4.535195E-2,-5.6794543E-2,7.645046E-2,7.523637E-2,-3.9406E-2,5.738954E-2,7.525687E-2,7.747801E-2,-3.0545903E-2],"categories":[],"categories_nodes":[],"categories_segments":[],"categories_sizes":[],"default_left":[0,0,0,0,0,0,0,0,0,0,0,0,0,0,0,0,0,0,0,0,0,0,0,0,0,0,0,0,0,0,0,0,0,0,0,0,0,0,0,0,0,0,0,0,0,0,0,0,0,0,0,0,0,0,0,0,0,0,0,0,0,0,0,0,0],"id":7,"left_children":[1,3,5,-1,7,9,11,13,15,17,19,21,23,-1,25,27,-1,-1,29,31,33,35,37,39,41,-1,43,45,47,-1,49,-1,-1,-1,-1,51,53,55,57,59,61,-1,63,-1,-1,-1,-1,-1,-1,-1,-1,-1,-1,-1,-1,-1,-1,-1,-1,-1,-1,-1,-1,-1,-1],"loss_changes":[1.7399519E3,1.7863245E2,3.0359308E2,0E0,1.2899695E2,1.2844907E2,4.745288E1,5.1366943E1,8.489938E1,8.2686615E1,8.847504E0,5.196692E1,2.3590393E1,0E0,3.137207E1,5.7384407E1,0E0,0E0,7.7077446E1,1.0650177E0,6.2274265E0,4.6355965E1,3.5315567E1,1.5528137E1,6.773177E1,0E0,1.1700317E1,1.3336182E0,4.2153168E1,0E0,7.142311E1,0E0,0E0,0E0,0E0,3.7621918E1,1.6179901E1,3.1915283E-1,6.631472E1,3.3506107E1,2.2052002E0,0E0,2.5584442E1,0E0,0E0,0E0,0E0,0E0,0E0,0E0,0E0,0E0,0E0,0E0,0E0,0E0,0E0,0E0,0E0,0E0,0E0,0E0,0E0,0E0,0E0],"parents":[2147483647,0,0,1,1,2,2,4,4,5,5,6,6,7,7,8,8,9,9,10,10,11,11,12,12,14,14,15,15,18,18,19,19,20,20,21,21,22,22,23,23,24,24,26,26,27,27,28,28,30,30,35,35,36,36,37,37,38,38,39,39,40,40,42,42],"right_children":[2,4,6,-1,8,10,12,14,16,18,20,22,24,-1,26,28,-1,-1,30,32,34,36,38,40,42,-1,44,46,48,-1,50,-1,-1,-1,-1,52,54,56,58,60,62,-1,64,-1,-1,-1,-1,-1,-1,-1,-1,-1,-1,-1,-1,-1,-1,-1,-1,-1,-1,-1,-1,-1,-1],"split_conditions":[-2.7071726E-1,-4.5483324E-1,-2.1736392E-1,7.7874035E-2,-4.771815E-2,1.2269148E-1,-7.52018E-2,-5.0011426E-2,1.741907E-1,-4.7825847E-2,-2.2281125E-1,-1.0812557E-1,-1.33052515E-2,5.9659716E-2,-4.858124E-2,-4.7889423E-2,8.035755E-2,7.844321E-2,-2.3972642E-1,-2.3150966E-1,1.0183045E0,-4.4048782E-2,3.375793E-1,-4.790647E-2,-1.2655969E-2,3.7468154E-2,-9.38626E-2,-2.345997E-1,-3.9406225E-1,7.7032946E-2,-4.6229303E-2,3.9998237E-2,7.6856256E-2,4.576957E-2,-3.145923E-2,-4.427801E-2,-7.6861E-2,-3.9748088E-2,3.650482E-1,-4.8181016E-2,-2.0721693E-1,-7.1592584E-2,3.7096999E0,-6.907808E-2,-4.421146E-2,4.11919E-2,8.224513E-2,4.702739E-2,-4.2035792E-2,-5.8286082E-2,-4.1142083E-3,9.6657965E-3,-9.320896E-2,6.490607E-2,-2.0939609E-2,7.79548E-2,4.535195E-2,-5.6794543E-2,7.645046E-2,7.523637E-2,-3.9406E-2,5.738954E-2,7.525687E-2,7.747801E-2,-3.0545903E-2],"split_indices":[5,5,3,0,0,5,5,0,3,2,3,3,0,0,2,2,0,0,3,3,5,2,3,0,0,0,3,3,5,0,0,0,0,0,0,2,5,2,3,0,3,0,3,0,0,0,0,0,0,0,0,0,0,0,0,0,0,0,0,0,0,0,0,0,0],"split_type":[0,0,0,0,0,0,0,0,0,0,0,0,0,0,0,0,0,0,0,0,0,0,0,0,0,0,0,0,0,0,0,0,0,0,0,0,0,0,0,0,0,0,0,0,0,0,0,0,0,0,0,0,0,0,0,0,0,0,0,0,0,0,0,0,0],"sum_hessian":[2.134886E3,9.761912E2,1.1586947E3,2.607032E1,9.501209E2,3.5663504E2,8.0205963E2,6.7888367E2,2.7123724E2,2.9201163E2,6.462341E1,2.9480862E2,5.07251E2,7.521372E0,6.713623E2,2.5379875E2,1.7438492E1,2.2700573E1,2.6931104E2,5.5139603E1,9.483811E0,1.46304E2,1.4850461E2,4.516652E2,5.5585823E1,6.6790004E0,6.646833E2,1.4958899E1,2.3883986E2,1.8465359E1,2.5084569E2,5.684812E0,4.9454792E1,6.274884E0,3.2089276E0,9.004819E1,5.6255817E1,1.12379166E2,3.6125435E1,2.5072794E1,4.265924E2,1.0836758E1,4.4749065E1,6.0575525E2,5.892806E1,9.129448E0,5.8294506E0,1.3306096E1,2.2553375E2,1.0221479E2,1.486309E2,8.1081696E1,8.966494E0,5.0584152E1,5.671665E0,1.0675326E2,5.6259074E0,1.5494275E1,2.063116E1,1.5487514E1,9.58528E0,3.6619637E1,3.8997275E2,3.8943085E1,5.805979E0],"tree_param":{"num_deleted":"0","num_feature":"6","num_nodes":"65","size_leaf_vector":"1"}},{"base_weights":[1.6627977E-2,-8.2844913E-1,8.2876414E-1,9.197712E-1,-9.409805E-1,-5.827016E-1,9.940067E-1,3.526267E-1,7.2575964E-2,-1.1382457E0,4.8015784E-2,1.0923768E0,-8.1166774E-1,7.462582E-1,1.3115919E0,-6.366017E-1,6.776126E-2,4.999209E-2,-1.1550646E0,1.2485763E0,-6.9256014E-1,-1.8105982E-2,8.1316136E-2,-1.1503862E0,2.7502287E-2,1.4881365E-1,1.0481508E0,1.4190533E0,8.793803E-1,5.8441043E-2,-6.5252624E-2,-1.221029E0,-5.812237E-1,5.7350355E-1,8.006105E-2,-8.5590374E-1,6.808412E-2,-1.9168931E-1,-1.585393E0,7.5153834E-1,-1.2360618E0,-4.6047356E-2,7.286667E-2,1.1234199E0,-8.0617E-2,6.381542E-1,1.4423256E0,-6.992902E-2,1.2313989E0,-8.792169E-3,-6.29227E-2,5.7447877E-2,-4.0800817E-2,6.464637E-2,-1.5104744E-2,-5.5665135E-2,-1.5647275E-3,-5.0845053E-2,6.484343E-2,-3.828989E-2,-8.2148544E-2,5.88647E-2,-5.4348685E-2,-1.5966862E-2,-7.729162E-2,2.7164808E-2,-2.6604056E-2,4.253385E-3,6.128452E-2,7.3758245E-2,-3.7806846E-2,6.008851E-2,7.46305E-2,7.315369E-2,6.1992207E-3],"categories":[],"categories_nodes":[],"categories_segments":[],"categories_sizes":[],"default_left":[0,0,0,0,0,0,0,0,0,0,0,0,0,0,0,0,0,0,0,0,0,0,0,0,0,0,0,0,0,0,0,0,0,0,0,0,0,0,0,0,0,0,0,0,0,0,0,0,0,0,0,0,0,0,0,0,0,0,0,0,0,0,0,0,0,0,0,0,0,0,0,0,0,0,0],"id":8,"left_children":[1,3,5,7,9,11,13,15,-1,17,19,21,23,25,27,29,-1,-1,31,33,35,-1,-1,37,39,41,43,45,47,-1,-1,49,51,53,-1,55,-1,57,59,61,63,65,-1,67,-1,69,71,-1,73,-1,-1,-1,-1,-1,-1,-1,-1,-1,-1,-1,-1,-1,-1,-1,-1,-1,-1,-1,-1,-1,-1,-1,-1,-1,-1],"loss_changes":[1.4509912E3,2.0469354E2,2.520257E2,1.8537064E1,1.9006079E2,4.4462578E1,7.4985596E1,3.2486893E1,0E0,3.0354492E1,1.4571239E2,1.1530693E1,2.8605774E1,9.808612E1,1.8342163E1,2.1716028E1,0E0,0E0,2.9804932E1,1.3963142E1,3.519088E1,0E0,0E0,2.957389E1,2.826944E1,4.6985405E1,7.423868E1,5.1887817E0,7.1178314E1,0E0,0E0,2.802478E1,3.547606E1,1.4883757E1,0E0,2.0033218E1,0E0,3.0184174E1,1.0609283E0,1.6637608E1,2.705162E0,4.644251E1,0E0,3.7309418E1,0E0,1.4561996E1,2.1452637E0,0E0,1.9202835E1,0E0,0E0,0E0,0E0,0E0,0E0,0E0,0E0,0E0,0E0,0E0,0E0,0E0,0E0,0E0,0E0,0E0,0E0,0E0,0E0,0E0,0E0,0E0,0E0,0E0,0E0],"parents":[2147483647,0,0,1,1,2,2,3,3,4,4,5,5,6,6,7,7,9,9,10,10,11,11,12,12,13,13,14,14,15,15,18,18,19,19,20,20,23,23,24,24,25,25,26,26,27,27,28,28,31,31,32,32,33,33,35,35,37,37,38,38,39,39,40,40,41,41,43,43,45,45,46,46,48,48],"right_children":[2,4,6,8,10,12,14,16,-1,18,20,22,24,26,28,30,-1,-1,32,34,36,-1,-1,38,40,42,44,46,48,-1,-1,50,52,54,-1,56,-1,58,60,62,64,66,-1,68,-1,70,72,-1,74,-1,-1,-1,-1,-1,-1,-1,-1,-1,-1,-1,-1,-1,-1,-1,-1,-1,-1,-1,-1,-1,-1,-1,-1,-1,-1],"split_conditions":[-4.5658614E-2,-4.8373107E-2,-2.3413713E-1,-4.9099516E-2,-4.7099512E-2,-2.4033582E-1,-4.139066E-2,-1.5540238E-1,7.2575964E-2,-4.9891934E-2,-1.6766728E-1,-4.466047E-2,-1.5154423E-1,-2.0721693E-1,-1.33052515E-2,-1.9166976E-1,6.776126E-2,4.999209E-2,-9.38626E-2,-4.5453854E-2,-1.1419067E-1,-1.8105982E-2,8.1316136E-2,-1.542068E-1,-1.4805862E-1,-1.2414369E-1,-4.1400015E-2,-2.3189473E-1,-1.2655969E-2,5.8441043E-2,-6.5252624E-2,-2.4261689E-1,-4.9264986E-2,-1.2965856E-1,8.006105E-2,-4.6046693E-2,6.808412E-2,-1.630078E-1,-4.6306614E-2,-4.534488E-2,-4.3106172E-2,-1.4279701E-1,7.286667E-2,-4.529238E-2,-8.0617E-2,-1.563215E-1,-4.2103056E-2,-6.992902E-2,3.7329656E-1,-8.792169E-3,-6.29227E-2,5.7447877E-2,-4.0800817E-2,6.464637E-2,-1.5104744E-2,-5.5665135E-2,-1.5647275E-3,-5.0845053E-2,6.484343E-2,-3.828989E-2,-8.2148544E-2,5.88647E-2,-5.4348685E-2,-1.5966862E-2,-7.729162E-2,2.7164808E-2,-2.6604056E-2,4.253385E-3,6.128452E-2,7.3758245E-2,-3.7806846E-2,6.008851E-2,7.46305E-2,7.315369E-2,6.1992207E-3],"split_indices":[2,2,3,0,0,3,0,4,0,0,4,2,4,3,0,4,0,0,3,0,4,0,0,4,4,4,0,3,0,0,0,3,0,3,0,2,0,4,0,0,2,4,0,2,0,4,2,0,4,0,0,0,0,0,0,0,0,0,0,0,0,0,0,0,0,0,0,0,0,0,0,0,0,0,0],"split_type":[0,0,0,0,0,0,0,0,0,0,0,0,0,0,0,0,0,0,0,0,0,0,0,0,0,0,0,0,0,0,0,0,0,0,0,0,0,0,0,0,0,0,0,0,0,0,0,0,0,0,0,0,0,0,0,0,0,0,0,0,0,0,0,0,0,0,0,0,0,0,0,0,0,0,0],"sum_hessian":[2.1121677E3,1.0350819E3,1.0770858E3,6.2164104E1,9.7291785E2,1.1261623E2,9.644696E2,3.0885658E1,3.1278446E1,8.11004E2,1.619138E2,1.3088921E1,9.9527306E1,5.4368787E2,4.2078174E2,1.5730237E1,1.5155421E1,5.8736134E0,8.0513043E2,6.1511112E1,1.0040269E2,3.6011105E0,9.48781E0,7.06426E1,2.88847E1,1.8300815E2,3.6067972E2,3.3516565E2,8.561607E1,4.0481133E0,1.1682123E1,7.211092E2,8.4021225E1,2.200772E1,3.950339E1,9.354758E1,6.855112E0,2.249883E1,4.8143772E1,1.8620293E1,1.0264408E1,1.6012727E2,2.2880886E1,3.5131818E2,9.361557E0,1.0521979E1,3.2464368E2,1.1061645E1,7.455443E1,2.5125132E1,6.959841E2,9.574376E0,7.4446846E1,1.1819645E1,1.0188076E1,7.1026726E1,2.2520847E1,1.4678414E1,7.820417E0,4.0988374E0,4.4044937E1,1.5411098E1,3.2091954E0,3.1053686E0,7.159039E0,7.23188E1,8.7808464E1,3.1664135E1,3.1965402E2,6.5387073E0,3.9832723E0,6.043389E1,2.642098E2,6.1390232E1,1.3164199E1],"tree_param":{"num_deleted":"0","num_feature":"6","num_nodes":"75","size_leaf_vector":"1"}},{"base_weights":[-1.596766E-3,-7.178077E-1,8.2168883E-1,-8.7080675E-1,6.026374E-1,2.4803275E-1,1.0948035E0,8.518237E-1,-9.5115393E-1,-3.9535636E-1,1.1672797E0,1.5688645E0,1.6619189E-2,1.3980069E0,9.8561865E-1,2.9868576E-1,9.007744E-2,-1.1789027E0,-4.7524676E-1,1.5205338E0,-1.2499484E0,1.4613001E0,6.3854337E-1,4.0126015E-2,8.037208E-2,-3.106439E-1,1.0703804E0,-2.56927E-2,1.4426005E0,-9.1319226E-2,1.0145131E0,7.1940804E-1,-6.420897E-2,-1.2110684E0,7.444021E-2,1.2593373E0,-5.988885E-1,8.683278E-2,4.0699758E-2,5.747899E-3,-7.0473544E-2,3.8609162E-2,1.5223062E0,-5.480088E-2,7.3112756E-2,-7.838604E-1,2.0552509E-1,-4.3326202E-1,1.3603154E0,7.396446E-2,6.05528E-3,7.412712E-1,1.2189485E0,-3.8461763E-2,7.151659E-2,6.83557E-2,-6.2147643E-2,8.277471E-2,-2.310319E-2,-3.646541E-2,6.468356E-2,3.6540505E-2,7.833069E-2,-7.893193E-3,-6.367534E-2,7.49337E-2,-2.2088336E-2,7.563153E-3,-5.9569903E-2,7.1753554E-2,6.3516772E-3,4.7578603E-2,-4.3519344E-2,6.3584484E-2,3.4058418E-2],"categories":[],"categories_nodes":[],"categories_segments":[],"categories_sizes":[],"default_left":[0,0,0,0,0,0,0,0,0,0,0,0,0,0,0,0,0,0,0,0,0,0,0,0,0,0,0,0,0,0,0,0,0,0,0,0,0,0,0,0,0,0,0,0,0,0,0,0,0,0,0,0,0,0,0,0,0,0,0,0,0,0,0,0,0,0,0,0,0,0,0,0,0,0,0],"id":9,"left_children":[1,3,5,7,9,11,13,15,17,19,21,23,25,27,29,31,-1,33,35,37,39,41,43,-1,-1,45,47,-1,49,-1,51,53,-1,55,-1,57,59,-1,-1,-1,-1,-1,61,-1,-1,63,65,67,69,-1,-1,71,73,-1,-1,-1,-1,-1,-1,-1,-1,-1,-1,-1,-1,-1,-1,-1,-1,-1,-1,-1,-1,-1,-1],"loss_changes":[1.2316432E3,2.2619489E2,1.5197687E2,1.3941919E2,6.615588E1,9.6170425E1,2.0406372E1,2.318351E1,1.0319818E2,7.2095535E1,1.0681046E1,9.676361E-2,9.303372E1,1.5391113E1,4.143866E1,2.0725517E1,0E0,5.730188E1,6.7564514E1,6.746216E-1,6.736828E0,8.102646E-1,4.2285633E1,0E0,0E0,5.045054E1,2.8458153E1,0E0,7.9748535E0,0E0,2.60708E1,2.6639175E1,0E0,5.4278442E1,0E0,1.5119835E1,7.288561E1,0E0,0E0,0E0,0E0,0E0,3.4075165E-1,0E0,0E0,3.2786125E1,8.375194E1,5.095662E0,4.780838E0,0E0,0E0,7.1739105E1,6.924347E0,0E0,0E0,0E0,0E0,0E0,0E0,0E0,0E0,0E0,0E0,0E0,0E0,0E0,0E0,0E0,0E0,0E0,0E0,0E0,0E0,0E0,0E0],"parents":[2147483647,0,0,1,1,2,2,3,3,4,4,5,5,6,6,7,7,8,8,9,9,10,10,11,11,12,12,13,13,14,14,15,15,17,17,18,18,19,19,20,20,21,21,22,22,25,25,26,26,28,28,30,30,31,31,33,33,35,35,36,36,42,42,45,45,46,46,47,47,48,48,51,51,52,52],"right_children":[2,4,6,8,10,12,14,16,18,20,22,24,26,28,30,32,-1,34,36,38,40,42,44,-1,-1,46,48,-1,50,-1,52,54,-1,56,-1,58,60,-1,-1,-1,-1,-1,62,-1,-1,64,66,68,70,-1,-1,72,74,-1,-1,-1,-1,-1,-1,-1,-1,-1,-1,-1,-1,-1,-1,-1,-1,-1,-1,-1,-1,-1,-1],"split_conditions":[-4.614433E-2,2.3911921E-2,-2.1736392E-1,-4.9076416E-2,-4.815969E-2,-1.7351261E-1,-1.3602653E-1,-4.9621142E-2,-4.738054E-2,-4.889156E-2,1.8513659E-1,-4.578475E-2,-3.9225295E-2,-4.6568498E-2,-1.3506094E-1,-4.9686655E-2,9.007744E-2,1.741907E-1,-4.731789E-2,1.1944674E-1,-7.5616814E-2,-1.6650628E-1,3.5688156E-1,4.0126015E-2,8.037208E-2,-1.5154423E-1,-2.3189473E-1,-2.56927E-2,-1.1999056E-2,-9.1319226E-2,-5.0097816E-2,-2.4013612E-1,-6.420897E-2,-4.9891934E-2,7.444021E-2,-4.8181016E-2,-4.5201108E-2,8.683278E-2,4.0699758E-2,5.747899E-3,-7.0473544E-2,3.8609162E-2,4.346279E-2,-5.480088E-2,7.3112756E-2,-1.5736482E-1,-4.5186315E-2,-1.4279701E-1,-2.2026366E-1,7.396446E-2,6.05528E-3,-5.3183123E-2,-4.3511085E-4,-3.8461763E-2,7.151659E-2,6.83557E-2,-6.2147643E-2,8.277471E-2,-2.310319E-2,-3.646541E-2,6.468356E-2,3.6540505E-2,7.833069E-2,-7.893193E-3,-6.367534E-2,7.49337E-2,-2.2088336E-2,7.563153E-3,-5.9569903E-2,7.1753554E-2,6.3516772E-3,4.7578603E-2,-4.3519344E-2,6.3584484E-2,3.4058418E-2],"split_indices":[0,4,3,1,1,4,4,0,1,1,3,1,1,1,4,0,0,3,1,4,3,3,4,0,0,4,3,0,1,0,4,3,0,0,0,0,1,0,0,0,0,0,4,0,0,4,1,4,3,0,0,4,1,0,0,0,0,0,0,0,0,0,0,0,0,0,0,0,0,0,0,0,0,0,0],"split_type":[0,0,0,0,0,0,0,0,0,0,0,0,0,0,0,0,0,0,0,0,0,0,0,0,0,0,0,0,0,0,0,0,0,0,0,0,0,0,0,0,0,0,0,0,0,0,0,0,0,0,0,0,0,0,0,0,0,0,0,0,0,0,0,0,0,0,0,0,0,0,0,0,0,0,0],"sum_hessian":[2.0867834E3,1.1160299E3,9.707535E2,1.0004491E3,1.1558082E2,3.1371902E2,6.570344E2,4.4155712E1,9.562934E2,4.187226E1,7.370856E1,4.5908585E1,2.6781046E2,1.7083253E2,4.862019E2,2.873462E1,1.5421092E1,6.457756E2,3.1051782E2,1.2675686E1,2.9196577E1,4.6234596E1,2.747396E1,3.2451842E0,4.2663403E1,2.0488515E2,6.292529E1,3.653936E0,1.671786E2,4.312389E0,4.818895E2,2.313175E1,5.602869E0,6.3862146E2,7.1540823E0,2.0049925E1,2.904679E2,8.590101E0,4.085584E0,3.084483E0,2.6112093E1,4.8709106E0,4.1363686E1,8.739615E0,1.8734344E1,1.06619385E2,9.826576E1,1.0092073E1,5.2833218E1,1.625464E2,4.6321917E0,2.0821788E2,2.7367163E2,7.4499197E0,1.5681829E1,7.2897854E0,6.3133167E2,1.6330069E1,3.719856E0,2.723167E2,1.815118E1,3.1201527E0,3.8243534E1,4.737475E1,5.9244637E1,3.2340717E1,6.592505E1,6.1505003E0,3.9415731E0,4.9659477E1,3.1737409E0,1.8454648E2,2.36714E1,2.479864E2,2.5685207E1],"tree_param":{"num_deleted":"0","num_feature":"6","num_nodes":"75","size_leaf_vector":"1"}},{"base_weights":[6.850449E-3,-8.799427E-1,7.6355666E-1,8.595505E-1,-9.8431695E-1,9.731095E-2,1.0842559E0,7.609328E-2,9.7925305E-2,-1.0440918E0,6.928432E-2,-1.23567715E-1,1.3988622E0,8.113729E-1,1.3025912E0,-8.887994E-1,6.728511E-2,7.625603E-2,-1.0945977E0,7.5564586E-2,-2.7206573E-1,3.412757E-2,7.1901426E-2,8.6196566E-1,-8.1509784E-2,1.3812776E0,9.435879E-1,-6.8098865E-2,-1.4445469E-2,-1.2088056E0,-6.6094536E-1,-1.3423489E0,-4.941181E-2,5.2342755E-1,1.1870817E0,1.1166282E0,1.4014974E0,-6.373749E-2,1.2833534E0,-6.1633267E-2,4.2718675E-2,6.313344E-2,-3.6207806E-2,-7.399689E-2,-1.388254E-2,9.422894E-3,-6.033626E-2,6.1792764E-3,6.897966E-2,6.451633E-2,-3.743068E-2,6.943452E-2,-3.583562E-2,7.3109865E-2,6.334733E-2,7.279031E-2,-2.3648955E-2],"categories":[],"categories_nodes":[],"categories_segments":[],"categories_sizes":[],"default_left":[0,0,0,0,0,0,0,0,0,0,0,0,0,0,0,0,0,0,0,0,0,0,0,0,0,0,0,0,0,0,0,0,0,0,0,0,0,0,0,0,0,0,0,0,0,0,0,0,0,0,0,0,0,0,0,0,0],"id":10,"left_children":[1,3,5,7,9,11,13,-1,15,17,-1,19,21,23,25,27,-1,-1,29,-1,31,-1,-1,33,-1,35,37,-1,-1,39,41,43,45,47,49,51,53,-1,55,-1,-1,-1,-1,-1,-1,-1,-1,-1,-1,-1,-1,-1,-1,-1,-1,-1,-1],"loss_changes":[1.3740892E3,1.720213E2,2.3596875E2,2.7041462E1,1.2751709E2,1.0370215E2,4.337561E1,0E0,3.3380535E1,1.1437732E2,0E0,7.53777E1,4.86557E-1,4.267833E1,1.0353088E1,3.920947E0,0E0,0E0,4.141864E1,0E0,6.759424E1,0E0,0E0,3.5479355E1,0E0,2.345581E-1,5.9926872E1,0E0,0E0,3.4208313E1,2.2789467E1,6.746063E0,6.5215256E1,5.5448166E1,3.4246414E1,1.5355209E1,6.6711426E-1,0E0,2.1152779E1,0E0,0E0,0E0,0E0,0E0,0E0,0E0,0E0,0E0,0E0,0E0,0E0,0E0,0E0,0E0,0E0,0E0,0E0],"parents":[2147483647,0,0,1,1,2,2,3,3,4,4,5,5,6,6,8,8,9,9,11,11,12,12,13,13,14,14,15,15,18,18,20,20,23,23,25,25,26,26,29,29,30,30,31,31,32,32,33,33,34,34,35,35,36,36,38,38],"right_children":[2,4,6,8,10,12,14,-1,16,18,-1,20,22,24,26,28,-1,-1,30,-1,32,-1,-1,34,-1,36,38,-1,-1,40,42,44,46,48,50,52,54,-1,56,-1,-1,-1,-1,-1,-1,-1,-1,-1,-1,-1,-1,-1,-1,-1,-1,-1,-1],"split_conditions":[-2.7071726E-1,-4.29244E-1,-2.164525E-1,-4.5483324E-1,-4.0274125E-2,-3.753352E-2,-1.8569728E-2,7.609328E-2,-4.7354758E-2,-4.932436E-2,6.928432E-2,-4.7825847E-2,-5.7244707E-2,-1.40863145E-2,-2.1067942E-2,-2.4343209E-1,6.728511E-2,7.625603E-2,-4.6871528E-2,7.5564586E-2,-4.7397558E-2,3.412757E-2,7.1901426E-2,-1.0812557E-1,-8.1509784E-2,-4.6534836E-2,-1.9120187E-2,-6.8098865E-2,-1.4445469E-2,7.000008E-1,-4.798674E-2,-4.5700423E-2,-3.9284464E-2,-4.2592384E-2,-3.9514296E-2,-4.7192693E-2,4.379413E-1,-6.373749E-2,3.7096999E0,-6.1633267E-2,4.2718675E-2,6.313344E-2,-3.6207806E-2,-7.399689E-2,-1.388254E-2,9.422894E-3,-6.033626E-2,6.1792764E-3,6.897966E-2,6.451633E-2,-3.743068E-2,6.943452E-2,-3.583562E-2,7.3109865E-2,6.334733E-2,7.279031E-2,-2.3648955E-2],"split_indices":[5,5,3,5,1,2,5,0,1,1,0,2,5,1,1,3,0,0,1,0,1,0,0,3,0,1,1,0,0,3,2,2,2,2,2,1,5,0,3,0,0,0,0,0,0,0,0,0,0,0,0,0,0,0,0,0,0],"split_type":[0,0,0,0,0,0,0,0,0,0,0,0,0,0,0,0,0,0,0,0,0,0,0,0,0,0,0,0,0,0,0,0,0,0,0,0,0,0,0,0,0,0,0,0,0,0,0,0,0,0,0,0,0,0,0,0,0],"sum_hessian":[2.0456941E3,9.418112E2,1.1038828E3,5.2902763E1,8.889085E2,3.591208E2,7.447621E2,2.7762283E1,2.514048E1,8.675862E2,2.132229E1,3.0779224E2,5.132856E1,3.3312592E2,4.1163614E2,1.4199447E1,1.0941033E1,1.6163406E1,8.514228E2,2.4865314E1,2.829269E2,3.6163423E0,4.7712215E1,3.2699704E2,6.1288843E0,3.3529797E2,7.6338165E1,7.2278914E0,6.9715548E0,6.725188E2,1.7890399E2,4.7856224E1,2.3507068E2,1.6147041E2,1.6552663E2,2.77899E1,3.075081E2,9.773687E0,6.656448E1,6.652283E2,7.2905135E0,5.0881233E0,1.7381587E2,4.203422E1,5.822005E0,1.9568709E2,3.93836E1,1.1084739E2,5.062302E1,1.5746146E2,8.065176E0,2.4410053E1,3.3798456E0,2.0510962E2,1.0239847E2,6.0768764E1,5.795716E0],"tree_param":{"num_deleted":"0","num_feature":"6","num_nodes":"57","size_leaf_vector":"1"}},{"base_weights":[3.3793834E-3,-8.733412E-1,7.396703E-1,-1.0084674E0,3.959166E-1,9.5743544E-2,1.034072E0,1.4108378E0,-1.0653191E0,1.4305788E-3,7.37529E-2,-3.1345347E-1,6.972472E-1,7.084828E-1,1.2072934E0,2.9869342E-2,7.657127E-2,6.4795744E-1,-1.1372098E0,6.596541E-2,-4.4735032E-1,7.4885175E-2,-4.666172E-1,-5.560456E-1,8.557883E-1,7.7683365E-1,-8.0588914E-2,-2.5947222E-2,1.2372596E0,-8.0099297E-1,8.42054E-2,-1.15984E0,4.9083546E-2,1.8167906E-2,-7.570995E-2,1.2385389E0,-6.083439E-1,6.2461197E-2,-7.177596E-2,1.088407E0,4.5355625E-2,8.720969E-1,-9.822803E-1,1.3009654E0,7.0178497E-1,-5.7175178E-2,-9.14166E-3,6.1295714E-2,-5.8928687E-2,3.145733E-2,-5.4027867E-2,3.7422378E-2,7.028972E-2,-5.0429877E-2,3.0975218E-3,3.1134551E-2,7.1433954E-2,-8.263309E-2,5.30774E-2,1.2113559E-2,5.7172716E-2,5.9744686E-2,-8.817607E-2,4.6745013E-2,6.711211E-2,-6.567087E-2,6.113785E-2],"categories":[],"categories_nodes":[],"categories_segments":[],"categories_sizes":[],"default_left":[0,0,0,0,0,0,0,0,0,0,0,0,0,0,0,0,0,0,0,0,0,0,0,0,0,0,0,0,0,0,0,0,0,0,0,0,0,0,0,0,0,0,0,0,0,0,0,0,0,0,0,0,0,0,0,0,0,0,0,0,0,0,0,0,0,0,0],"id":11,"left_children":[1,3,5,7,9,11,13,15,17,19,-1,21,23,25,27,-1,-1,29,31,-1,33,-1,35,37,39,41,-1,-1,43,45,-1,47,-1,49,-1,51,53,-1,-1,55,57,59,61,63,65,-1,-1,-1,-1,-1,-1,-1,-1,-1,-1,-1,-1,-1,-1,-1,-1,-1,-1,-1,-1,-1,-1],"loss_changes":[1.2958984E3,1.5756671E2,2.0675311E2,1.1545422E2,3.7838615E1,8.475329E1,4.1370422E1,9.932289E-1,1.0050757E2,3.9681213E1,0E0,5.759142E1,2.8166695E1,4.286963E1,2.5848267E1,0E0,0E0,5.128018E1,3.8433594E1,0E0,2.4885052E1,0E0,4.6636322E1,2.7602146E1,2.3347237E1,4.368724E1,0E0,0E0,1.5435852E1,2.870366E0,0E0,3.5859863E1,0E0,2.4735518E1,0E0,1.6911316E-1,4.7270805E1,0E0,0E0,1.438443E1,5.131316E1,4.1250916E1,2.5239792E1,5.1990967E0,5.7381783E1,0E0,0E0,0E0,0E0,0E0,0E0,0E0,0E0,0E0,0E0,0E0,0E0,0E0,0E0,0E0,0E0,0E0,0E0,0E0,0E0,0E0,0E0],"parents":[2147483647,0,0,1,1,2,2,3,3,4,4,5,5,6,6,7,7,8,8,9,9,11,11,12,12,13,13,14,14,17,17,18,18,20,20,22,22,23,23,24,24,25,25,28,28,29,29,31,31,33,33,35,35,36,36,39,39,40,40,41,41,42,42,43,43,44,44],"right_children":[2,4,6,8,10,12,14,16,18,20,-1,22,24,26,28,-1,-1,30,32,-1,34,-1,36,38,40,42,-1,-1,44,46,-1,48,-1,50,-1,52,54,-1,-1,56,58,60,62,64,66,-1,-1,-1,-1,-1,-1,-1,-1,-1,-1,-1,-1,-1,-1,-1,-1,-1,-1,-1,-1,-1,-1],"split_conditions":[-2.7071726E-1,-4.5186315E-2,-2.1736392E-1,-4.5483324E-1,-4.0515415E-2,-4.483023E-2,-8.466767E-2,-4.886194E-2,-4.9076416E-2,-3.954591E-1,7.37529E-2,-2.3972642E-1,-2.3873043E-1,-1.40863145E-2,-4.833414E-2,2.9869342E-2,7.657127E-2,-4.9621142E-2,7.000008E-1,6.596541E-2,-4.20724E-2,7.4885175E-2,-4.8743844E-2,-2.3993137E-1,-2.2379829E-1,-9.5117345E-2,-8.0588914E-2,-2.5947222E-2,-1.33052515E-2,-3.9071658E-1,8.42054E-2,-4.9891934E-2,4.9083546E-2,-3.144043E-1,-7.570995E-2,-4.9730103E-2,-8.466767E-2,6.2461197E-2,-7.177596E-2,5.3479105E-2,-2.2372125E-1,-4.6838675E-2,-4.508597E-2,-2.0721693E-1,-1.2655969E-2,-5.7175178E-2,-9.14166E-3,6.1295714E-2,-5.8928687E-2,3.145733E-2,-5.4027867E-2,3.7422378E-2,7.028972E-2,-5.0429877E-2,3.0975218E-3,3.1134551E-2,7.1433954E-2,-8.263309E-2,5.30774E-2,1.2113559E-2,5.7172716E-2,5.9744686E-2,-8.817607E-2,4.6745013E-2,6.711211E-2,-6.567087E-2,6.113785E-2],"split_indices":[5,1,3,5,0,0,5,1,1,5,0,3,3,1,1,0,0,0,3,0,0,0,1,3,3,5,0,0,0,5,0,0,0,5,0,0,5,0,0,5,3,0,0,3,0,0,0,0,0,0,0,0,0,0,0,0,0,0,0,0,0,0,0,0,0,0,0],"split_type":[0,0,0,0,0,0,0,0,0,0,0,0,0,0,0,0,0,0,0,0,0,0,0,0,0,0,0,0,0,0,0,0,0,0,0,0,0,0,0,0,0,0,0,0,0,0,0,0,0,0,0,0,0,0,0,0,0,0,0,0,0,0,0,0,0,0,0],"sum_hessian":[2.0055215E3,9.153748E2,1.0901466E3,8.2748553E2,8.78893E1,3.424507E2,7.476959E2,1.8451963E1,8.0903357E2,6.509485E1,2.279445E1,2.0408952E2,1.383612E2,2.614191E2,4.8627682E2,3.1508899E0,1.5301073E1,3.225798E1,7.767756E2,1.6043169E1,4.9051678E1,1.5228967E1,1.8886055E2,1.5255637E1,1.2310557E2,2.5458466E2,6.834426E0,8.018943E0,4.7825787E2,1.3544432E1,1.871355E1,7.690149E2,7.7606864E0,3.4834606E1,1.42170725E1,1.3898972E1,1.7496158E2,4.8597493E0,1.0395888E1,9.538437E1,2.7721197E1,2.4198445E2,1.2600211E1,4.261312E2,5.2126675E1,8.168546E0,5.3758864E0,5.489444E0,7.6352545E2,2.266079E1,1.2173818E1,4.9294877E0,8.969483E0,1.09231415E2,6.573017E1,4.146414E1,5.3920227E1,1.0144241E1,1.7576956E1,7.343447E1,1.6854999E2,3.1875684E0,9.412643E0,4.5577164E1,3.8055405E2,1.0395222E1,4.1731453E1],"tree_param":{"num_deleted":"0","num_feature":"6","num_nodes":"67","size_leaf_vector":"1"}},{"base_weights":[9.779131E-3,-8.268339E-1,7.0334375E-1,2.0276931E-1,-1.0178964E0,2.9705447E-1,1.037364E0,-4.6217236E-1,1.3067158E0,1.3333213E0,-1.0644946E0,1.3627262E0,-1.193141E-1,8.5409474E-1,1.3220444E0,7.257968E-2,-8.509162E-1,1.008003E0,8.695191E-2,3.834751E-2,7.68479E-2,-1.1071876E0,6.4377666E-2,1.4037018E0,2.0256035E-2,-5.3162384E-1,7.8350526E-1,9.16179E-1,-3.5968006E-2,6.806981E-2,4.7154272E-1,6.5363236E-2,-9.894978E-1,1.3432986E0,-5.6370225E-2,6.2619425E-2,-1.1413977E0,7.2088845E-2,3.7487816E-2,-1.1691483E0,-2.4993762E-1,5.0453953E-2,1.1768241E0,4.425799E-1,1.1830953E0,-5.8538068E-2,6.6210195E-2,-5.6267913E-2,6.077027E-2,4.425785E-2,7.9874575E-2,-1.706474E-2,-5.876736E-2,-6.956708E-2,-2.3642305E-2,-3.1078741E-2,1.6525632E-2,3.6745816E-2,-1.1135446E-1,6.723991E-2,-6.6677906E-2,4.5991145E-2,-3.2144554E-2,-3.2714553E-2,6.219573E-2],"categories":[],"categories_nodes":[],"categories_segments":[],"categories_sizes":[],"default_left":[0,0,0,0,0,0,0,0,0,0,0,0,0,0,0,0,0,0,0,0,0,0,0,0,0,0,0,0,0,0,0,0,0,0,0,0,0,0,0,0,0,0,0,0,0,0,0,0,0,0,0,0,0,0,0,0,0,0,0,0,0,0,0,0,0],"id":12,"left_children":[1,3,5,7,9,11,13,15,17,19,21,23,25,27,29,-1,31,33,-1,-1,-1,35,-1,37,-1,39,41,43,-1,-1,45,-1,47,49,-1,-1,51,-1,-1,53,55,57,59,61,63,-1,-1,-1,-1,-1,-1,-1,-1,-1,-1,-1,-1,-1,-1,-1,-1,-1,-1,-1,-1],"loss_changes":[1.1428384E3,1.7582324E2,1.4582916E2,1.0378861E2,8.393793E1,2.1636702E2,2.9683289E1,6.705028E1,5.1046295E0,5.6053925E-1,7.564154E1,4.805908E0,1.3118086E2,3.603241E1,7.038208E0,0E0,2.3473534E1,2.5702393E1,0E0,0E0,0E0,6.006903E1,0E0,2.1795044E0,0E0,4.312194E1,3.181121E1,4.3569153E1,0E0,0E0,1.7903065E1,0E0,2.2413078E1,2.0393791E0,0E0,0E0,1.9063477E1,0E0,0E0,1.0761719E1,3.6648666E1,6.343695E1,3.2109688E1,6.654882E1,2.567575E1,0E0,0E0,0E0,0E0,0E0,0E0,0E0,0E0,0E0,0E0,0E0,0E0,0E0,0E0,0E0,0E0,0E0,0E0,0E0,0E0],"parents":[2147483647,0,0,1,1,2,2,3,3,4,4,5,5,6,6,7,7,8,8,9,9,10,10,11,11,12,12,13,13,14,14,16,16,17,17,21,21,23,23,25,25,26,26,27,27,30,30,32,32,33,33,36,36,39,39,40,40,41,41,42,42,43,43,44,44],"right_children":[2,4,6,8,10,12,14,16,18,20,22,24,26,28,30,-1,32,34,-1,-1,-1,36,-1,38,-1,40,42,44,-1,-1,46,-1,48,50,-1,-1,52,-1,-1,54,56,58,60,62,64,-1,-1,-1,-1,-1,-1,-1,-1,-1,-1,-1,-1,-1,-1,-1,-1,-1,-1,-1,-1],"split_conditions":[-2.7071726E-1,-1.7848007E-1,-6.7550875E-2,-4.7304988E-2,-4.932436E-2,-1.5450624E-1,-3.753352E-2,-4.5483324E-1,-3.4400603E-1,-4.858124E-2,-4.0274125E-2,-3.0412335E-2,-7.7603355E-2,-2.2040144E-2,3.3684292E0,7.257968E-2,-4.858124E-2,-3.464459E-1,8.695191E-2,3.834751E-2,7.68479E-2,-4.3319124E-1,6.4377666E-2,-1.5474439E-1,2.0256035E-2,-1.5001306E-1,-4.529238E-2,-1.3151816E-1,-3.5968006E-2,6.806981E-2,4.316897E0,6.5363236E-2,-4.6053227E-2,-3.954591E-1,-5.6370225E-2,6.2619425E-2,-4.9014714E-2,7.2088845E-2,3.7487816E-2,-4.419795E-2,-4.401503E-2,-4.534631E-2,-3.720601E-2,-1.4320526E-1,-4.833414E-2,-5.8538068E-2,6.6210195E-2,-5.6267913E-2,6.077027E-2,4.425785E-2,7.9874575E-2,-1.706474E-2,-5.876736E-2,-6.956708E-2,-2.3642305E-2,-3.1078741E-2,1.6525632E-2,3.6745816E-2,-1.1135446E-1,6.723991E-2,-6.6677906E-2,4.5991145E-2,-3.2144554E-2,-3.2714553E-2,6.219573E-2],"split_indices":[5,4,5,2,1,4,2,5,5,2,1,1,4,1,4,0,2,5,0,0,0,5,0,4,0,4,2,4,0,0,4,0,1,5,0,0,1,0,0,1,2,2,1,4,1,0,0,0,0,0,0,0,0,0,0,0,0,0,0,0,0,0,0,0,0],"split_type":[0,0,0,0,0,0,0,0,0,0,0,0,0,0,0,0,0,0,0,0,0,0,0,0,0,0,0,0,0,0,0,0,0,0,0,0,0,0,0,0,0,0,0,0,0,0,0,0,0,0,0,0,0,0,0,0,0,0,0,0,0,0,0,0,0],"sum_hessian":[1.9675758E3,8.9173157E2,1.0758442E3,1.3956711E2,7.521645E2,4.8626263E2,5.895816E2,8.746533E1,5.2101772E1,1.4080645E1,7.380838E2,1.3597343E2,3.5028918E2,3.611095E2,2.2847212E2,1.430559E1,7.3159744E1,3.27824E1,1.9319374E1,4.984264E0,9.09638E0,7.254452E2,1.26386E1,1.2994722E2,6.0262265E0,2.4075131E2,1.0953788E2,3.478038E2,1.330567E1,2.1779434E2,1.0677785E1,3.9054585E0,6.925429E1,2.8654144E1,4.128252E0,9.858592E0,7.155866E2,1.2165903E2,8.288184E0,7.281123E1,1.6794008E2,3.8643673E1,7.089421E1,1.2632284E2,2.2148097E2,3.521665E0,7.15612E0,6.5695885E1,3.5583982E0,1.1824542E1,1.6829603E1,2.9577284E1,6.8600934E2,5.4440754E1,1.8370478E1,1.0234327E2,6.559682E1,3.023467E1,8.409003E0,6.688323E1,4.010973E0,8.785064E1,3.8472195E1,6.7836905E0,2.146973E2],"tree_param":{"num_deleted":"0","num_feature":"6","num_nodes":"65","size_leaf_vector":"1"}},{"base_weights":[6.1647175E-3,-7.129196E-1,6.906366E-1,8.5965353E-1,-8.2283694E-1,3.0805683E-2,9.7488403E-1,3.0432595E-2,1.2013522E0,-9.446049E-1,4.5009163E-1,-4.7981915E-1,6.4511365E-1,7.036253E-2,8.5636705E-1,6.444224E-2,-9.196815E-1,7.381111E-1,1.3609675E0,9.317631E-1,-1.004607E0,1.2098945E0,-4.1014257E-1,1.0095912E0,-6.579309E-1,3.0463177E-1,1.244082E0,1.288891E-1,1.0329412E0,8.8294985E-4,-6.347633E-2,6.8181604E-2,-5.0813716E-2,3.3487484E-2,7.134941E-2,-1.0917896E-2,7.642537E-2,-1.0768872E0,-1.827119E-1,7.3698275E-2,4.7671917E-1,-4.989577E-2,-6.83503E-2,-1.4188766E-2,7.669238E-2,2.2535555E-2,-1.0104549E0,1.0257055E0,-7.9959595E-1,1.3015106E0,2.3426203E-2,-1.0122433E0,8.1353337E-1,-1.0990753E0,1.0891763E0,7.1149535E-2,-5.5273455E-2,5.3314846E-3,-5.5945527E-2,7.6548584E-2,-2.0830577E-2,-5.8468003E-2,5.8122974E-2,-2.1024978E-2,6.935858E-2,-5.730735E-2,4.3032553E-2,-3.465671E-2,-7.294456E-2,3.1637453E-2,7.2201736E-2,7.492965E-2,-6.7216955E-2,4.02856E-2,6.75629E-2,-6.929132E-2,-2.8893907E-2,6.465864E-2,-2.634627E-2,-1.018719E-1,-1.4596693E-2,-2.9330477E-2,5.6004252E-2],"categories":[],"categories_nodes":[],"categories_segments":[],"categories_sizes":[],"default_left":[0,0,0,0,0,0,0,0,0,0,0,0,0,0,0,0,0,0,0,0,0,0,0,0,0,0,0,0,0,0,0,0,0,0,0,0,0,0,0,0,0,0,0,0,0,0,0,0,0,0,0,0,0,0,0,0,0,0,0,0,0,0,0,0,0,0,0,0,0,0,0,0,0,0,0,0,0,0,0,0,0,0,0],"id":13,"left_children":[1,3,5,7,9,11,13,15,17,19,21,23,25,-1,27,-1,29,31,33,35,37,39,41,43,45,47,49,51,53,-1,-1,-1,-1,-1,-1,55,-1,57,59,-1,61,63,-1,-1,-1,65,67,69,71,73,-1,75,77,79,81,-1,-1,-1,-1,-1,-1,-1,-1,-1,-1,-1,-1,-1,-1,-1,-1,-1,-1,-1,-1,-1,-1,-1,-1,-1,-1,-1,-1],"loss_changes":[9.569414E2,1.6459811E2,1.8679163E2,1.765313E1,1.3786835E2,9.4708534E1,3.446753E1,2.4195223E1,2.2626534E0,9.208856E1,5.153967E1,4.4412296E1,2.7566162E1,0E0,7.037955E1,0E0,3.8097029E0,1.6210169E1,4.899025E-1,1.4421398E1,4.64386E1,7.375E0,1.2814726E1,1.2646475E1,3.5501778E1,7.143736E1,1.5876999E0,8.547965E1,5.4139526E1,0E0,0E0,0E0,0E0,0E0,0E0,1.87104E1,0E0,3.5996338E1,2.6555836E1,0E0,1.54982815E1,1.5596435E1,0E0,0E0,0E0,5.1383453E1,1.2855797E1,7.9781036E0,4.6580772E1,3.0410767E-2,0E0,5.8649864E0,4.458046E1,8.377009E0,2.2967407E1,0E0,0E0,0E0,0E0,0E0,0E0,0E0,0E0,0E0,0E0,0E0,0E0,0E0,0E0,0E0,0E0,0E0,0E0,0E0,0E0,0E0,0E0,0E0,0E0,0E0,0E0,0E0,0E0],"parents":[2147483647,0,0,1,1,2,2,3,3,4,4,5,5,6,6,7,7,8,8,9,9,10,10,11,11,12,12,14,14,16,16,17,17,18,18,19,19,20,20,21,21,22,22,23,23,24,24,25,25,26,26,27,27,28,28,35,35,37,37,38,38,40,40,41,41,45,45,46,46,47,47,48,48,49,49,51,51,52,52,53,53,54,54],"right_children":[2,4,6,8,10,12,14,16,18,20,22,24,26,-1,28,-1,30,32,34,36,38,40,42,44,46,48,50,52,54,-1,-1,-1,-1,-1,-1,56,-1,58,60,-1,62,64,-1,-1,-1,66,68,70,72,74,-1,76,78,80,82,-1,-1,-1,-1,-1,-1,-1,-1,-1,-1,-1,-1,-1,-1,-1,-1,-1,-1,-1,-1,-1,-1,-1,-1,-1,-1,-1,-1],"split_conditions":[-4.5658614E-2,-4.8373107E-2,-2.1736392E-1,-2.4068432E-1,-4.5571472E-2,-4.192843E-2,-1.3602653E-1,-1.9166976E-1,-1.630078E-1,-4.9076416E-2,-1.6402686E-1,-1.6366647E-1,-3.769411E-2,7.036253E-2,-4.3706372E-2,6.444224E-2,-4.8445154E-2,-1.7848007E-1,-4.976957E-2,-4.7995467E-2,-1.786014E-2,-1.2965856E-1,-1.1982497E-1,-2.4013612E-1,-4.5748312E-2,-3.9284464E-2,-2.1903442E-1,-6.0699668E-2,-1.3151816E-1,8.8294985E-4,-6.347633E-2,6.8181604E-2,-5.0813716E-2,3.3487484E-2,7.134941E-2,-4.9554665E-2,7.642537E-2,-2.4261689E-1,-4.819127E-1,7.3698275E-2,-1.196841E-1,-1.78513E-1,-6.83503E-2,-1.4188766E-2,7.669238E-2,-4.472299E-2,-4.280143E-2,-4.246356E-2,-1.5619946E-1,-2.3359326E-1,2.3426203E-2,-4.528766E-2,3.4909862E-1,-1.3506094E-1,-4.833414E-2,7.1149535E-2,-5.5273455E-2,5.3314846E-3,-5.5945527E-2,7.6548584E-2,-2.0830577E-2,-5.8468003E-2,5.8122974E-2,-2.1024978E-2,6.935858E-2,-5.730735E-2,4.3032553E-2,-3.465671E-2,-7.294456E-2,3.1637453E-2,7.2201736E-2,7.492965E-2,-6.7216955E-2,4.02856E-2,6.75629E-2,-6.929132E-2,-2.8893907E-2,6.465864E-2,-2.634627E-2,-1.018719E-1,-1.4596693E-2,-2.9330477E-2,5.6004252E-2],"split_indices":[2,2,3,3,1,2,4,4,4,1,4,4,2,0,2,0,2,4,1,2,3,3,4,3,1,2,3,4,4,0,0,0,0,0,0,1,0,3,4,0,3,3,0,0,0,2,2,1,4,3,0,1,3,4,1,0,0,0,0,0,0,0,0,0,0,0,0,0,0,0,0,0,0,0,0,0,0,0,0,0,0,0,0],"split_type":[0,0,0,0,0,0,0,0,0,0,0,0,0,0,0,0,0,0,0,0,0,0,0,0,0,0,0,0,0,0,0,0,0,0,0,0,0,0,0,0,0,0,0,0,0,0,0,0,0,0,0,0,0,0,0,0,0,0,0,0,0,0,0,0,0,0,0,0,0,0,0,0,0,0,0,0,0,0,0,0,0,0,0],"sum_hessian":[1.9422399E3,9.471513E2,9.9508856E2,6.1431896E1,8.857194E2,2.999396E2,6.95149E2,1.8244915E1,4.3186977E1,8.086246E2,7.709484E1,1.6391182E2,1.3602779E2,1.4721486E2,5.4793414E2,7.695639E0,1.0549276E1,1.2508546E1,3.0678432E1,2.4606575E1,7.84018E2,4.0721264E1,3.6373577E1,1.7009155E1,1.4690266E2,8.768952E1,4.833827E1,1.07357155E2,4.4057697E2,3.1252673E0,7.4240093E0,9.385059E0,3.123486E0,3.6463828E0,2.7032051E1,9.919065E0,1.4687509E1,7.203571E2,6.366088E1,2.9195429E1,1.1525835E1,2.7189299E1,9.184277E0,5.038251E0,1.1970904E1,5.0452255E1,9.64504E1,5.3091354E1,3.4598167E1,4.4374275E1,3.963994E0,4.0078213E1,6.7278946E1,1.0845668E1,4.2973132E2,4.163992E0,5.7550735E0,2.4648079E1,6.9570905E2,6.979514E0,5.668137E1,3.1821117E0,8.343723E0,2.2177387E1,5.0119123E0,2.0917294E1,2.9534962E1,5.7973263E1,3.847714E1,2.8671463E1,2.4419891E1,6.293948E0,2.8304218E1,5.614484E0,3.8759792E1,2.0369022E1,1.9709188E1,4.957531E1,1.770363E1,4.3103266E0,6.5353417E0,7.456957E0,4.2227435E2],"tree_param":{"num_deleted":"0","num_feature":"6","num_nodes":"83","size_leaf_vector":"1"}},{"base_weights":[4.3167127E-3,-7.8755987E-1,6.811312E-1,2.296822E-1,-9.770128E-1,1.0089144E-1,9.6584415E-1,-3.82075E-1,1.2213098E0,-1.0641489E0,8.130737E-2,1.3496865E0,-1.9397183E-1,6.8837047E-1,1.1927814E0,7.069033E-2,-7.498233E-1,1.4278919E0,5.764253E-1,1.0687027E0,-1.1058145E0,-5.8402526E-1,7.767357E-2,9.4181114E-1,7.85812E-2,-1.1322181E0,3.0742577E-1,1.3741404E0,3.038505E-1,1.217339E0,2.1150102E-1,-1.2033651E-1,-1.3020935E0,8.6683404E-1,8.196791E-2,7.873347E-2,-6.266495E-2,2.0246703E-2,6.5264575E-2,6.611265E-2,-1.1360676E0,3.5322037E-1,-6.555633E-2,7.195784E-2,-6.7613706E-2,-1.273008E0,-3.5216865E-1,-1.1583838E0,6.08617E-1,5.1236586E-3,7.083122E-2,-4.169051E-1,8.449285E-1,1.0707719E0,6.593753E-2,-7.727004E-2,6.180019E-2,-4.4992775E-2,5.3280156E-2,-3.3283345E-2,-6.80799E-2,6.2209714E-2,-2.0569765E-3,-6.694842E-2,6.4941645E-2,-3.682984E-2,-5.9667815E-2,-6.2297672E-2,6.717552E-2,-7.115506E-2,-4.5086503E-2,3.5975467E-2,-6.293305E-2,5.318222E-3,-6.5654084E-2,4.8037168E-2,-7.495643E-3,7.607832E-2,-2.9278511E-2,5.3103138E-2,-5.4828715E-2,6.4112805E-2,-6.6763096E-2],"categories":[],"categories_nodes":[],"categories_segments":[],"categories_sizes":[],"default_left":[0,0,0,0,0,0,0,0,0,0,0,0,0,0,0,0,0,0,0,0,0,0,0,0,0,0,0,0,0,0,0,0,0,0,0,0,0,0,0,0,0,0,0,0,0,0,0,0,0,0,0,0,0,0,0,0,0,0,0,0,0,0,0,0,0,0,0,0,0,0,0,0,0,0,0,0,0,0,0,0,0,0,0],"id":14,"left_children":[1,3,5,7,9,11,13,15,17,19,21,23,25,27,29,-1,31,33,35,37,39,41,-1,43,-1,45,47,49,51,53,55,57,59,61,-1,-1,-1,-1,-1,63,65,67,-1,-1,-1,69,71,73,75,-1,-1,77,79,81,-1,-1,-1,-1,-1,-1,-1,-1,-1,-1,-1,-1,-1,-1,-1,-1,-1,-1,-1,-1,-1,-1,-1,-1,-1,-1,-1,-1,-1],"loss_changes":[1.0217826E3,1.6954028E2,1.6971585E2,8.463428E1,6.8403015E1,1.2526315E2,4.259259E1,5.8233612E1,6.261017E0,6.201361E1,5.7015396E1,4.401108E0,1.2995328E2,8.199924E1,8.848938E0,0E0,2.505088E1,3.2769318E0,2.860097E1,1.6110706E0,2.3897339E1,2.7844616E1,0E0,3.0914873E1,0E0,1.0112793E1,8.0321526E1,5.90596E0,7.895155E1,4.064575E0,2.0695406E1,3.330353E1,5.524597E-1,4.492097E0,0E0,0E0,0E0,0E0,0E0,3.2663113E1,1.41119995E1,3.0719795E1,0E0,0E0,0E0,3.2350006E0,1.6532028E1,6.221241E0,4.027634E1,0E0,0E0,2.9366072E1,4.9835335E1,8.109073E1,0E0,0E0,0E0,0E0,0E0,0E0,0E0,0E0,0E0,0E0,0E0,0E0,0E0,0E0,0E0,0E0,0E0,0E0,0E0,0E0,0E0,0E0,0E0,0E0,0E0,0E0,0E0,0E0,0E0],"parents":[2147483647,0,0,1,1,2,2,3,3,4,4,5,5,6,6,7,7,8,8,9,9,10,10,11,11,12,12,13,13,14,14,16,16,17,17,18,18,19,19,20,20,21,21,23,23,25,25,26,26,27,27,28,28,29,29,30,30,31,31,32,32,33,33,39,39,40,40,41,41,45,45,46,46,47,47,48,48,51,51,52,52,53,53],"right_children":[2,4,6,8,10,12,14,16,18,20,22,24,26,28,30,-1,32,34,36,38,40,42,-1,44,-1,46,48,50,52,54,56,58,60,62,-1,-1,-1,-1,-1,64,66,68,-1,-1,-1,70,72,74,76,-1,-1,78,80,82,-1,-1,-1,-1,-1,-1,-1,-1,-1,-1,-1,-1,-1,-1,-1,-1,-1,-1,-1,-1,-1,-1,-1,-1,-1,-1,-1,-1,-1],"split_conditions":[-2.7071726E-1,-1.7848007E-1,-2.164525E-1,-4.7386087E-2,2.3911921E-2,-1.5450624E-1,-1.8569728E-2,-4.5483324E-1,-1.4637102E-1,-4.3319124E-1,-4.6146248E-2,-2.38382E-1,-1.8310712E-1,-1.379108E-1,4.1250587E0,7.069033E-2,-4.7838748E-2,-3.846509E-1,-2.246776E-1,-2.413369E-1,-4.8373107E-2,1.2940949E-1,7.767357E-2,-2.3944566E-1,7.85812E-2,-1.3855253E-1,-1.5154423E-1,-4.7441907E-2,-1.0812557E-1,-3.9974462E-2,4.316897E0,-3.8565725E-1,-3.9859957E-1,-4.29244E-1,8.196791E-2,7.873347E-2,-6.266495E-2,2.0246703E-2,6.5264575E-2,-2.3330612E-1,-3.9351752E-1,-3.263109E-1,-6.555633E-2,7.195784E-2,-6.7613706E-2,-4.5212667E-2,-2.1977569E-1,-4.427801E-2,-2.2379829E-1,5.1236586E-3,7.083122E-2,-4.7547154E-2,-3.9514296E-2,4.5424244E-1,6.593753E-2,-7.727004E-2,6.180019E-2,-4.4992775E-2,5.3280156E-2,-3.3283345E-2,-6.80799E-2,6.2209714E-2,-2.0569765E-3,-6.694842E-2,6.4941645E-2,-3.682984E-2,-5.9667815E-2,-6.2297672E-2,6.717552E-2,-7.115506E-2,-4.5086503E-2,3.5975467E-2,-6.293305E-2,5.318222E-3,-6.5654084E-2,4.8037168E-2,-7.495643E-3,7.607832E-2,-2.9278511E-2,5.3103138E-2,-5.4828715E-2,6.4112805E-2,-6.6763096E-2],"split_indices":[5,4,3,2,4,4,5,5,3,5,2,3,5,4,3,0,2,5,4,3,2,4,0,3,0,4,4,2,3,2,4,5,5,5,0,0,0,0,0,3,5,5,0,0,0,2,3,2,3,0,0,2,2,5,0,0,0,0,0,0,0,0,0,0,0,0,0,0,0,0,0,0,0,0,0,0,0,0,0,0,0,0,0],"split_type":[0,0,0,0,0,0,0,0,0,0,0,0,0,0,0,0,0,0,0,0,0,0,0,0,0,0,0,0,0,0,0,0,0,0,0,0,0,0,0,0,0,0,0,0,0,0,0,0,0,0,0,0,0,0,0,0,0,0,0,0,0,0,0,0,0,0,0,0,0,0,0,0,0,0,0,0,0,0,0,0,0,0,0],"sum_hessian":[1.9044755E3,8.7756085E2,1.0269146E3,1.3774506E2,7.398158E2,3.3847113E2,6.884434E2,8.556982E1,5.2175236E1,6.835321E2,5.6283665E1,6.397004E1,2.745011E2,3.1154916E2,3.768943E2,1.4060675E1,7.150914E1,3.8596928E1,1.3578308E1,1.2624724E1,6.709074E2,3.917991E1,1.7103756E1,2.438994E1,3.9580097E1,9.5164764E1,1.7933633E2,1.1100475E2,2.005444E2,3.6745773E2,9.436556E0,3.398751E1,3.7521633E1,1.1961123E1,2.6635803E1,8.875494E0,4.702814E0,4.0299454E0,8.59478E0,1.6853773E1,6.5405365E2,1.7341122E1,2.1838787E1,2.0350685E1,4.039256E0,8.007941E1,1.5085357E1,3.0083372E1,1.4925298E2,3.6988738E0,1.0730588E2,8.609244E1,1.1445196E2,1.5499974E2,2.12458E2,3.2885828E0,6.1479726E0,2.0653307E1,1.3334204E1,4.2502418E0,3.327139E1,8.187883E0,3.7732403E0,7.835973E0,9.0178E0,8.3772064E1,5.7028156E2,6.5330424E0,1.080808E1,5.5008602E1,2.5070803E1,7.007356E0,8.078001E0,3.3126764E0,2.6770695E1,1.0175122E2,4.750175E1,6.249186E0,7.9843254E1,1.033468E2,1.1105156E1,1.4290576E2,1.2093978E1],"tree_param":{"num_deleted":"0","num_feature":"6","num_nodes":"83","size_leaf_vector":"1"}},{"base_weights":[1.7865734E-2,-7.514709E-1,6.559952E-1,2.1447438E-1,-9.3345004E-1,2.867236E-1,9.565958E-1,-4.5182735E-1,1.1592108E0,-1.0119474E0,3.3040524E-2,1.4702333E-2,9.2350125E-1,1.3272271E0,8.530167E-1,7.027338E-2,-6.9585794E-1,8.8183093E-1,7.747895E-2,1.0868593E0,-1.0497335E0,-5.5292434E-1,7.484492E-2,1.264964E0,-1.9632015E-1,1.1778176E0,-8.048897E-2,4.0749025E-2,6.7872465E-2,1.47851E-1,1.0180314E0,-1.004471E0,1.1454985E0,1.270431E0,-3.658694E-2,1.9055393E-2,6.4177655E-2,6.3475266E-2,-1.0734539E0,8.5371435E-1,-1.1491354E0,6.922178E-2,7.5645433E-3,-6.0908854E-1,5.098385E-1,1.2793429E0,7.9444885E-2,1.0088313E0,-7.5865865E-1,7.864743E-1,1.2066975E0,5.9078187E-2,-5.7275373E-2,6.740024E-2,3.244301E-2,6.905534E-2,3.2812554E-2,-5.5410095E-2,-1.0193862E-2,-4.5309383E-2,8.142453E-2,-6.724732E-2,-1.6612155E-2,-5.9698023E-2,-1.8451532E-2,-7.165308E-2,4.0840954E-2,6.654868E-2,3.9447874E-2,-6.230954E-2,5.725171E-2,6.4847045E-2,-2.908631E-3,-5.5275973E-2,1.5278535E-2,4.5995537E-2,-4.9566224E-2,6.296054E-2,1.6264006E-2],"categories":[],"categories_nodes":[],"categories_segments":[],"categories_sizes":[],"default_left":[0,0,0,0,0,0,0,0,0,0,0,0,0,0,0,0,0,0,0,0,0,0,0,0,0,0,0,0,0,0,0,0,0,0,0,0,0,0,0,0,0,0,0,0,0,0,0,0,0,0,0,0,0,0,0,0,0,0,0,0,0,0,0,0,0,0,0,0,0,0,0,0,0,0,0,0,0,0,0],"id":15,"left_children":[1,3,5,7,9,11,13,15,17,19,21,23,25,27,29,-1,31,33,-1,35,37,39,-1,41,43,45,-1,-1,-1,47,49,51,53,55,-1,-1,-1,-1,57,59,61,-1,-1,63,65,67,69,71,73,75,77,-1,-1,-1,-1,-1,-1,-1,-1,-1,-1,-1,-1,-1,-1,-1,-1,-1,-1,-1,-1,-1,-1,-1,-1,-1,-1,-1,-1],"loss_changes":[9.193774E2,1.4945175E2,1.1335135E2,8.576517E1,5.425232E1,7.9800095E1,2.0513916E1,3.7295547E1,4.728241E0,5.356244E1,4.7706455E1,8.5696175E1,9.074007E1,7.72522E-1,5.1455383E1,0E0,4.1777462E1,2.301741E1,0E0,1.2018023E0,3.7111572E1,3.4325344E1,0E0,6.0312424E0,8.133217E1,1.3937622E1,0E0,0E0,0E0,6.731783E1,1.4744263E1,2.039573E1,2.0442104E-1,1.0482216E0,0E0,0E0,0E0,0E0,1.9226807E1,1.8396263E1,4.087921E0,0E0,0E0,2.4253647E1,6.2653908E1,1.8661804E0,1.7980545E1,1.3651691E1,1.5881445E1,3.985209E1,8.6658325E0,0E0,0E0,0E0,0E0,0E0,0E0,0E0,0E0,0E0,0E0,0E0,0E0,0E0,0E0,0E0,0E0,0E0,0E0,0E0,0E0,0E0,0E0,0E0,0E0,0E0,0E0,0E0,0E0],"parents":[2147483647,0,0,1,1,2,2,3,3,4,4,5,5,6,6,7,7,8,8,9,9,10,10,11,11,12,12,13,13,14,14,16,16,17,17,19,19,20,20,21,21,23,23,24,24,25,25,29,29,30,30,31,31,32,32,33,33,38,38,39,39,40,40,43,43,44,44,45,45,46,46,47,47,48,48,49,49,50,50],"right_children":[2,4,6,8,10,12,14,16,18,20,22,24,26,28,30,-1,32,34,-1,36,38,40,-1,42,44,46,-1,-1,-1,48,50,52,54,56,-1,-1,-1,-1,58,60,62,-1,-1,64,66,68,70,72,74,76,78,-1,-1,-1,-1,-1,-1,-1,-1,-1,-1,-1,-1,-1,-1,-1,-1,-1,-1,-1,-1,-1,-1,-1,-1,-1,-1,-1,-1],"split_conditions":[-2.7071726E-1,-1.7848007E-1,-4.4426214E-2,-4.7099512E-2,2.3911921E-2,-5.4848857E-2,-1.5549107E-1,-4.5483324E-1,-3.4238544E-1,-4.3319124E-1,-4.6146248E-2,-1.5403286E-1,-4.4575885E-2,-4.7441907E-2,-4.2238794E-2,7.027338E-2,-4.7304988E-2,-3.464459E-1,7.747895E-2,-4.8992295E-2,-5.0011426E-2,-4.916402E-2,7.484492E-2,-4.4927206E-2,-4.3706372E-2,-3.9748088E-2,-8.048897E-2,4.0749025E-2,6.7872465E-2,-4.226808E-2,-3.753352E-2,-4.858124E-2,-4.715809E-2,-4.6127167E-2,-3.658694E-2,1.9055393E-2,6.4177655E-2,6.3475266E-2,-2.835611E-1,-3.263109E-1,-3.040435E-1,6.922178E-2,7.5645433E-3,-1.5054512E-1,-1.5383486E-1,1.9121021E-1,-4.790647E-2,-4.0789373E-2,-7.7603355E-2,-2.1892365E-2,3.3684292E0,5.9078187E-2,-5.7275373E-2,6.740024E-2,3.244301E-2,6.905534E-2,3.2812554E-2,-5.5410095E-2,-1.0193862E-2,-4.5309383E-2,8.142453E-2,-6.724732E-2,-1.6612155E-2,-5.9698023E-2,-1.8451532E-2,-7.165308E-2,4.0840954E-2,6.654868E-2,3.9447874E-2,-6.230954E-2,5.725171E-2,6.4847045E-2,-2.908631E-3,-5.5275973E-2,1.5278535E-2,4.5995537E-2,-4.9566224E-2,6.296054E-2,1.6264006E-2],"split_indices":[5,4,0,0,4,4,4,5,5,5,2,4,0,2,5,0,2,5,0,0,0,0,0,0,2,2,0,0,0,0,2,2,2,2,0,0,0,0,5,5,5,0,0,4,4,5,0,2,4,0,4,0,0,0,0,0,0,0,0,0,0,0,0,0,0,0,0,0,0,0,0,0,0,0,0,0,0,0,0],"split_type":[0,0,0,0,0,0,0,0,0,0,0,0,0,0,0,0,0,0,0,0,0,0,0,0,0,0,0,0,0,0,0,0,0,0,0,0,0,0,0,0,0,0,0,0,0,0,0,0,0,0,0,0,0,0,0,0,0,0,0,0,0,0,0,0,0,0,0,0,0,0,0,0,0,0,0,0,0,0,0],"sum_hessian":[1.8706974E3,8.480728E2,1.0226246E3,1.3441568E2,7.1365717E2,4.5977258E2,5.62852E2,7.912929E1,5.5286396E1,6.600052E2,5.3651974E1,3.228705E2,1.3690207E2,1.2036016E2,4.4249182E2,8.636705E0,7.0492584E1,3.4225857E1,2.1060537E1,1.1181325E1,6.4882385E2,3.875935E1,1.4892622E1,4.590414E1,2.7696637E2,1.24898544E2,1.2003517E1,8.263615E0,1.1209654E2,8.427046E1,3.5822137E2,6.0763126E1,9.72946E0,2.7754364E1,6.471495E0,3.0773034E0,8.104021E0,6.037047E0,6.427868E2,1.1409367E1,2.7349983E1,4.1237213E1,4.6669292E0,1.7488118E2,1.020852E2,1.1417986E2,1.0718683E1,4.316272E1,4.1107746E1,1.6314989E2,1.9507149E2,3.235525E0,5.75276E1,5.693609E0,4.03585E0,2.2458603E1,5.295761E0,6.1782434E2,2.496247E1,3.4356608E0,7.9737062E0,2.1540298E1,5.8096843E0,4.973478E1,1.251464E2,1.3428305E1,8.865689E1,1.0175259E2,1.2427272E1,4.700985E0,6.0176983E0,3.3816246E1,9.346474E0,3.0973768E1,1.0133977E1,1.5220813E2,1.0941751E1,1.8369841E2,1.1373074E1],"tree_param":{"num_deleted":"0","num_feature":"6","num_nodes":"79","size_leaf_vector":"1"}},{"base_weights":[-9.253838E-3,-7.4714655E-1,6.1370903E-1,1.8109539E-1,-9.136237E-1,7.083236E-2,8.9296466E-1,-4.5847818E-1,1.056507E0,-9.884739E-1,-3.4773878E-3,1.2512522E0,-1.8670864E-1,6.117575E-1,1.1284269E0,6.838248E-2,-7.197393E-1,1.3396292E0,-5.359703E-3,9.265635E-1,-1.0233608E0,-6.1991867E-2,6.0544574E-1,8.4736913E-1,7.398645E-2,-5.950418E-2,2.871264E-1,6.648564E-2,2.290688E-1,1.2105772E0,5.3955334E-1,-9.0311104E-1,6.419369E-2,1.0144675E0,7.570162E-2,-5.205611E-2,7.2380625E-2,2.0771243E-2,5.961121E-2,6.040552E-2,-1.0430262E0,1.3808993E0,-1.7513658E-1,6.8470955E-2,-6.017804E-2,-1.1281984E0,6.245448E-1,-5.1340973E-1,8.052044E-1,1.076637E0,6.3572004E-2,-6.2400755E-2,1.0789375E0,-2.312211E-2,-5.9726506E-2,6.1414104E-2,7.3593105E-3,-2.7875204E-2,-5.6133628E-2,4.2459935E-2,9.9562995E-2,-5.958126E-2,5.99653E-2,-7.167745E-2,6.462335E-2,5.226598E-2,1.6541835E-3,3.434989E-2,-3.7053734E-2,6.4655416E-2,2.508268E-3,6.0861636E-2,-1.2743784E-1,6.4840786E-2,-2.4552397E-2],"categories":[],"categories_nodes":[],"categories_segments":[],"categories_sizes":[],"default_left":[0,0,0,0,0,0,0,0,0,0,0,0,0,0,0,0,0,0,0,0,0,0,0,0,0,0,0,0,0,0,0,0,0,0,0,0,0,0,0,0,0,0,0,0,0,0,0,0,0,0,0,0,0,0,0,0,0,0,0,0,0,0,0,0,0,0,0,0,0,0,0,0,0,0,0],"id":16,"left_children":[1,3,5,7,9,11,13,15,17,19,21,23,25,27,29,-1,31,33,35,37,39,-1,41,43,-1,-1,45,-1,47,49,51,53,-1,55,-1,-1,-1,-1,-1,-1,57,59,61,-1,-1,63,65,67,69,71,-1,-1,73,-1,-1,-1,-1,-1,-1,-1,-1,-1,-1,-1,-1,-1,-1,-1,-1,-1,-1,-1,-1,-1,-1],"loss_changes":[8.360801E2,1.2882895E2,1.4945029E2,7.1843185E1,4.810309E1,1.02404274E2,4.242444E1,3.6453247E1,1.6274143E1,4.4540894E1,4.1904675E1,4.312546E0,1.3192198E2,8.1828E1,1.6434021E1,0E0,2.5295681E1,8.8681793E-1,2.014704E1,1.161191E0,2.9401733E1,0E0,2.2818323E1,2.7489208E1,0E0,0E0,9.086244E1,0E0,8.4342766E1,1.1514893E0,4.4779858E1,7.2519455E0,0E0,3.1469784E0,0E0,0E0,0E0,0E0,0E0,0E0,2.3976929E1,4.417591E0,2.863749E1,0E0,0E0,2.897969E1,3.8065178E1,2.4104109E1,4.077677E1,5.5664734E1,0E0,0E0,1.2657398E1,0E0,0E0,0E0,0E0,0E0,0E0,0E0,0E0,0E0,0E0,0E0,0E0,0E0,0E0,0E0,0E0,0E0,0E0,0E0,0E0,0E0,0E0],"parents":[2147483647,0,0,1,1,2,2,3,3,4,4,5,5,6,6,7,7,8,8,9,9,10,10,11,11,12,12,13,13,14,14,16,16,17,17,18,18,19,19,20,20,22,22,23,23,26,26,28,28,29,29,30,30,31,31,33,33,40,40,41,41,42,42,45,45,46,46,47,47,48,48,49,49,52,52],"right_children":[2,4,6,8,10,12,14,16,18,20,22,24,26,28,30,-1,32,34,36,38,40,-1,42,44,-1,-1,46,-1,48,50,52,54,-1,56,-1,-1,-1,-1,-1,-1,58,60,62,-1,-1,64,66,68,70,72,-1,-1,74,-1,-1,-1,-1,-1,-1,-1,-1,-1,-1,-1,-1,-1,-1,-1,-1,-1,-1,-1,-1,-1,-1],"split_conditions":[-2.7071726E-1,-1.7848007E-1,-2.164525E-1,-4.7099512E-2,2.3911921E-2,-1.5450624E-1,-1.8569728E-2,-4.5483324E-1,-1.4637102E-1,-4.3319124E-1,-3.263109E-1,-2.38382E-1,-1.8461965E-1,-1.3991818E-1,-1.33052515E-2,6.838248E-2,1.741907E-1,-3.846509E-1,-3.4238544E-1,-4.731754E-2,-5.0011426E-2,-6.1991867E-2,1.6169028E-1,-2.3944566E-1,7.398645E-2,-5.950418E-2,-1.5154423E-1,6.648564E-2,-1.0812557E-1,-4.3146227E-2,-1.2655969E-2,-1.9078763E-1,6.419369E-2,-4.29244E-1,7.570162E-2,-5.205611E-2,7.2380625E-2,2.0771243E-2,5.961121E-2,6.040552E-2,-3.9351752E-1,-3.0643567E-1,8.03102E-1,6.8470955E-2,-6.017804E-2,-4.570162E-2,-1.42215E-1,-4.8535112E-2,3.375793E-1,-4.321951E-2,6.3572004E-2,-6.2400755E-2,3.7096999E0,-2.312211E-2,-5.9726506E-2,6.1414104E-2,7.3593105E-3,-2.7875204E-2,-5.6133628E-2,4.2459935E-2,9.9562995E-2,-5.958126E-2,5.99653E-2,-7.167745E-2,6.462335E-2,5.226598E-2,1.6541835E-3,3.434989E-2,-3.7053734E-2,6.4655416E-2,2.508268E-3,6.0861636E-2,-1.2743784E-1,6.4840786E-2,-2.4552397E-2],"split_indices":[5,4,3,0,4,4,5,5,3,5,5,3,5,4,0,0,3,5,5,0,0,0,3,3,0,0,4,0,3,0,0,3,0,5,0,0,0,0,0,0,5,5,3,0,0,0,4,0,3,0,0,0,3,0,0,0,0,0,0,0,0,0,0,0,0,0,0,0,0,0,0,0,0,0,0],"split_type":[0,0,0,0,0,0,0,0,0,0,0,0,0,0,0,0,0,0,0,0,0,0,0,0,0,0,0,0,0,0,0,0,0,0,0,0,0,0,0,0,0,0,0,0,0,0,0,0,0,0,0,0,0,0,0,0,0,0,0,0,0,0,0,0,0,0,0,0,0,0,0,0,0,0,0],"sum_hessian":[1.816834E3,8.3160614E2,9.852278E2,1.2645143E2,7.051547E2,3.3508047E2,6.501473E2,7.3343285E1,5.310815E1,6.514903E2,5.3664433E1,5.9322372E1,2.757581E2,2.97932E2,3.522153E2,8.649735E0,6.469355E1,4.172229E1,1.1385859E1,1.1198818E1,6.402915E2,1.7366766E1,3.6297665E1,2.3134977E1,3.6187397E1,8.796826E1,1.8778984E2,1.02729126E2,1.9520288E2,3.0816867E2,4.4046627E1,5.9772404E1,4.9211426E0,1.6945486E1,2.4776804E1,6.812773E0,4.573085E0,4.7067122E0,6.4921055E0,5.06549E0,6.35226E2,1.7822853E1,1.8474813E1,1.8705832E1,4.429146E0,3.5700024E1,1.5208981E2,8.53366E1,1.0986627E2,1.02121056E2,2.060476E2,9.905412E0,3.4141216E1,2.4823086E1,3.494932E1,1.3260158E1,3.6853285E0,9.064661E1,5.445794E2,1.0803209E1,7.019644E0,1.0696831E1,7.777982E0,3.2063248E1,3.6367745E0,8.8419464E1,6.3670345E1,1.3282815E1,7.205379E1,6.630654E1,4.3559727E1,9.894802E1,3.1730344E0,3.0133385E1,4.007831E0],"tree_param":{"num_deleted":"0","num_feature":"6","num_nodes":"75","size_leaf_vector":"1"}},{"base_weights":[4.2798235E-3,-6.3154453E-1,6.13931E-1,7.928194E-1,-7.307026E-1,4.359007E-1,1.1358408E0,2.4158826E-1,6.337716E-2,-8.158125E-1,7.82447E-1,2.4142115E-1,9.4044644E-1,6.1475158E-2,5.6408095E-1,-4.6975464E-1,5.983919E-2,1.2178837E0,-8.6331224E-1,6.682114E-2,-1.5264209E-2,1.2258997E0,5.7130724E-2,-4.565324E-1,1.069893E0,-4.852271E-2,8.228896E-1,5.0354388E-2,-9.801894E-1,7.3383324E-2,2.8608173E-2,-9.892604E-1,-3.794105E-1,-3.3532062E-1,4.343398E-2,6.762465E-1,6.5780245E-2,-4.9176604E-1,2.2129706E-1,6.2395383E-2,-9.6476905E-2,-3.155701E-2,1.1349369E0,1.0484334E0,1.1749822E-2,-1.1701759E-2,-6.0794707E-2,-5.1560868E-2,1.5706392E-3,6.142093E-2,-2.6473174E-2,-5.322927E-2,2.9400786E-2,6.717401E-2,-4.9655486E-2,-5.2942466E-2,2.5164736E-2,1.7649712E-2,-4.1868538E-2,4.051467E-2,6.663277E-2,2.2798415E-2,6.0935598E-2],"categories":[],"categories_nodes":[],"categories_segments":[],"categories_sizes":[],"default_left":[0,0,0,0,0,0,0,0,0,0,0,0,0,0,0,0,0,0,0,0,0,0,0,0,0,0,0,0,0,0,0,0,0,0,0,0,0,0,0,0,0,0,0,0,0,0,0,0,0,0,0,0,0,0,0,0,0,0,0,0,0,0,0],"id":17,"left_children":[1,3,5,7,9,11,13,15,-1,17,19,21,23,-1,25,27,-1,29,31,-1,33,35,37,39,41,-1,43,-1,45,-1,-1,47,49,51,-1,53,-1,55,57,-1,-1,-1,59,61,-1,-1,-1,-1,-1,-1,-1,-1,-1,-1,-1,-1,-1,-1,-1,-1,-1,-1,-1],"loss_changes":[6.915671E2,1.2392175E2,8.4131226E1,1.4692928E1,1.0585263E2,6.657065E1,1.1678986E1,1.9422546E1,0E0,7.581653E1,1.9471668E1,8.932045E1,3.4675034E1,0E0,1.4447663E1,1.3521537E1,0E0,2.07625E0,4.575421E1,0E0,5.6746116E0,2.9384766E0,3.7600155E1,4.4418617E1,1.989235E1,0E0,3.7247105E0,0E0,1.9777737E0,0E0,0E0,2.5724792E1,3.875417E1,1.0518633E1,0E0,1.5759591E1,0E0,5.475965E1,4.5045185E1,0E0,0E0,0E0,9.658234E0,1.5987835E0,0E0,0E0,0E0,0E0,0E0,0E0,0E0,0E0,0E0,0E0,0E0,0E0,0E0,0E0,0E0,0E0,0E0,0E0,0E0],"parents":[2147483647,0,0,1,1,2,2,3,3,4,4,5,5,6,6,7,7,9,9,10,10,11,11,12,12,14,14,15,15,17,17,18,18,20,20,21,21,22,22,23,23,24,24,26,26,28,28,31,31,32,32,33,33,35,35,37,37,38,38,42,42,43,43],"right_children":[2,4,6,8,10,12,14,16,-1,18,20,22,24,-1,26,28,-1,30,32,-1,34,36,38,40,42,-1,44,-1,46,-1,-1,48,50,52,-1,54,-1,56,58,-1,-1,-1,60,62,-1,-1,-1,-1,-1,-1,-1,-1,-1,-1,-1,-1,-1,-1,-1,-1,-1,-1,-1],"split_conditions":[-4.5658614E-2,-4.8373107E-2,-3.753352E-2,-4.9099516E-2,-4.5058247E-2,-5.0097816E-2,3.8546965E-1,-1.5540238E-1,6.337716E-2,-4.9115032E-2,-1.6402686E-1,-1.6366647E-1,-4.529238E-2,6.1475158E-2,4.6596608E-1,-1.9166976E-1,5.983919E-2,-4.9267977E-2,-4.7637336E-2,6.682114E-2,-4.6016615E-2,-4.4996906E-2,-1.5154423E-1,-4.534631E-2,-4.833414E-2,-4.852271E-2,1.3215816E-1,5.0354388E-2,-4.858124E-2,7.3383324E-2,2.8608173E-2,-4.5913346E-2,-3.3555162E-1,-1.5169725E-1,4.343398E-2,-4.534488E-2,6.5780245E-2,-4.2241387E-2,-3.89219E-2,6.2395383E-2,-9.6476905E-2,-3.155701E-2,5.5871017E-2,6.2763494E-1,1.1749822E-2,-1.1701759E-2,-6.0794707E-2,-5.1560868E-2,1.5706392E-3,6.142093E-2,-2.6473174E-2,-5.322927E-2,2.9400786E-2,6.717401E-2,-4.9655486E-2,-5.2942466E-2,2.5164736E-2,1.7649712E-2,-4.1868538E-2,4.051467E-2,6.663277E-2,2.2798415E-2,6.0935598E-2],"split_indices":[2,2,2,0,1,4,4,4,0,1,4,4,2,0,4,4,0,1,0,0,2,0,4,2,1,0,0,0,2,0,0,2,4,4,0,0,0,1,2,0,0,0,4,4,0,0,0,0,0,0,0,0,0,0,0,0,0,0,0,0,0,0,0],"split_type":[0,0,0,0,0,0,0,0,0,0,0,0,0,0,0,0,0,0,0,0,0,0,0,0,0,0,0,0,0,0,0,0,0,0,0,0,0,0,0,0,0,0,0,0,0,0,0,0,0,0,0,0,0,0,0,0,0,0,0,0,0,0,0],"sum_hessian":[1.7820856E3,8.723003E2,9.097853E2,5.631814E1,8.159821E2,6.797491E2,2.3003618E2,2.6757383E1,2.9560757E1,7.7296606E2,4.3016094E1,4.9169965E2,1.8804944E2,1.9666869E2,3.33675E1,1.5627586E1,1.1129796E1,1.707924E1,7.558868E2,2.4987818E1,1.8028276E1,7.663955E1,4.150601E2,1.5733013E1,1.7231642E2,4.4186473E0,2.8948853E1,3.76405E0,1.1863536E1,1.1397469E1,5.6817727E0,5.9894995E2,1.5693684E2,1.3691531E1,4.3367453E0,1.1950899E1,6.468865E1,9.509859E1,3.1996152E2,7.364379E0,8.368634E0,6.025807E0,1.6629062E2,2.0355963E1,8.59289E0,3.3263755E0,8.537161E0,5.752911E2,2.3658878E1,1.2782698E1,1.4415416E2,7.5642204E0,6.1273103E0,8.677682E0,3.273217E0,6.0535442E1,3.4563145E1,2.851551E2,3.480643E1,6.487213E1,1.0141848E2,5.365407E0,1.4990557E1],"tree_param":{"num_deleted":"0","num_feature":"6","num_nodes":"63","size_leaf_vector":"1"}},{"base_weights":[1.3700517E-2,-7.05242E-1,6.145466E-1,2.2572252E-1,-8.6928767E-1,2.644859E-1,9.10108E-1,-3.2847187E-1,1.0822074E0,5.317125E-1,-9.305576E-1,1.2214223E0,-8.7491766E-2,7.363799E-1,1.1463358E0,6.632354E-2,-7.218598E-1,7.9515666E-1,7.479982E-2,-7.744462E-2,8.37285E-2,-9.675842E-1,5.885299E-2,6.565526E-2,9.683782E-1,-4.2802656E-1,6.617635E-1,8.442208E-1,-4.150839E-1,1.1963552E0,3.6064446E-2,-8.5769016E-1,5.6378163E-2,1.1105233E0,-5.6034632E-2,9.094012E-1,-9.207564E-1,1.0575657E0,-9.985336E-1,1.1807755E0,1.675964E-2,-9.7426474E-1,-1.9956808E-1,-8.095029E-3,1.0641503E0,9.290446E-1,-8.156029E-1,-1.0449898E0,5.740769E-2,9.405268E-1,6.1220355E-2,5.2196234E-2,-3.0755794E-2,-5.906019E-3,-5.8810968E-2,1.9071344E-2,6.3937776E-2,2.1958767E-2,6.8247996E-2,-2.72122E-2,-5.352345E-2,6.0670763E-2,2.6462901E-2,-5.24578E-2,-8.577105E-3,3.2419644E-2,7.417039E-2,-2.9573057E-2,2.8331256E-2,-5.9821468E-2,-1.1757356E-2,-5.1487405E-3,-8.683457E-2,2.8483441E-2,-9.5891245E-2,6.10384E-2,-6.279375E-2,2.8605614E-2,6.085592E-2,-7.585904E-2,4.995648E-2,1.8180361E-2,-8.311246E-2,6.2326666E-2,-3.401662E-2],"categories":[],"categories_nodes":[],"categories_segments":[],"categories_sizes":[],"default_left":[0,0,0,0,0,0,0,0,0,0,0,0,0,0,0,0,0,0,0,0,0,0,0,0,0,0,0,0,0,0,0,0,0,0,0,0,0,0,0,0,0,0,0,0,0,0,0,0,0,0,0,0,0,0,0,0,0,0,0,0,0,0,0,0,0,0,0,0,0,0,0,0,0,0,0,0,0,0,0,0,0,0,0,0,0],"id":18,"left_children":[1,3,5,7,9,11,13,15,17,19,21,23,25,27,29,-1,31,33,-1,35,-1,37,-1,-1,39,41,43,45,47,49,51,53,-1,55,-1,57,59,61,63,65,67,69,71,73,75,77,79,81,-1,83,-1,-1,-1,-1,-1,-1,-1,-1,-1,-1,-1,-1,-1,-1,-1,-1,-1,-1,-1,-1,-1,-1,-1,-1,-1,-1,-1,-1,-1,-1,-1,-1,-1,-1,-1],"loss_changes":[7.5350665E2,1.2147681E2,9.807092E1,5.7202816E1,5.8467896E1,1.4709642E2,2.0282745E1,4.8796482E1,4.4266663E0,2.0273441E1,5.1663208E1,1.4525146E0,8.192644E1,3.7532684E1,1.1972382E1,0E0,1.6043755E1,1.9401466E1,0E0,1.7340408E1,0E0,4.096924E1,0E0,0E0,7.0620728E0,2.73353E1,2.706543E1,3.935205E1,2.7109592E1,3.3395386E-1,7.440213E0,1.3165928E1,0E0,2.7388954E0,0E0,1.4657073E0,4.81472E-2,1.8701458E-1,2.609961E1,3.6509247E0,2.8125677E0,1.0358955E1,2.3102924E1,4.375199E1,2.4322067E1,2.6167374E1,1.916229E1,1.7366648E1,0E0,1.3132837E1,0E0,0E0,0E0,0E0,0E0,0E0,0E0,0E0,0E0,0E0,0E0,0E0,0E0,0E0,0E0,0E0,0E0,0E0,0E0,0E0,0E0,0E0,0E0,0E0,0E0,0E0,0E0,0E0,0E0,0E0,0E0,0E0,0E0,0E0,0E0],"parents":[2147483647,0,0,1,1,2,2,3,3,4,4,5,5,6,6,7,7,8,8,9,9,10,10,11,11,12,12,13,13,14,14,16,16,17,17,19,19,21,21,24,24,25,25,26,26,27,27,28,28,29,29,30,30,31,31,33,33,35,35,36,36,37,37,38,38,39,39,40,40,41,41,42,42,43,43,44,44,45,45,46,46,47,47,49,49],"right_children":[2,4,6,8,10,12,14,16,18,20,22,24,26,28,30,-1,32,34,-1,36,-1,38,-1,-1,40,42,44,46,48,50,52,54,-1,56,-1,58,60,62,64,66,68,70,72,74,76,78,80,82,-1,84,-1,-1,-1,-1,-1,-1,-1,-1,-1,-1,-1,-1,-1,-1,-1,-1,-1,-1,-1,-1,-1,-1,-1,-1,-1,-1,-1,-1,-1,-1,-1,-1,-1,-1,-1],"split_conditions":[-2.7071726E-1,-1.8069696E-1,-6.7550875E-2,-4.725262E-2,-4.9076416E-2,-1.5450624E-1,-3.8646948E-2,-4.5483324E-1,-3.4400603E-1,-4.791935E-2,-4.0274125E-2,-1.590919E-1,-7.7603355E-2,4.8996136E-1,1.3259229E-1,6.632354E-2,-4.6053227E-2,-3.464459E-1,7.479982E-2,-4.932436E-2,8.37285E-2,-4.3319124E-1,5.885299E-2,6.565526E-2,-2.0460103E-1,-1.4973402E-1,-4.529238E-2,-3.8871914E-2,-3.9974462E-2,-3.753352E-2,3.3684292E0,-4.805666E-2,5.6378163E-2,-8.0858535E-1,-5.6034632E-2,-4.858124E-2,-4.84181E-2,-4.5483324E-1,2.3911921E-2,-4.736821E-2,-4.4586875E-2,-4.419795E-2,-8.306223E-2,-4.5331124E-2,-1.40863145E-2,-4.4873595E-2,-4.1318703E-2,-4.0467598E-2,5.740769E-2,-3.7697386E-2,6.1220355E-2,5.2196234E-2,-3.0755794E-2,-5.906019E-3,-5.8810968E-2,1.9071344E-2,6.3937776E-2,2.1958767E-2,6.8247996E-2,-2.72122E-2,-5.352345E-2,6.0670763E-2,2.6462901E-2,-5.24578E-2,-8.577105E-3,3.2419644E-2,7.417039E-2,-2.9573057E-2,2.8331256E-2,-5.9821468E-2,-1.1757356E-2,-5.1487405E-3,-8.683457E-2,2.8483441E-2,-9.5891245E-2,6.10384E-2,-6.279375E-2,2.8605614E-2,6.085592E-2,-7.585904E-2,4.995648E-2,1.8180361E-2,-8.311246E-2,6.2326666E-2,-3.401662E-2],"split_indices":[5,4,5,2,1,4,2,5,5,2,1,4,4,5,1,0,1,5,0,1,0,5,0,0,5,4,2,2,2,2,4,2,0,4,0,2,2,5,4,2,1,1,4,2,1,1,1,2,0,2,0,0,0,0,0,0,0,0,0,0,0,0,0,0,0,0,0,0,0,0,0,0,0,0,0,0,0,0,0,0,0,0,0,0,0],"split_type":[0,0,0,0,0,0,0,0,0,0,0,0,0,0,0,0,0,0,0,0,0,0,0,0,0,0,0,0,0,0,0,0,0,0,0,0,0,0,0,0,0,0,0,0,0,0,0,0,0,0,0,0,0,0,0,0,0,0,0,0,0,0,0,0,0,0,0,0,0,0,0,0,0,0,0,0,0,0,0,0,0,0,0,0,0],"sum_hessian":[1.7423307E3,7.9313324E2,9.491975E2,1.1876456E2,6.743687E2,4.3540356E2,5.1379395E2,7.248144E1,4.6283115E1,2.7934706E1,6.4643396E2,1.1641932E2,3.1898425E2,2.984346E2,2.1535933E2,1.3464742E1,5.9016697E1,2.905141E1,1.7231705E1,1.883021E1,9.104497E0,6.358051E2,1.0628895E1,8.2381615E1,3.4037704E1,2.1960364E2,9.9380615E1,2.7312204E2,2.531256E1,2.0600113E2,9.358207E0,5.5478344E1,3.5383503E0,2.5306135E1,3.7452767E0,8.640594E0,1.0189615E1,9.071159E0,6.2673395E2,2.7629995E1,6.407708E0,6.379853E1,1.5580511E2,3.7662785E1,6.1717834E1,2.6026187E2,1.2860163E1,1.8278692E1,7.0338683E0,2.376804E1,1.8223308E2,3.4364052E0,5.921802E0,1.7113829E1,3.8364517E1,5.3569756E0,1.994916E1,5.2183113E0,3.4222822E0,4.2177224E0,5.9718933E0,6.0033803E0,3.0677798E0,5.903297E2,3.6404232E1,1.1152795E1,1.64772E1,3.0064962E0,3.4012117E0,4.857814E1,1.522039E1,1.4759706E2,8.208049E0,2.9453665E1,8.209121E0,5.825878E1,3.459053E0,1.1757224E2,1.4268962E2,9.392842E0,3.4673204E0,5.694553E0,1.2584139E1,2.0187693E1,3.580347E0],"tree_param":{"num_deleted":"0","num_feature":"6","num_nodes":"85","size_leaf_vector":"1"}},{"base_weights":[-4.9475064E-3,-5.975209E-1,5.710253E-1,7.59393E-1,-6.9031274E-1,1.7407473E-2,8.2842594E-1,1.0546075E-2,1.0852373E0,-8.660078E-1,-4.2652193E-2,-4.1245526E-1,5.610034E-1,6.40118E-2,7.2417176E-1,5.875959E-2,-9.107456E-1,5.9781325E-1,1.2388164E0,-9.349198E-1,-3.1537715E-1,7.0365953E-1,-4.6191746E-1,-1.14643216E-1,-1.3321155E0,2.905764E-1,1.1465437E0,3.820669E-2,8.9331466E-1,-3.1484675E-2,-5.814004E-2,5.9662562E-2,-3.0126154E-2,3.117532E-2,6.531406E-2,1.5134856E-1,-9.765803E-1,1.032964E0,-5.3596115E-1,1.01698555E-1,1.2135606E0,7.375896E-2,-5.8212113E-1,-4.097916E-1,1.0962962E0,-7.5661674E-2,-3.788795E-2,9.401137E-1,-5.2486664E-1,6.282749E-2,-2.8731457E-3,-9.59427E-1,7.607624E-1,9.7350234E-1,3.5526296E-1,-4.2876583E-2,9.317707E-2,-5.34531E-2,-2.321939E-2,6.717494E-2,1.9952511E-2,6.103601E-2,-3.5564166E-2,8.565927E-2,-7.444435E-3,3.3858538E-2,6.459882E-2,-4.0719118E-2,2.3087127E-2,3.9238203E-2,-3.2902494E-2,-2.602162E-2,7.487252E-2,1.0870709E-2,5.580754E-2,-5.613124E-2,5.117659E-2,-3.5095003E-2,-6.3320525E-2,-1.7992882E-2,5.7782996E-2,5.4832123E-4,5.1468264E-2,-6.0344514E-2,3.7211467E-2],"categories":[],"categories_nodes":[],"categories_segments":[],"categories_sizes":[],"default_left":[0,0,0,0,0,0,0,0,0,0,0,0,0,0,0,0,0,0,0,0,0,0,0,0,0,0,0,0,0,0,0,0,0,0,0,0,0,0,0,0,0,0,0,0,0,0,0,0,0,0,0,0,0,0,0,0,0,0,0,0,0,0,0,0,0,0,0,0,0,0,0,0,0,0,0,0,0,0,0,0,0,0,0,0,0],"id":19,"left_children":[1,3,5,7,9,11,13,15,17,19,21,23,25,-1,27,-1,29,31,33,35,37,39,41,43,45,47,49,51,53,-1,-1,-1,-1,-1,-1,55,57,59,61,63,65,-1,67,69,71,-1,-1,73,75,-1,-1,77,79,81,83,-1,-1,-1,-1,-1,-1,-1,-1,-1,-1,-1,-1,-1,-1,-1,-1,-1,-1,-1,-1,-1,-1,-1,-1,-1,-1,-1,-1,-1,-1],"loss_changes":[5.927815E2,1.0831134E2,1.2549277E2,1.3474941E1,9.11994E1,6.578821E1,2.7390839E1,2.013464E1,2.1416588E0,2.363501E1,5.4189667E1,4.291332E1,1.9350868E1,0E0,5.6909027E1,0E0,1.04599E-2,8.693556E0,3.6218262E-1,2.5489777E1,2.1865725E1,1.900448E1,2.6664389E1,4.3292145E1,2.8447495E0,4.6243515E1,5.228939E0,7.146087E1,1.663852E1,0E0,0E0,0E0,0E0,0E0,0E0,3.882221E1,2.505603E1,1.5143147E0,2.0037231E1,1.2236573E1,5.403786E-1,0E0,2.5849857E1,2.9314655E1,1.6191216E1,0E0,0E0,5.9196205E0,3.7189606E1,0E0,0E0,2.404438E0,2.5845535E1,1.8379364E1,3.2879467E1,0E0,0E0,0E0,0E0,0E0,0E0,0E0,0E0,0E0,0E0,0E0,0E0,0E0,0E0,0E0,0E0,0E0,0E0,0E0,0E0,0E0,0E0,0E0,0E0,0E0,0E0,0E0,0E0,0E0,0E0],"parents":[2147483647,0,0,1,1,2,2,3,3,4,4,5,5,6,6,7,7,8,8,9,9,10,10,11,11,12,12,14,14,16,16,17,17,18,18,19,19,20,20,21,21,22,22,23,23,24,24,25,25,26,26,27,27,28,28,35,35,36,36,37,37,38,38,39,39,40,40,42,42,43,43,44,44,47,47,48,48,51,51,52,52,53,53,54,54],"right_children":[2,4,6,8,10,12,14,16,18,20,22,24,26,-1,28,-1,30,32,34,36,38,40,42,44,46,48,50,52,54,-1,-1,-1,-1,-1,-1,56,58,60,62,64,66,-1,68,70,72,-1,-1,74,76,-1,-1,78,80,82,84,-1,-1,-1,-1,-1,-1,-1,-1,-1,-1,-1,-1,-1,-1,-1,-1,-1,-1,-1,-1,-1,-1,-1,-1,-1,-1,-1,-1,-1,-1],"split_conditions":[-4.5658614E-2,-4.8373107E-2,-2.1736392E-1,-2.4068432E-1,-4.746769E-2,-4.192843E-2,-1.3646153E-1,-1.9553518E-1,-1.630078E-1,-9.38626E-2,-1.6766728E-1,-4.280143E-2,-3.6831938E-2,6.40118E-2,-4.3706372E-2,5.875959E-2,-1.5828E-1,-1.8223308E-1,-5.0164673E-2,-2.4261689E-1,-4.9264986E-2,-4.5926094E-2,-4.731754E-2,-4.3164484E-2,-4.4115357E-2,-3.9284464E-2,-2.2200277E-1,-7.331917E-2,-1.33052515E-2,-3.1484675E-2,-5.814004E-2,5.9662562E-2,-3.0126154E-2,3.117532E-2,6.531406E-2,-4.7547154E-2,-4.649248E-2,1.1944674E-1,-4.819127E-1,-4.731754E-2,-2.4261689E-1,7.375896E-2,-1.78513E-1,-1.6007613E-1,-4.865111E-2,-7.5661674E-2,-3.788795E-2,-1.5154423E-1,-3.769411E-2,6.282749E-2,-2.8731457E-3,-4.4136327E-2,-4.529238E-2,-1.3151816E-1,-1.2655969E-2,-4.2876583E-2,9.317707E-2,-5.34531E-2,-2.321939E-2,6.717494E-2,1.9952511E-2,6.103601E-2,-3.5564166E-2,8.565927E-2,-7.444435E-3,3.3858538E-2,6.459882E-2,-4.0719118E-2,2.3087127E-2,3.9238203E-2,-3.2902494E-2,-2.602162E-2,7.487252E-2,1.0870709E-2,5.580754E-2,-5.613124E-2,5.117659E-2,-3.5095003E-2,-6.3320525E-2,-1.7992882E-2,5.7782996E-2,5.4832123E-4,5.1468264E-2,-6.0344514E-2,3.7211467E-2],"split_indices":[2,2,3,3,0,2,4,4,4,3,4,2,0,0,2,0,4,4,0,3,0,0,0,2,0,2,3,4,0,0,0,0,0,0,0,2,2,4,4,0,3,0,3,4,0,0,0,4,2,0,0,2,2,4,0,0,0,0,0,0,0,0,0,0,0,0,0,0,0,0,0,0,0,0,0,0,0,0,0,0,0,0,0,0,0],"split_type":[0,0,0,0,0,0,0,0,0,0,0,0,0,0,0,0,0,0,0,0,0,0,0,0,0,0,0,0,0,0,0,0,0,0,0,0,0,0,0,0,0,0,0,0,0,0,0,0,0,0,0,0,0,0,0,0,0,0,0,0,0,0,0,0,0,0,0,0,0,0,0,0,0,0,0,0,0,0,0,0,0,0,0,0,0],"sum_hessian":[1.7348031E3,8.5506067E2,8.7974243E2,5.4270374E1,8.007903E2,2.7955106E2,6.001914E2,1.6767683E1,3.750269E1,6.296452E2,1.7114507E2,1.5624081E2,1.23310265E2,1.1041257E2,4.8977884E2,7.2840285E0,9.483654E0,1.0157556E1,2.7345135E1,5.5898926E2,7.065597E1,6.1317947E1,1.0982711E2,1.18871506E2,3.73693E1,8.537621E1,3.793405E1,9.712218E1,3.9265665E2,6.1378884E0,3.345766E0,6.793486E0,3.3640692E0,3.7139673E0,2.3631166E1,2.0549274E1,5.3844E2,9.416125E0,6.1239845E1,2.867054E1,3.2647408E1,5.7583447E0,1.0406877E2,9.610817E1,2.2763338E1,2.7167599E1,1.0201701E1,4.7437336E1,3.7938873E1,3.471832E1,3.215733E0,4.0657913E1,5.6464264E1,3.4102344E2,5.163322E1,1.3244401E1,7.3048735E0,4.551675E2,8.3272484E1,5.5687804E0,3.847345E0,5.0161953E0,5.622365E1,3.0728493E0,2.559769E1,5.393027E0,2.725438E1,8.530755E1,1.8761217E1,1.6165041E1,7.994313E1,4.466232E0,1.8297106E1,9.72941E0,3.7707924E1,2.7570341E1,1.0368534E1,2.389715E1,1.6760763E1,1.473598E1,4.1728283E1,1.8772017E1,3.222514E2,9.874157E0,4.1759064E1],"tree_param":{"num_deleted":"0","num_feature":"6","num_nodes":"85","size_leaf_vector":"1"}},{"base_weights":[-7.037095E-3,-6.9103247E-1,5.574175E-1,2.0969841E-1,-8.466739E-1,1.081363E-2,8.344057E-1,-3.6987627E-1,9.8806673E-1,9.5829266E-1,-8.79786E-1,1.1872326E0,-2.4007437E-1,5.7360804E-1,1.0599406E0,6.3648604E-2,-6.0988086E-1,1.1988506E0,8.871676E-2,7.123839E-3,6.062152E-2,-9.483826E-1,-9.361097E-2,6.401884E-2,2.5180493E-2,-1.1594478E0,1.7727415E-1,1.2548934E0,2.1969143E-1,1.1309313E0,5.735777E-1,-7.919237E-1,5.936087E-2,9.2293453E-1,7.0006356E-2,6.427233E-2,-4.2774085E-2,6.0373273E-2,-9.7217107E-1,-5.9658326E-2,4.8263142E-1,-1.0494969E0,-7.005114E-2,-1.0929728E0,4.908666E-1,3.4730982E-2,6.486828E-2,-3.994593E-1,7.2707075E-1,1.1401064E0,1.9060638E-2,-5.858953E-2,1.0300646E0,-1.4642921E-2,-6.1489314E-2,5.7191283E-2,-4.4403187E-4,-2.578613E-2,-5.213764E-2,6.331555E-2,-1.6811881E-2,-5.6836404E-2,4.543923E-3,-6.7058206E-2,3.7221644E-2,4.6361268E-2,-8.750848E-4,4.546751E-2,-3.4211192E-2,5.9627235E-2,2.1516443E-4,4.998122E-2,6.0395774E-2,6.175034E-2,-1.2053368E-2],"categories":[],"categories_nodes":[],"categories_segments":[],"categories_sizes":[],"default_left":[0,0,0,0,0,0,0,0,0,0,0,0,0,0,0,0,0,0,0,0,0,0,0,0,0,0,0,0,0,0,0,0,0,0,0,0,0,0,0,0,0,0,0,0,0,0,0,0,0,0,0,0,0,0,0,0,0,0,0,0,0,0,0,0,0,0,0,0,0,0,0,0,0,0,0],"id":20,"left_children":[1,3,5,7,9,11,13,15,17,19,21,23,25,27,29,-1,31,33,35,-1,-1,37,39,-1,-1,41,43,45,47,49,51,53,-1,55,-1,-1,-1,-1,57,-1,59,61,-1,63,65,-1,-1,67,69,71,-1,-1,73,-1,-1,-1,-1,-1,-1,-1,-1,-1,-1,-1,-1,-1,-1,-1,-1,-1,-1,-1,-1,-1,-1],"loss_changes":[6.471513E2,1.0642026E2,1.3903201E2,5.1098156E1,3.9475006E1,9.174313E1,3.5240997E1,2.6479652E1,9.044144E0,2.3406992E0,3.4170105E1,2.8341827E0,9.852238E1,6.8400536E1,1.0595367E1,0E0,1.976931E1,8.750496E-1,1.2676122E1,0E0,0E0,3.1132568E1,3.3580647E1,0E0,0E0,6.580887E-1,7.1082756E1,1.4109497E0,5.9556896E1,1.5131226E0,3.5871773E1,1.11911545E1,0E0,4.002142E0,0E0,0E0,0E0,0E0,1.809491E1,0E0,2.2815947E1,5.977852E0,0E0,1.7130394E1,3.1677204E1,0E0,0E0,3.2531586E1,3.4998257E1,1.4523926E0,0E0,0E0,9.420841E0,0E0,0E0,0E0,0E0,0E0,0E0,0E0,0E0,0E0,0E0,0E0,0E0,0E0,0E0,0E0,0E0,0E0,0E0,0E0,0E0,0E0,0E0],"parents":[2147483647,0,0,1,1,2,2,3,3,4,4,5,5,6,6,7,7,8,8,9,9,10,10,11,11,12,12,13,13,14,14,16,16,17,17,18,18,21,21,22,22,25,25,26,26,27,27,28,28,29,29,30,30,31,31,33,33,38,38,40,40,41,41,43,43,44,44,47,47,48,48,49,49,52,52],"right_children":[2,4,6,8,10,12,14,16,18,20,22,24,26,28,30,-1,32,34,36,-1,-1,38,40,-1,-1,42,44,46,48,50,52,54,-1,56,-1,-1,-1,-1,58,-1,60,62,-1,64,66,-1,-1,68,70,72,-1,-1,74,-1,-1,-1,-1,-1,-1,-1,-1,-1,-1,-1,-1,-1,-1,-1,-1,-1,-1,-1,-1,-1,-1],"split_conditions":[-2.7071726E-1,-1.8069696E-1,-2.164525E-1,-4.7099512E-2,-4.3319124E-1,-1.5450624E-1,-1.8569728E-2,-4.5483324E-1,-1.4637102E-1,-4.8960026E-2,2.96151E-2,-1.5474439E-1,-1.8461965E-1,-1.3991818E-1,-1.33052515E-2,6.3648604E-2,1.741907E-1,-3.8094693E-1,-3.7704715E-1,7.123839E-3,6.062152E-2,-5.0011426E-2,-3.263109E-1,6.401884E-2,2.5180493E-2,-2.0175222E-1,-1.5154423E-1,-2.1253751E-1,-1.0812557E-1,2.964116E0,-1.2655969E-2,-1.9078763E-1,5.936087E-2,-3.9859957E-1,7.0006356E-2,6.427233E-2,-4.2774085E-2,6.0373273E-2,-3.9351752E-1,-5.9658326E-2,1.6169028E-1,-4.4239677E-2,-7.005114E-2,-4.570162E-2,-1.4320526E-1,3.4730982E-2,6.486828E-2,-4.8450798E-2,3.375793E-1,-4.3146227E-2,1.9060638E-2,-5.858953E-2,3.7096999E0,-1.4642921E-2,-6.1489314E-2,5.7191283E-2,-4.4403187E-4,-2.578613E-2,-5.213764E-2,6.331555E-2,-1.6811881E-2,-5.6836404E-2,4.543923E-3,-6.7058206E-2,3.7221644E-2,4.6361268E-2,-8.750848E-4,4.546751E-2,-3.4211192E-2,5.9627235E-2,2.1516443E-4,4.998122E-2,6.0395774E-2,6.175034E-2,-1.2053368E-2],"split_indices":[5,4,3,0,5,4,5,5,3,0,4,4,5,4,0,0,3,5,4,0,0,0,5,0,0,5,4,3,3,5,0,3,0,5,0,0,0,0,5,0,3,0,0,0,4,0,0,0,3,0,0,0,3,0,0,0,0,0,0,0,0,0,0,0,0,0,0,0,0,0,0,0,0,0,0],"split_type":[0,0,0,0,0,0,0,0,0,0,0,0,0,0,0,0,0,0,0,0,0,0,0,0,0,0,0,0,0,0,0,0,0,0,0,0,0,0,0,0,0,0,0,0,0,0,0,0,0,0,0,0,0,0,0,0,0,0,0,0,0,0,0,0,0,0,0,0,0,0,0,0,0,0,0],"sum_hessian":[1.6741938E3,7.5684235E2,9.1735144E2,1.11458786E2,6.4538354E2,3.0887054E2,6.084809E2,6.4188614E1,4.7270172E1,1.1122932E1,6.342606E2,5.3636375E1,2.5523418E2,2.8382388E2,3.2465704E2,7.6334133E0,5.6555202E1,3.8025078E1,9.245092E0,3.0126266E0,8.110306E0,5.831706E2,5.109003E1,4.643644E1,7.1999345E0,7.9133514E1,1.7610066E2,9.616386E1,1.8766002E2,2.8214868E2,4.2508358E1,5.1861095E1,4.6941056E0,1.8394594E1,1.9630484E1,3.9179053E0,5.3271875E0,5.8216343E0,5.77349E2,1.7199757E1,3.3890274E1,5.8054775E1,2.1078743E1,3.4374985E1,1.4172568E2,7.9990163E0,8.816484E1,8.461624E1,1.0304378E2,2.78223E2,3.9256878E0,8.487935E0,3.4020424E1,2.5016605E1,2.6844492E1,1.4685746E1,3.7088485E0,7.843301E1,4.9891595E2,